//Numpy array shape [64]
//Min -0.677631914616
//Max 0.414950430393
//Number of zeros 0

#ifndef B15_H_
#define B15_H_

#ifndef __SYNTHESIS__
model_default_t b15[64];
#else
model_default_t b15[64] = {-0.2004366815, -0.0324991532, -0.2390202433, 0.3050769567, 0.0497695804, -0.2232770324, 0.0998260006, 0.2003085613, -0.1090909615, -0.4612778425, 0.0842954069, -0.2301493287, 0.3186106682, 0.1854688227, 0.1064808071, 0.0718156174, -0.0185456388, 0.2269487232, 0.0700715929, -0.1198514774, -0.0079682646, -0.1863296926, 0.1063318402, 0.0019665235, 0.0593601614, 0.0333402306, -0.2015357167, 0.0194802023, -0.0245637149, -0.6776319146, -0.1172748804, -0.0113263801, 0.1726938933, 0.0840198696, 0.2502911687, -0.4308682382, 0.2239137888, -0.0711692497, -0.0545292981, 0.1970350891, -0.1467993408, -0.1416008621, -0.2176512331, 0.1538524628, -0.0561097972, -0.1663261056, 0.4149504304, 0.3491094112, -0.1111007705, 0.1653219312, -0.0638000891, -0.2340337634, 0.1844478846, 0.0862059891, -0.0437115058, 0.2105246037, 0.0936970115, 0.1882125437, 0.2295340300, 0.0236084089, -0.0709639713, 0.2375812531, -0.0379155576, -0.1721150726};
#endif

#endif
