//Numpy array shape [3, 3, 40, 20]
//Min -0.864585459232
//Max 0.652363657951
//Number of zeros 0

#ifndef W11_H_
#define W11_H_

#ifndef __SYNTHESIS__
model_default_t w11[7200];
#else
model_default_t w11[7200] = {0.0001782568, 0.3294807673, -0.0007310214, 0.1141187176, -0.2767760456, -0.2956384122, 0.1018256247, -0.4654834867, -0.1538618058, -0.0327221565, -0.0263923984, 0.1180995032, -0.1978823394, -0.1366711706, -0.3376989961, 0.0857352540, -0.2606504858, -0.3094579577, -0.0121649848, -0.3207078576, -0.1560509652, 0.0480011478, -0.2251606733, 0.0684518293, -0.2067987770, -0.0262047891, -0.2924563885, 0.3047677279, -0.3416209519, -0.1012845635, 0.2510730028, -0.0907564238, 0.0650408715, 0.0393555425, -0.3281006217, -0.3983046710, 0.0147711905, -0.2079543620, -0.1808211952, -0.1258804500, 0.2685347199, -0.1638318002, 0.1592884213, -0.0154539738, -0.0963566452, 0.1459978223, -0.1770097017, -0.2655141056, 0.0004541544, -0.0359422900, 0.0041984241, -0.1899995953, 0.1015546247, 0.0358035937, -0.1851837337, -0.0640395880, 0.1096807122, -0.1474419087, 0.0783144087, -0.0578952432, -0.0160637796, -0.0377301797, 0.0214324240, 0.0251242034, 0.0969420522, 0.0678222179, 0.1220703945, -0.0365921892, 0.1402754486, -0.0609319471, -0.0123989135, -0.0977541655, -0.0025972899, -0.0750865862, -0.3062678277, -0.3805195391, 0.2814429998, 0.0972678065, 0.0404800922, 0.1965981573, 0.1676498502, 0.1533465832, 0.0457695164, 0.4234370589, 0.0820638984, -0.2202420980, -0.4664229453, 0.1090012416, -0.2529816926, -0.1284797341, -0.3242178261, -0.0835373774, 0.0819776952, -0.0769547671, 0.1414549053, 0.2925304472, -0.1032771245, 0.4536367655, 0.0375918821, -0.0922817066, 0.2107078284, -0.1190171689, -0.0821549967, -0.1544325948, -0.0960249230, 0.2379511595, 0.1248402968, -0.1119463965, -0.0516566075, 0.0868635401, 0.2035281509, 0.1789039075, -0.0539919399, 0.5175502300, -0.2980288565, -0.0268218201, 0.0487885885, 0.2343483865, 0.0010252553, -0.1981186420, -0.0520169921, 0.1617140621, 0.1338951588, 0.0351795293, -0.2518833280, -0.2715602517, 0.2866409719, -0.0869694948, 0.1132691950, -0.1042888463, -0.0643164888, 0.1432612687, 0.0323238857, -0.0343773477, 0.1388898790, 0.1003969386, -0.0241379533, 0.3695291281, -0.1017327756, -0.2629711926, 0.0811440870, 0.0105046341, -0.0129707567, -0.0476140864, 0.0429049358, 0.0731365830, 0.1070835739, 0.1096712202, 0.0065026591, 0.0267159380, 0.0809393674, 0.0282857418, -0.0167644974, -0.0665578395, 0.0067156549, -0.0771071687, 0.1044135913, 0.1216477305, 0.0600906536, 0.0652616471, -0.0591903031, -0.1355116814, -0.0391097404, -0.0544230230, 0.0860565677, -0.0649578497, 0.0130979475, -0.1188957468, -0.0450171605, -0.1298686117, -0.0287334919, -0.0713129640, -0.0325195193, -0.0774114281, 0.0360796675, -0.0111299632, -0.0529189110, -0.0974132791, 0.0085212197, 0.0182742290, 0.3281950057, 0.1070559993, 0.2732431293, -0.0042656153, -0.1006004140, -0.2955744863, 0.0291926172, 0.0260134451, 0.2644771039, -0.1543990672, -0.2430899441, -0.2203650624, 0.1627538055, 0.2499498427, 0.0496594906, -0.1733091027, 0.2092293352, 0.1369954646, 0.1791663468, 0.0816845968, -0.0947689638, 0.1016998067, -0.1332095414, 0.0629170835, 0.2739676237, -0.0315675698, 0.1136487797, 0.0367117450, 0.0134007065, -0.0634702519, 0.0344841816, 0.0580308884, 0.0163821820, -0.0424202904, -0.1305020899, -0.0107039995, -0.0077064186, 0.0350300744, -0.1315785348, -0.1777430922, -0.0464655049, 0.0200652834, 0.1047775373, 0.0551779382, -0.2687995732, -0.4157938957, 0.1315032393, 0.1659746468, -0.0250788238, -0.2153391838, -0.2508726418, 0.0931033269, -0.2150660455, -0.0022713642, 0.0508466512, -0.1344645172, -0.1325757802, 0.1430725455, 0.0684017912, -0.4528819025, 0.0446810424, -0.0208620820, -0.2269105464, 0.0169086624, 0.0260363184, 0.1056177765, 0.0087991282, 0.0096345451, -0.1435578167, -0.1454286724, 0.1106561497, -0.2567323744, 0.1714046597, -0.0117479246, -0.3789918423, -0.2749947309, 0.1086514965, -0.1883256435, -0.2365520298, -0.0228079483, 0.0856415853, 0.0686387941, 0.1226284951, -0.2872688174, -0.2124583274, -0.4156769514, -0.0885822847, -0.2380350530, -0.0505597852, -0.1527640373, -0.2288490832, -0.1653499901, -0.2074910849, 0.0227674581, -0.3398481607, -0.2881506681, 0.0211707782, 0.0921099707, 0.0677055866, -0.1522976309, 0.0254958663, -0.2483719438, 0.0194675084, 0.0499250144, 0.2045977563, 0.1231523454, 0.0231387969, -0.3241863251, 0.0365431979, 0.0527235456, -0.0174899101, -0.0836379454, 0.1316460222, 0.2582613528, -0.3687102795, -0.0332287550, 0.2694464624, -0.4154331386, -0.0100319609, 0.0958951190, -0.1258621067, -0.2563812137, 0.1835969836, -0.0917170942, -0.4812359512, 0.1518988758, -0.0917446241, -0.0988451093, 0.3316092789, 0.1411964595, -0.3808842301, -0.1045214832, -0.2038677335, -0.0891311765, -0.2610169649, -0.3419970870, -0.0680254251, 0.0029893103, 0.0118426755, 0.3364728689, 0.1192140877, -0.0250119716, -0.1240447611, 0.0188059621, -0.0688990727, 0.0813486949, -0.0083348844, -0.5489817262, -0.2232070118, -0.0225707050, -0.1077518091, -0.3568902314, 0.1463371962, 0.0475212000, -0.1564218998, 0.1430569738, -0.0523066483, -0.2092137188, -0.2560878992, 0.0681341812, -0.0485288315, 0.0601415858, 0.0248539224, -0.0343445018, -0.0892431140, 0.1138816625, 0.0025117772, -0.0659711286, 0.0356499217, 0.0612711124, -0.0374024287, -0.1015598923, 0.0100712590, 0.0543309450, -0.0624178983, -0.0406767465, 0.0166753642, 0.0747674182, 0.0508928895, 0.0451867133, 0.1340704709, 0.2474503070, -0.1467113048, 0.2655556500, 0.1158538535, 0.0321261398, 0.0638673082, 0.2810991108, -0.0376294702, 0.0078331036, -0.5631706715, -0.3097709119, -0.0404078923, -0.1614400148, 0.3397395611, -0.1666636765, 0.1540511698, -0.1418846250, -0.1188671812, -0.1206056029, 0.1443032771, -0.2294975072, 0.0760208964, -0.1143653840, 0.2868964970, 0.2795558572, -0.1155851558, -0.2945111096, 0.0334228277, 0.0309197083, 0.0876214579, -0.2081569284, 0.1711794138, 0.0683200806, -0.0801749229, 0.1953069568, 0.0777268708, -0.2169765383, -0.2147269547, 0.0909277201, 0.1016517803, -0.0049977391, 0.0489399210, -0.2410476357, -0.0355661511, -0.2464968264, -0.0431731790, 0.0789580271, -0.0772494823, -0.0837219730, -0.2013787329, 0.0366015472, -0.0405710153, -0.2186193317, -0.0027658953, 0.0348136202, 0.0321824551, -0.0532715023, 0.1019179150, -0.0016741339, -0.0985096619, -0.3386002183, -0.2576059699, 0.0366120338, 0.2038117945, 0.0730792210, -0.0045027267, -0.0237220190, 0.2316243947, 0.0856437162, 0.0978473574, 0.0166928153, 0.0552036986, 0.1130957529, -0.0898559541, 0.0261350237, -0.1657585055, 0.0874117389, -0.5354868174, 0.0722871944, -0.0609499402, -0.3046198189, 0.3076994121, -0.1239669323, -0.1543845832, 0.0221476015, -0.1694559902, -0.1017081961, 0.1159458682, -0.0221756063, 0.0068876520, 0.0813236237, -0.2449337244, -0.0466112979, 0.0761902109, -0.1636364907, 0.1332230270, 0.1850067228, 0.3526965082, 0.1699011326, 0.0724389553, -0.0167523045, 0.1124125272, -0.1364947110, 0.1379040182, -0.2614793479, -0.0565986410, -0.0272835121, -0.0184292477, 0.0601854436, 0.0884343609, 0.1248441786, -0.0371120945, 0.0829289705, -0.0676273853, 0.0698433742, 0.1427759826, -0.1460553259, 0.1417820901, 0.1697553992, -0.0118797664, -0.0147552537, -0.0533834063, -0.1225420088, 0.2187868804, -0.0401375890, 0.1200680137, 0.1330223829, 0.0996413082, 0.1009748653, 0.1524211317, -0.1094693244, 0.0191113446, -0.0931650922, -0.2965665460, 0.0786324441, 0.1335992217, -0.1525570452, -0.0405928232, -0.0041053402, -0.0411578529, 0.0519959256, 0.2374779433, 0.1791893989, -0.1507476419, -0.3239524066, -0.3373867869, -0.2565603554, -0.0720656365, -0.2544085979, -0.0858137906, -0.1128975227, -0.0043665050, -0.1766252518, 0.2861451209, -0.3349372745, -0.1917171776, -0.0435586050, 0.2696702182, 0.0203240607, 0.0222602524, 0.0870704576, -0.1561664641, 0.0278514214, -0.1737576574, 0.0203910116, 0.1073836759, -0.0811395943, 0.1078939065, -0.0488119312, -0.0715270936, -0.0097000711, 0.0480599292, -0.0300333854, 0.0468742400, -0.0538732968, 0.0472734571, -0.0132886413, -0.0538007915, 0.0077132951, 0.0360200033, -0.1934712231, -0.1823173910, -0.1152804643, 0.3003466725, -0.3629062772, 0.1174355969, -0.0642603859, 0.0950979069, 0.0920536816, 0.2233309895, -0.1926078200, 0.1043728143, -0.0694056749, -0.1284849197, 0.2077676505, -0.1253567785, -0.2626712918, 0.0433604047, 0.1659847647, 0.0946487114, 0.1684357524, -0.2045754343, -0.2387790978, -0.1341924518, 0.2586933970, 0.1345513463, 0.0251557603, -0.0035351294, 0.1743545383, 0.1093363464, -0.0959448591, 0.1783379614, 0.0230705999, -0.1955658048, -0.1208121851, 0.3125884533, -0.0902974084, -0.3785730302, -0.1934380382, 0.0819853023, 0.0915284753, -0.1594567150, 0.3303787410, -0.0427734032, 0.1278739721, -0.3976056874, -0.0513507985, -0.2182003856, -0.0005890648, -0.1451194882, -0.2813743651, 0.1748439819, -0.2679199576, -0.0661701187, -0.1037240997, 0.0174606815, 0.1199613959, -0.0878230631, 0.0043896716, -0.0966138318, 0.0342290923, 0.0397393145, 0.3341995180, -0.4566712379, -0.2691003382, -0.2271623015, 0.3183642328, 0.0732272416, 0.0718700886, -0.0580207780, 0.1539935768, -0.2511641681, -0.0328360312, -0.0526761636, 0.2136583924, -0.0293901470, 0.1725835055, -0.1067126468, 0.1564653218, 0.2410368472, -0.1179179773, 0.1615150720, -0.2816458046, -0.1169474795, -0.0889794454, 0.0282623451, -0.1003028750, 0.2742062211, -0.0057590823, -0.0961430892, -0.1960375309, 0.0928554758, 0.3957681060, -0.1471349746, 0.1409990638, 0.0314062238, -0.1550538242, -0.2220378220, 0.0300378054, -0.0338202752, -0.1139199510, 0.0983228907, 0.1409092396, -0.1779208332, -0.2339984030, -0.1126373783, -0.0274565909, 0.0671448633, -0.1272115558, -0.0281886347, -0.2844542265, -0.0407739282, -0.3669034243, -0.1367082149, -0.0768125504, 0.0463695414, -0.3531206250, 0.1484991014, 0.0246463902, 0.0348382592, -0.1067283824, -0.2331838012, 0.2741307020, 0.0568781160, 0.0527298152, -0.0250400677, -0.0957112163, 0.0597868375, -0.1585458517, -0.1199572086, 0.0114574004, -0.0596839376, -0.0933904797, 0.1737557799, -0.0577905178, 0.4439959228, -0.1674113721, -0.4100859761, 0.0047351252, 0.0098048523, -0.3278867304, -0.0622741617, 0.0903885141, -0.0533565395, 0.0171404183, -0.0970637649, 0.1077584028, -0.1389896721, 0.0235155448, 0.3764803708, -0.1696898043, -0.1696921289, 0.0534175858, -0.2199205160, -0.0131610082, -0.0255185738, -0.4428973198, 0.1157157868, 0.2692615390, 0.1063016802, -0.1055148467, 0.2076777667, -0.1895200610, -0.1280499697, 0.1153779030, -0.0724086165, -0.1532837003, 0.2723297477, -0.0836140886, -0.4123374224, 0.0304317921, -0.2271882445, 0.1837026924, -0.1855350435, 0.0518872365, 0.0342921503, -0.0984278694, 0.0627657399, 0.0751719102, 0.0960829780, 0.0443555675, -0.2391244173, 0.1532136649, -0.1403602064, 0.1525568366, -0.2503387034, -0.0322192200, 0.0052941497, 0.1510877758, -0.0569801070, -0.1816828549, 0.0046331719, -0.2300613970, -0.2651804090, 0.1141969860, -0.1070180982, -0.4738115072, -0.3278308809, 0.1552771926, -0.1595855206, 0.1953145415, 0.0463499203, 0.0854177624, 0.1876484156, -0.2295644581, 0.1112307087, 0.0222528633, -0.0764507949, -0.2376196831, -0.0074987058, 0.1876588017, -0.1007090136, -0.0106792096, -0.2338107973, -0.1327820569, -0.0566554368, 0.0695084706, -0.0093177045, -0.2985735536, -0.1828242093, -0.1941435784, 0.0916917101, 0.2357909232, 0.1235090420, -0.1015269905, 0.3464203179, -0.2234100550, 0.2184091359, 0.0592884049, 0.2237828672, 0.1078589261, -0.0938152894, 0.1414404809, -0.1461439580, -0.0619442984, 0.1226764619, 0.1622100174, -0.0980049670, 0.0960236862, 0.1456524879, 0.0631578714, 0.1469999105, -0.1975302696, -0.0868226215, 0.1482428610, 0.0400159359, -0.2718665004, -0.0082332240, -0.0649681017, 0.2017537355, 0.0095235882, -0.0009100718, 0.0163472071, 0.0034130374, 0.0003782256, 0.0380841047, -0.0936430320, 0.1152414754, -0.3792425096, -0.2810211182, -0.1566679627, -0.2669491470, -0.0532028265, -0.2342419177, -0.1447532624, -0.0042389645, -0.1057683080, -0.2537847161, -0.0498409495, 0.0453490242, 0.2813892365, -0.0530796796, -0.1919940710, -0.1146891564, 0.0531207807, -0.0926658660, 0.0322958194, -0.1926639080, -0.4567715526, -0.0754628032, -0.1955178976, -0.2330247164, -0.0578172803, 0.1109720767, -0.0182315502, -0.1377110630, 0.0458852500, -0.1444420666, 0.1412022114, 0.0861559585, 0.1036189348, 0.0671495572, 0.0130874598, -0.0185050946, -0.2550507486, 0.1458274275, -0.2330239117, -0.2619163394, -0.1429229826, -0.0919539407, -0.0136432424, 0.0039499761, 0.0860456675, -0.4965738654, -0.0198823344, -0.2427751124, 0.0230659321, 0.1106450185, 0.1666821539, -0.1508261114, 0.1612234265, 0.1417580992, -0.2017483711, -0.0221212525, 0.0723547190, 0.0690501258, -0.1750734895, -0.0040663900, -0.1945286840, 0.0844127834, -0.1717744321, -0.0114067970, -0.0662014857, -0.0407101512, -0.1190166101, 0.3233940005, -0.1092883423, -0.1764211059, 0.0898114219, -0.1633561552, 0.0509987213, -0.1514372379, -0.0449259132, -0.2411567569, 0.2056731135, 0.0405124016, -0.0595276989, 0.1472820044, 0.0416615047, 0.2192956209, 0.2010939419, -0.1222130582, -0.2510123253, -0.0242105890, -0.2454219759, -0.2913256586, 0.2563034594, -0.1422689706, 0.0806391537, -0.4766638875, 0.4486241341, 0.0432563089, -0.0683432668, 0.0747971237, -0.1355289221, 0.3061040938, 0.3096284568, -0.4206480384, -0.1931709200, 0.1083517000, -0.2307130098, 0.0838636532, -0.1226182729, -0.3887647390, 0.0137475533, -0.0753006712, -0.0911876261, -0.0269685183, 0.0988126993, 0.1434954852, -0.0427389853, 0.2048119307, -0.0495810099, -0.0372761600, -0.1014710665, 0.1750369519, -0.1358766109, -0.1989689767, -0.1372668743, -0.2213470340, -0.0175590962, -0.1078927070, -0.0556838103, -0.0839158297, -0.1953862458, -0.0212398060, -0.1184167638, -0.2278973311, 0.3203257620, -0.1263661683, -0.2165493667, -0.0752097815, 0.0600128733, 0.3989199996, -0.0816799849, -0.0072934390, 0.1931861788, -0.0784794092, 0.0719325468, -0.1878929734, -0.0568518080, -0.0286836755, -0.0390575305, 0.0797339603, -0.0334789902, -0.0258029718, 0.0324887894, 0.0202727597, -0.0626311079, 0.0384047255, -0.0323511772, -0.1033343971, 0.0786535665, -0.0264947824, 0.0101391124, -0.0500129275, 0.0321871974, -0.0017770417, -0.0298665725, 0.0129206078, -0.1078332365, -0.0396391675, -0.0275144354, 0.0080862232, -0.0115858642, 0.0072602271, -0.0899654925, 0.0591288917, -0.0154502746, 0.0371352769, -0.0734572858, 0.0592770167, -0.1184532568, 0.0017038238, 0.0281026084, -0.0951286033, -0.0955813080, 0.0919034630, -0.0803263336, 0.0556770749, 0.0431603864, -0.0820803568, -0.1710866243, -0.1939255744, -0.1479584575, -0.0593613014, -0.2178945690, 0.0165720396, 0.1327455491, -0.0242508706, 0.2023448646, -0.1419983208, 0.0744272470, 0.0472423062, 0.0118764173, 0.2906392217, 0.0154482936, -0.0398944728, 0.1032300219, 0.0449141078, -0.1111663133, -0.1202226356, 0.0314623453, 0.1503065228, -0.0110453814, 0.1298859864, 0.1614222527, 0.1095054671, 0.3699629307, 0.0983419642, 0.1671341509, 0.1364525855, 0.0774029642, -0.2704993784, 0.0112936357, 0.0946334228, 0.1996808350, -0.1410467774, 0.0131981121, -0.1076572165, 0.1620572507, 0.1214591190, 0.1153193042, -0.0538181216, -0.0461598001, 0.2034653574, 0.0354580581, -0.3504337668, -0.2221985459, 0.0490521491, -0.0515296608, -0.0537081286, -0.0275639426, 0.2265560180, 0.1215776503, -0.1918789446, 0.0088829305, -0.2769456804, -0.1923322976, -0.0211418793, -0.1685587466, -0.0454740711, 0.1267506629, -0.1123318300, -0.0097020501, 0.0781028569, -0.0079379482, -0.0583191738, 0.1336670071, -0.3423484564, -0.0768847466, 0.1190651506, 0.0567283221, -0.1813408136, -0.1094817892, -0.0042547337, -0.1395421922, -0.0249503981, -0.2066591531, 0.0174919702, -0.0836591646, -0.0154625159, 0.2045526206, -0.1317932010, -0.0932012722, -0.0756735802, -0.1709046811, -0.1659158617, 0.0051389206, 0.3020202816, 0.1915905327, 0.1220086291, -0.0696836933, 0.0018954758, -0.0894732028, -0.0745320618, -0.0252708420, 0.0667762309, 0.0883689448, -0.1300937682, -0.1416394413, 0.0578631945, -0.1055669263, 0.1491796821, 0.0018539279, -0.2317925245, 0.0147214662, -0.0954384133, 0.1288505048, -0.1749078035, -0.1840690076, -0.0030941321, -0.0290351883, 0.0368569829, 0.0042837476, 0.2018811107, 0.0730356723, 0.1095023379, -0.0107431430, -0.1525337398, -0.3210379779, 0.1597806215, -0.2265255153, -0.0455294624, -0.5051909089, -0.0117759742, -0.2175837755, 0.0944206715, 0.0030644229, -0.2533994615, -0.3371675313, -0.1465546787, -0.0148227289, -0.0674035847, -0.1248688996, 0.0004567574, -0.0889887065, 0.1669704020, 0.3205082417, -0.0369830318, -0.0532239601, -0.1084346697, 0.0438902974, -0.0547995456, 0.0149365356, 0.1504324675, 0.1287595481, 0.0402393192, -0.0587505698, -0.0831820667, -0.0541272871, -0.0338261388, -0.0236447044, 0.0626442134, -0.1527504474, -0.0478541814, -0.2328201383, -0.1066757292, -0.2281871736, 0.1429855376, 0.0514169037, -0.0042128516, -0.0899355710, -0.0107231233, -0.1443666518, 0.0187912472, -0.0831135958, 0.0072417087, 0.0366601013, 0.0019451219, -0.0574194342, -0.1121090055, -0.0103760352, 0.0177848097, 0.0257358681, 0.0111301932, -0.0259181950, -0.0233744923, -0.0586071461, 0.0621471554, 0.0645333976, -0.0525103658, -0.2616070509, -0.2596949041, -0.0655144751, -0.1948070526, -0.0682979673, 0.0523332581, -0.0406572931, -0.5908906460, 0.0483953655, 0.0028260364, -0.0708249211, 0.2392152548, -0.2314870507, 0.1510446966, -0.0451282449, -0.1767110229, -0.0615683161, 0.0405830890, -0.1751428992, 0.0146999806, -0.0996925905, 0.1255816370, 0.1305435896, -0.0911720395, -0.0559228733, 0.0496220924, 0.0760522559, 0.0398853347, 0.0377606712, 0.1282842606, 0.2048952729, -0.1121333614, 0.1441073865, -0.1186837405, -0.0415343232, 0.0074956142, -0.0396317244, -0.0747798532, 0.0534714907, -0.0243537929, 0.0376310907, 0.2251018584, 0.1081927642, 0.0812987164, -0.0892821476, 0.0527744815, -0.0684398711, 0.2640659213, 0.0584330596, 0.0495339148, 0.1497958899, -0.1448568851, 0.1416002065, 0.0391287506, 0.0422239490, 0.0645427555, 0.1435210705, 0.0027334220, -0.1011874601, -0.0694023520, -0.0216536894, -0.1508487314, -0.0618650317, -0.0149808675, 0.0382900313, 0.1461896151, 0.0831242800, -0.0843492895, -0.0910944864, 0.1234417036, 0.0032006199, 0.1175945923, -0.0269980077, 0.0441280268, 0.0651921704, -0.0561561175, 0.0056909709, -0.0754982904, -0.1916136146, 0.2561991215, 0.1187538952, 0.0046007051, -0.1845907867, -0.1010803580, 0.1141237020, 0.2554681599, 0.0355762877, -0.1306101680, -0.3478252590, -0.1548595130, 0.1727805138, 0.1865530461, 0.0834348500, -0.0560137518, -0.2960128784, 0.3570873439, 0.2323596328, -0.0059920778, 0.1071298495, 0.0181162860, 0.1560362130, -0.0339947566, -0.0142653193, 0.0409774557, 0.0840527266, -0.0606231317, 0.0749768987, -0.1021659449, -0.0313904285, 0.0579866618, 0.0910531878, -0.0325814597, 0.0419400968, 0.0032777980, -0.0696990639, 0.2195135057, 0.0103836106, -0.1497680694, -0.0766889825, -0.0877200067, -0.2468377799, 0.1329842210, 0.0633722767, 0.0383116156, -0.1465154588, -0.1040045246, 0.0708306283, -0.2409972847, -0.1627556980, -0.0813768506, -0.0499775670, -0.1964955479, 0.0354710184, -0.0015202987, 0.0904854834, 0.1615550667, 0.1040451229, -0.2701387703, 0.0808223858, 0.1937641948, -0.1023510024, 0.0815248564, -0.1398598850, 0.1383233964, 0.1869348437, -0.2092332542, -0.0082774889, -0.0763469264, -0.0632916912, -0.2027592361, -0.1638731509, -0.0775716901, -0.0063614007, -0.0339522958, -0.0503588505, -0.0388746820, 0.1175299212, -0.0443620794, 0.0944647491, 0.0957556665, -0.0565224588, -0.0019098871, -0.0882062912, 0.0239410233, 0.0659083053, -0.0305465143, -0.0287562236, 0.0481419787, 0.0331559069, 0.0360046849, 0.0831280649, -0.0313070416, 0.0874331594, 0.0530568920, -0.0600585379, 0.0352594331, -0.0803955272, -0.0982233360, -0.3084358871, -0.0507462807, -0.1836292893, -0.2816369832, -0.0855678394, 0.1239138395, -0.3592154384, 0.2838284075, 0.1768954992, 0.0047697020, -0.1081788614, -0.0677290037, -0.1469420344, 0.1174728349, -0.0527849756, 0.1104772165, -0.2536558807, -0.0540139861, 0.0982445106, 0.1402299106, -0.0219296273, -0.0304137953, 0.1326708645, -0.0145804556, 0.0107503450, 0.2030370235, 0.0073417397, 0.1684360653, 0.1711662412, -0.2744525969, -0.1699285358, 0.0084788408, -0.0327360071, 0.1903604120, 0.2088887393, -0.0668729246, 0.0583145991, -0.1019495130, -0.3055102527, 0.1497837752, 0.0721540973, -0.1897624433, -0.0180365406, -0.1732312441, -0.0747228861, -0.2152494341, 0.1930913180, -0.0340322852, 0.0949958339, -0.1825328171, 0.1874176860, 0.0814304501, -0.2574604154, -0.1160440594, -0.1057856157, 0.2006609291, -0.0034160682, -0.2025948912, -0.1777870059, -0.0111336093, 0.0118774809, -0.0249439552, 0.1556587517, -0.2033200562, -0.0688833967, -0.2085853219, -0.0295403320, -0.0265665706, -0.0134860463, 0.1769458354, -0.2143623084, -0.2228660434, 0.0017901774, -0.0749931484, -0.0023449899, -0.0234094113, 0.2979363501, 0.0098211877, 0.0891775116, -0.0702386722, -0.4643997252, -0.1787437499, -0.2123907954, -0.0063393055, -0.1984136999, -0.1140307263, -0.3201381564, 0.0037086201, 0.0858030170, 0.0788835660, -0.0110471668, 0.1401985884, 0.0100679826, 0.1021393612, -0.0668825135, -0.0597262084, -0.3518841267, -0.0421423689, 0.1925653815, 0.2486922443, -0.3091159463, -0.2091317773, -0.0046717161, -0.4880107939, -0.0823648497, -0.0125467926, 0.0013445702, -0.2398901284, 0.1087900847, -0.1423691511, 0.1631605327, 0.1313544661, 0.0131302206, 0.0456951745, -0.0107359672, 0.2412224114, -0.0339077860, -0.0474285334, 0.0054685483, 0.0320149511, -0.0102290874, 0.0891355947, -0.1890857220, 0.1724580526, -0.0511814952, 0.1722481102, 0.2483524531, -0.1576076299, -0.0393282734, 0.1008971184, 0.0994861051, 0.0065465798, -0.0557218641, 0.0206061061, -0.0077899680, 0.2039576471, 0.0247183833, -0.2990105152, -0.0497705638, -0.1739678085, -0.2856686413, -0.3587431908, 0.0307652708, 0.2231032401, 0.2876860201, 0.0350643583, -0.0425662175, 0.1134110838, -0.1148884222, 0.3330809474, 0.2745455503, -0.0447456762, 0.0521145351, -0.0430431962, -0.0454779305, -0.0558231398, -0.2324378192, 0.2693116963, 0.3647536337, -0.1298206151, -0.1848792285, -0.0254569761, -0.1472283155, -0.0656440705, 0.2037923485, -0.0801140815, -0.4693880975, 0.0787400454, 0.2925546467, 0.1583575010, -0.1024375930, 0.1019449607, 0.1454373300, 0.3363023400, 0.2259187847, 0.1005312204, 0.0193244033, 0.1854181588, 0.2546584606, -0.0099902870, -0.0740344673, -0.3039427698, 0.0383774079, 0.1875454932, 0.2015493661, -0.0666081905, 0.1422878802, -0.0185812209, 0.1681705564, -0.0505258851, -0.0362122953, -0.0180418342, -0.0581413507, -0.0621020310, -0.3544454575, -0.0279194936, 0.0757780597, -0.0255783275, 0.0035857190, -0.2679582834, 0.0983294174, -0.2392730117, -0.0764555782, 0.2381132692, 0.0308917668, -0.0818153694, 0.3194711208, -0.0138641829, -0.2888935506, -0.3709301949, 0.0849519894, -0.0074048792, -0.0141136842, -0.1341758817, 0.1502594501, -0.2731660008, 0.0262657069, -0.1692992449, 0.1217332110, 0.0190716945, -0.5191271901, -0.1048492193, -0.0683675632, 0.2563675046, -0.0400652029, 0.1430292577, -0.2147753239, 0.0248059314, 0.1164760068, -0.0807443559, 0.1251364648, -0.1101332679, 0.0419831164, -0.0268910360, 0.2020654678, 0.2005075514, 0.0627777055, 0.0839002579, 0.1430801451, -0.0274336040, -0.2725678384, 0.0335000493, 0.1231363118, -0.0809453726, 0.1685787886, -0.0478939712, -0.1733790487, -0.1258840561, -0.0224637128, 0.1832550168, 0.0526100732, 0.0309146382, 0.0211973954, 0.1070872918, 0.0792895630, 0.1052963659, -0.2148748487, -0.0051617767, -0.1502763927, -0.0404390432, -0.0882250369, -0.3110953867, -0.0144416923, -0.3557988107, 0.1567201018, -0.1215751022, -0.3793412149, -0.0488799103, -0.1775532365, -0.1669848561, -0.1817543954, 0.0494716763, -0.1226900592, -0.0905435905, -0.1452884525, 0.0242242981, -0.3299363256, -0.1536791921, -0.1717937887, 0.0253184363, -0.1340972483, -0.0320357382, 0.0928522274, -0.0472726934, -0.0242565461, -0.2822441161, 0.0537465997, 0.0115017006, -0.0148357507, -0.1502090544, 0.1135636866, -0.1404841542, -0.0420694724, -0.1024434790, -0.0345452540, -0.0045370897, -0.2056738138, -0.1722837389, 0.2784262598, 0.0800329447, -0.0828483775, 0.1136064082, -0.2422016561, -0.3862224221, -0.2106302381, -0.1730290800, -0.3375359774, -0.0968724787, -0.0701358318, 0.0325267278, 0.0608518757, -0.2886638939, 0.0782690942, -0.5375429988, 0.0014336973, 0.0451932847, 0.0284714382, 0.0664903298, -0.1876212955, -0.2507917285, -0.0716378540, 0.3916004598, 0.1773038954, -0.5145459771, 0.0431587771, 0.0020364076, 0.1122332290, -0.1063450351, 0.0404472984, -0.0772415027, 0.0943265706, -0.0729607493, 0.0286910348, -0.4732347429, -0.2474333048, -0.0163351241, -0.2079557031, -0.0699135810, 0.1488624364, 0.1370793134, -0.1099631488, 0.1128809378, 0.2726697624, 0.1257475466, -0.1242079288, -0.2301248163, -0.0106667103, 0.0971654058, -0.2926233411, -0.1676508039, 0.2502711415, 0.0481690802, -0.3529220521, -0.0201745052, 0.0808896124, 0.2132313102, 0.2336353660, -0.3891613185, 0.0562943183, 0.1115571260, -0.2132172436, 0.1865971982, -0.0371322036, -0.2576114535, 0.0386660248, -0.0963283032, -0.1471618414, -0.0124722468, 0.1442695260, -0.0669297650, -0.1660331041, 0.0848038420, 0.0998318493, -0.1172717214, 0.2505339980, -0.0447004363, -0.0816669464, -0.1617943347, -0.0369506441, -0.2193863839, 0.2262743562, -0.4951809347, -0.0708208829, 0.1033981293, 0.1262004226, 0.1893342435, 0.1063936353, 0.0321329087, -0.0969916135, -0.0537433960, 0.1322333664, -0.0243088715, 0.1452561319, 0.3832378387, 0.1340402663, -0.1716930270, 0.1532942057, -0.2020219564, 0.0906953961, 0.1113401353, -0.0522596166, -0.0949102268, 0.1139723957, 0.0272453241, 0.1015146151, -0.1175639629, 0.0397791192, 0.0012663534, -0.0129596237, -0.0234731045, -0.0571020767, -0.0782714412, 0.1004507616, 0.0564335436, -0.0092592603, -0.0681824386, -0.0930542350, -0.0241566226, -0.0777701735, -0.0854365751, 0.0424771197, 0.0473649278, 0.0222965851, 0.0398966074, 0.0517596528, 0.0744352639, -0.0561581850, -0.0560256243, 0.0524152219, -0.0628342479, -0.0986023694, -0.0642634183, -0.0869332477, -0.0206542220, 0.0521366186, 0.0924273506, 0.0611539707, 0.1112627983, 0.0006474709, 0.4421694577, -0.1279484481, -0.1135391369, -0.2298751026, 0.1383071691, 0.1258212477, 0.0861935243, -0.0222106874, -0.1058312580, 0.0575279891, 0.2517099380, 0.2955029607, 0.3416037261, 0.2578451931, 0.1387767196, 0.1955948770, 0.0514279865, 0.0069182450, -0.1501860619, 0.2204230726, 0.0120430784, 0.1087069586, -0.0064518237, 0.0270378068, -0.0634206459, -0.1970611215, -0.0241166633, 0.0100903837, -0.0226243697, 0.0400512367, -0.0462942235, 0.0742652118, 0.0221056603, 0.1387230307, -0.0567370765, 0.0294046961, 0.0578514710, 0.0960843787, -0.0574940145, 0.0452656262, -0.2580987513, 0.1651369035, -0.2868176699, -0.0144308992, 0.1294519007, 0.0075862282, 0.1449469030, 0.0540304296, -0.2656452656, -0.2161621004, 0.3838371933, 0.0812257528, 0.3510387540, -0.1073731482, 0.2236552387, 0.1004234329, -0.2073410898, 0.2409054488, -0.2069111019, 0.1432040483, 0.2099522799, -0.0801527202, 0.2054260224, 0.0287988018, -0.4032697976, -0.2060706168, -0.3038288653, -0.0703318268, -0.2074675262, 0.0281538218, -0.5452654958, -0.1734644175, 0.0295652188, 0.0040918547, -0.2524633408, 0.2261541933, 0.0330761448, -0.2813994884, 0.1340623051, -0.2290068269, 0.0691659823, -0.0665005445, -0.4397554100, -0.2089626789, 0.1062878594, 0.1549382508, -0.0361122340, -0.0538145863, -0.0060228514, -0.0465064943, 0.2340535969, 0.2616759241, 0.2770833075, 0.2168007046, -0.0759001747, -0.0042779706, 0.2512801290, 0.2816246152, -0.0338521190, 0.2342920303, 0.0728724003, 0.1025274396, 0.1260593235, -0.0182330273, -0.2954572141, -0.2240712345, -0.1126082093, -0.0615441129, -0.1618972123, -0.0869136527, -0.3337306082, 0.2317144275, 0.0358738005, 0.0314288996, -0.2241791785, 0.0162367318, -0.0945642442, -0.2451083362, 0.3181373179, 0.0918536708, -0.3440768123, -0.2183777541, 0.1372806877, -0.5757644176, -0.3867670000, 0.0791909024, -0.3004661500, -0.0982471853, 0.0709141120, 0.3089128733, 0.1961428970, 0.1340841651, -0.1314540952, 0.1030590013, -0.2693950832, -0.1780795753, -0.0142286457, 0.1785487235, 0.1018842980, -0.1594549119, 0.1037987769, -0.3600000441, 0.0298584644, 0.0890597403, -0.0898414031, -0.0919456184, 0.0625649616, -0.1036495045, 0.0318982676, -0.3629027307, 0.1222950444, -0.0585054159, 0.0434297137, -0.2451575100, 0.1882584393, -0.1209781766, 0.0422064401, 0.1389911473, 0.1175914109, -0.0572725385, -0.0139809176, -0.0264877938, -0.0513328575, 0.1025120690, 0.0152646946, -0.1067188233, -0.1451813430, 0.0077310726, 0.0563219339, -0.0303911213, 0.0467017256, 0.0424028747, -0.0491131470, -0.0552395880, -0.0536554866, -0.1010074094, -0.0138381906, -0.0221621189, 0.1552074403, 0.0146292783, -0.0211152025, 0.3433201909, -0.0250136368, 0.3002912402, -0.0947906226, -0.0705141649, -0.3747593164, 0.0625240505, -0.2668754160, 0.0906222537, -0.3315651119, 0.0458271988, -0.2201554179, -0.1722842008, 0.3871035278, -0.0968182534, -0.1481121182, 0.0529531203, -0.0807387456, -0.0295245163, 0.2341830730, -0.0637847260, 0.1932702810, -0.1610773653, -0.0782261267, -0.1708717495, -0.2560175061, -0.0749133527, 0.0040896754, 0.2096452415, -0.4195600748, -0.1719256938, 0.0719865561, 0.0450150408, -0.3410799801, 0.2001582235, -0.3207590580, -0.2376688570, 0.1162330657, 0.2298169285, -0.2662701905, 0.1023801491, 0.1472663283, 0.1161429510, -0.0446107425, 0.0804381147, -0.1360205710, 0.0570822209, 0.0562299751, -0.0690025091, -0.1467797458, 0.0540895276, 0.0810640752, -0.0307475012, -0.0296309963, 0.0662417114, 0.1298348904, 0.2068175077, 0.0804040506, 0.1558139473, 0.0160216223, -0.1619521677, 0.3631882966, -0.1037282273, -0.4650974572, -0.0095007699, -0.0662031025, 0.0283991769, 0.3024220765, -0.0606874265, -0.0756037235, -0.2481692284, 0.1820353419, 0.0341811515, -0.0462660864, 0.0498109348, -0.0872562155, 0.0087950146, 0.1630627513, -0.0974604934, 0.0598304421, -0.0210928060, 0.4740280807, -0.0746508762, -0.2708127499, -0.0912950858, -0.3341296017, 0.0274526831, 0.1960887462, 0.1347875744, 0.0682519376, -0.1140427142, -0.2831178308, 0.1539705545, -0.5004256964, 0.0773844123, -0.0202343073, 0.0283986554, 0.0527119935, 0.1162226647, -0.0997185707, 0.0288314186, 0.0086408127, 0.0414776839, -0.0489631407, -0.0497873202, -0.0467417762, 0.0189946052, -0.1017654091, 0.1507499963, -0.0630046576, 0.1006822586, 0.1179476455, 0.0069912174, 0.0360889621, -0.0240076985, 0.0142027549, 0.0724679455, -0.0046368539, -0.0043229023, -0.0788367167, 0.0225278791, 0.1954234093, 0.1573204696, -0.0314164422, -0.1564956456, 0.1542924941, 0.0455571339, 0.0243648253, 0.1116057634, -0.2413103431, -0.3055334687, 0.0417442843, -0.1302721649, -0.5096554160, 0.1757117510, -0.1821292192, 0.1998825371, 0.1516074091, -0.0329483896, -0.1044363156, 0.0329657905, -0.0227441266, 0.1140178591, 0.0750755072, -0.0709623769, -0.1913848966, -0.0282722767, -0.1129903570, 0.0166466404, 0.0512143373, 0.0303233750, 0.0274183489, -0.2273234427, -0.0283928532, -0.1756161749, -0.3245820999, 0.2221114337, -0.1296314001, 0.1735673994, 0.0852952376, 0.0125271678, 0.0032918747, -0.0703771636, 0.0950670168, 0.0583654754, 0.0305611212, -0.0344717391, -0.0672330186, 0.1024093181, -0.0498312339, -0.0979100615, -0.0568055920, 0.1045329794, 0.0926710069, -0.0829031393, 0.0686500520, 0.0959253237, 0.0719771013, 0.0570403151, 0.1004340649, -0.2587105334, 0.0276641846, -0.1536624879, -0.2183771580, -0.0934298486, 0.1712315828, -0.0810880512, 0.0553954095, -0.2945489585, 0.1981587410, 0.0591858476, 0.2302986532, 0.2286540568, 0.1187958494, 0.1598928273, 0.0677764490, -0.0705599785, 0.1271372139, -0.2968457639, 0.3724350929, 0.0928124189, 0.0963164866, -0.1253164411, -0.2116492987, 0.1647340208, -0.1123503223, 0.0132047189, -0.1033208519, -0.1917525828, -0.1527559906, -0.2237592041, 0.0902670771, -0.0482061207, -0.0457759611, 0.0876478776, 0.1821036637, -0.0213539787, -0.1328650713, -0.3238389194, 0.2373405844, 0.0061334586, 0.0044662263, 0.2280261368, -0.0224746726, 0.0706292316, -0.0508072302, 0.0312566310, 0.0567480884, -0.1845934987, -0.3018998504, 0.1653652042, 0.0477604195, -0.2201218903, 0.0930288211, -0.0759873763, 0.3044074178, 0.0686245933, -0.2158809751, -0.1419073939, -0.1905498952, 0.1093913168, -0.1578302085, 0.2936477959, -0.2391968369, 0.1451724172, -0.3586377501, 0.3034564853, -0.2632686496, -0.0992680117, -0.0191375092, -0.0051698321, -0.1722290367, -0.0424145684, 0.0049871877, -0.0802158341, 0.0259174425, 0.3344959319, -0.1728162766, 0.0485979319, -0.0522060059, -0.2972466350, -0.0255000498, 0.1085300297, -0.0355426781, 0.0841987878, -0.0418053716, -0.0554395728, 0.1879950315, -0.1732990295, 0.2027410716, 0.0406847522, 0.1356298327, -0.0041979002, -0.0463198684, -0.0711027160, 0.0019301788, -0.1579798907, 0.2053786367, 0.0678424239, 0.1019211560, -0.0296368934, -0.1681222916, 0.0687652603, -0.1478150636, -0.0043883580, -0.1578050107, 0.1140167266, 0.0265432056, 0.1472111493, -0.1121005192, 0.1134702712, 0.0593617558, -0.1354797930, -0.0911133736, -0.0886758491, -0.0564466156, 0.0470934957, 0.1396845281, -0.0608215071, 0.0116573051, 0.1947690099, -0.0772197619, -0.0367677920, -0.2024478167, -0.2573426664, 0.3419325948, 0.2209962606, 0.0593333468, 0.1266475171, 0.0790018216, -0.0069453311, 0.0839686617, 0.0646250099, 0.0036296754, -0.0764066949, -0.0450572632, -0.3092789948, -0.1738777012, 0.1635600179, -0.1670427769, -0.2998672724, -0.2178548127, 0.0137824770, 0.1754097492, 0.2029788345, 0.0773653761, -0.2238452882, 0.1333905458, -0.1035543755, 0.0502072573, -0.2239329219, -0.1104400009, 0.1007030979, -0.0414480753, -0.0244547632, 0.0697535872, -0.2881739140, 0.0177527070, 0.4394516647, -0.3038670421, -0.2143317461, -0.3621564507, -0.2928096950, -0.0329565108, 0.3450050056, -0.1267577410, 0.0253611598, 0.1599358320, 0.1291642040, 0.2541570663, 0.2364745885, 0.2458135337, 0.0724681765, 0.2609461546, 0.0520732552, 0.0591345243, 0.0965437740, -0.0736269876, 0.4159613550, -0.0354082137, -0.1008389443, 0.1399030834, -0.0898576900, -0.2161493301, 0.1503707469, -0.0436633900, 0.0675375462, 0.0176357944, -0.2072426677, -0.1754950583, -0.1079462767, -0.1441442072, 0.1155335009, -0.3346121609, 0.0744242221, -0.2080083638, -0.0455236621, 0.2386614829, 0.1216693893, 0.0794031397, 0.1294979006, -0.1200804934, 0.0580062866, 0.2929218411, 0.3784972727, 0.0085421838, -0.1192245111, -0.0158581119, 0.1784272343, 0.1617363542, 0.0116619086, 0.1787186563, 0.3615794182, -0.0381632149, 0.1235217676, 0.0859906748, 0.0112733571, -0.3604664803, 0.1016328409, -0.0951524824, -0.3325882256, 0.3427166343, 0.2776789665, 0.2856652737, 0.2266650647, -0.1465993375, 0.0079636890, 0.0423667990, 0.0959762558, 0.0474456958, 0.0580052845, 0.2578692138, 0.1029860601, -0.0184565298, 0.0292112287, 0.0731186867, 0.1387380809, 0.1156809032, 0.2828403413, -0.0157907587, -0.1551868469, -0.1517009139, -0.0628431365, 0.0617524423, 0.0508097932, -0.0048000482, -0.3488561213, -0.1518393904, 0.0599070378, 0.0497643203, -0.0359167270, 0.2260858864, -0.0674219728, 0.3434075713, -0.0566547886, -0.1838152111, -0.1124460101, -0.2251694351, 0.1240296513, -0.2423796952, 0.0502389930, 0.0350050889, 0.2153439671, -0.3353305161, -0.0568703152, -0.4724274874, -0.2504807413, -0.1870252341, -0.2092447281, -0.1064670682, 0.0334394090, -0.1443981081, -0.1339325458, -0.0325074457, -0.2534532547, -0.3325467408, -0.0016939063, -0.3448173702, -0.0681191832, 0.0357816294, 0.1552413553, -0.2652466595, -0.0434433892, -0.0259503797, 0.1785174459, -0.0038739613, -0.0508913398, 0.3584220409, 0.0401439294, 0.2480781674, 0.1893089712, 0.0498150513, 0.0796211213, 0.0561026931, -0.0989198014, 0.1021436527, -0.4382251799, -0.0337728336, 0.1443711072, -0.0663230121, 0.1835135818, -0.0440210812, -0.3436875045, 0.0225961804, 0.1210652739, -0.3018149436, -0.2059322298, -0.0796731636, 0.0356447510, -0.1870982051, -0.1337704360, 0.1063479260, -0.0128149167, 0.1330180168, -0.1391505897, -0.1107892916, -0.3492191434, -0.0151529815, 0.0734002069, 0.0361657292, 0.0056888913, 0.0570679046, -0.1652641743, -0.2791802585, -0.2041702271, -0.0596706159, -0.2200642377, 0.1466140896, 0.0843659788, -0.0431851037, -0.0019433028, 0.0442157127, 0.0419730805, -0.1825977713, 0.0675046518, -0.1177573502, -0.2480425984, -0.0937407091, -0.0662907436, -0.1184643060, 0.0737752691, -0.1260538548, 0.2266400307, -0.0560831353, -0.2376365364, -0.2242462486, 0.0766161233, -0.1343048215, 0.0185174439, 0.1858738810, -0.0220238455, 0.0868238062, -0.0606896877, 0.0645486936, 0.0478815660, 0.0142156081, 0.0447864681, -0.1498146802, -0.1756527722, 0.0835837051, 0.1994114369, -0.0648798570, -0.4289360940, -0.1444836259, 0.0128619857, 0.2076530904, 0.0137625132, 0.2318853289, 0.0652949139, 0.0499332137, -0.0820421726, 0.1321989596, 0.1235753968, 0.0546810366, -0.1302490681, 0.2526631653, -0.1562271118, -0.0826431438, 0.1385470927, 0.1325002462, 0.1323142648, -0.2074071616, 0.1733409762, 0.1007729471, 0.0513820499, -0.0847067162, 0.0096741188, -0.0308641717, 0.1034007668, -0.1567631215, -0.0882264152, -0.0812257975, -0.2525580823, -0.0919262767, -0.0926236361, -0.2045782059, 0.4104427993, 0.0002262416, -0.3663392663, 0.0232463460, -0.0425503999, -0.0195012577, 0.0081814434, -0.0257823691, -0.0341442488, -0.0630706921, -0.0218393281, 0.0156382266, 0.0352037139, -0.0452239141, -0.0754152611, 0.0649960935, -0.0016265360, -0.0866886228, -0.0262947697, 0.0025772525, 0.0340508185, -0.0859060735, -0.0040906798, -0.0389028378, -0.0897035301, 0.0262773540, -0.0026090555, -0.0598759204, -0.0386521742, 0.0268172752, -0.0095000053, -0.0074544079, 0.0183892865, -0.1402998716, 0.0212860741, -0.0348989144, 0.0371443070, 0.0250725504, -0.0325841419, -0.0158994868, 0.0666402504, 0.0560159311, -0.0651375279, -0.1376689821, -0.0066968482, 0.2039745152, 0.1190328002, -0.2105498910, -0.1636717618, -0.0852149576, 0.0918249711, 0.1056710109, 0.0042571924, 0.1380297393, -0.2265448272, -0.1607046872, 0.0570313558, -0.0704146996, 0.1654445380, -0.2259473801, 0.0570238940, -0.1012595147, -0.2116364688, -0.1349509954, 0.0134167885, -0.1389646083, -0.1256646961, 0.2077044100, 0.1921035349, -0.0166170411, 0.0233972762, 0.0194873698, 0.2081993818, 0.1279081702, 0.0098806517, 0.3185609281, 0.0338506289, -0.1585414261, 0.2857428193, 0.0136359576, 0.0272968523, -0.1568603963, -0.0052706678, 0.5073651671, -0.0552208647, 0.2241012752, -0.0054094750, -0.2309141606, 0.1607895344, 0.2861298323, -0.2557779849, 0.2709018290, 0.1096940190, -0.0202126261, 0.0559925474, -0.2474408299, 0.0977832302, -0.3075623810, -0.3962959647, -0.3159598708, -0.0076101655, 0.3026325703, -0.6735447645, -0.0404237509, 0.1048951894, -0.1831150800, -0.0838560835, -0.0519513898, 0.0198257007, -0.0848505870, -0.0389676504, 0.1235684529, 0.0001441034, -0.0472922549, 0.0484915674, -0.0802621841, 0.0315602198, 0.0371874459, -0.0421511568, -0.1618694961, -0.3718014657, -0.1494947523, 0.1685693860, 0.1889787018, 0.0431857817, 0.0829522535, -0.0936090127, -0.0832774863, 0.0857234523, -0.0518704318, -0.0539517812, -0.2201063037, -0.1134786233, -0.1993621439, -0.3672635257, 0.0723530725, -0.1463371664, -0.2571074665, -0.0914313644, 0.1699628383, -0.0292435605, 0.1477118134, -0.4549839497, -0.2205984592, -0.0142313801, -0.0604570769, 0.0258997325, 0.0690109506, 0.0861526877, -0.4517122805, -0.0006418317, -0.0693260953, 0.0309142452, 0.0680103824, -0.2363232821, 0.0013863653, -0.0027094220, 0.0801227242, -0.3529047966, -0.2251837254, -0.1617985815, -0.1579503566, 0.0630970821, -0.2026272863, 0.1804272979, 0.1638394594, -0.2194317430, -0.0300739426, -0.1867345423, -0.0875288770, -0.2885514796, 0.1347377300, -0.2779459953, -0.3450626731, -0.1738580167, -0.0860553980, 0.0391114689, -0.1895259172, -0.4805145860, -0.2688062191, 0.0088170869, 0.3194868863, -0.0351128168, -0.0771887973, 0.1668774039, 0.0149036888, 0.0361175761, 0.1268540770, 0.0284740366, 0.1182692572, 0.0162267480, -0.1647270024, -0.1410452276, -0.1889088750, -0.1811939031, -0.0067165135, -0.0060118502, 0.1759855449, 0.0123471124, -0.0934046507, 0.1355483085, -0.3009406030, -0.1415688843, -0.0052220477, 0.0096959937, -0.1091631204, 0.0903360546, 0.0146738803, -0.0055948426, -0.1580369622, 0.0436773337, 0.0793396756, -0.0542417094, -0.0316908360, 0.0732699111, -0.0203186423, 0.1375217140, -0.0239110384, -0.1281097382, 0.0567844771, 0.0424383283, 0.0773399025, 0.0940964967, -0.3478655517, 0.0748079047, -0.0337196030, 0.2156878561, -0.2316229492, -0.2574670315, -0.1129140034, -0.0476003624, -0.1045467630, 0.0617101118, -0.0548620149, -0.0670481250, -0.0598659627, 0.0623724610, -0.1470033526, 0.1043261811, -0.1337900907, 0.1538628936, 0.0591996498, -0.2694011331, -0.1866499782, 0.0953980088, -0.1774472892, -0.0747074410, -0.0765382200, 0.0237107594, -0.1985915154, 0.0810870454, 0.0357634872, -0.0187112931, -0.1151333675, -0.0619525500, 0.0554030798, -0.0037822763, -0.1707704961, -0.2122186869, -0.1757797152, 0.0379914306, -0.2512374818, 0.0576406941, -0.1359258741, 0.3105895221, 0.0471639968, 0.0338326059, -0.1152076349, -0.1034678444, 0.2050367147, 0.1809813529, 0.0560382977, 0.1136345267, 0.0177025087, 0.1108190566, 0.0139038246, -0.0865388438, -0.0554389581, -0.0431251787, -0.0163358748, 0.2124644220, 0.2116271853, 0.0598155819, -0.1107975394, 0.0827878714, -0.0443374254, -0.0549196824, 0.0932457447, 0.0286767427, -0.2308748364, 0.0204058699, -0.0716243759, -0.0787869170, -0.0498490855, -0.0977910236, -0.0345361419, 0.0479404628, -0.0386119112, -0.2806280255, -0.2184572220, -0.0241305474, -0.2134092748, 0.1837817132, 0.2141703516, -0.3489341438, 0.6113985777, -0.4710036218, -0.2242153883, 0.1916621923, -0.1061401889, -0.4214848280, 0.0544281900, 0.2229345888, -0.1273121387, 0.0158097465, -0.3245374858, -0.1385430098, -0.0095629990, -0.1029502377, -0.2603223920, -0.2376653850, 0.3944039345, -0.3492543697, -0.1031965986, 0.1253521889, -0.0032937254, 0.0812598318, 0.0502023771, -0.1988556534, -0.0285251793, 0.0300092585, -0.1174116209, 0.1245627254, -0.1898409128, -0.0039780699, -0.0916989669, -0.0127817448, -0.0145382397, -0.1418797970, 0.0238226112, 0.0156234019, -0.0703775957, -0.0646858364, -0.0028994502, -0.1152800173, -0.4140422046, -0.2381616384, -0.0260408167, 0.0653790012, 0.3118901551, -0.0463433079, 0.1261682361, 0.1700116992, -0.0347514600, -0.0611225925, 0.1280512661, 0.0598065555, 0.0062135686, 0.1761241853, -0.0555295870, -0.1270108670, -0.0977669209, 0.0232567694, -0.0733420104, -0.2910693288, -0.0051814173, 0.2481136769, -0.2151060253, -0.3080424070, 0.2419236749, -0.1365132481, -0.1782866418, -0.0439052880, -0.1009633765, -0.0249720514, -0.0039819628, -0.3687437177, -0.2839923501, 0.1258832365, -0.1254873127, -0.1124673411, 0.2963645756, -0.2818547785, -0.0119346911, -0.1063683107, -0.0463642441, 0.0331529826, -0.0940407887, 0.0583433472, -0.0114671299, -0.0942322984, -0.0683418289, -0.0233296659, 0.1076887324, -0.0734998807, -0.0517511964, 0.0756084472, -0.0637869611, 0.0547106303, 0.0290843416, -0.0238024369, -0.1240640953, -0.1120240763, -0.2502255738, 0.0283027384, 0.0805853680, 0.0718020052, 0.1214761138, -0.0375490151, -0.1759464592, 0.2328320593, -0.1650776267, -0.2016919106, 0.0682827979, -0.0548633859, 0.0614314005, 0.0317776389, 0.0259948857, -0.1510905474, -0.1107667908, -0.0336399302, -0.2269425392, -0.0301811602, 0.0533954948, 0.1029203981, -0.4481351376, -0.3628590107, 0.0534165204, -0.0562501252, -0.2218301147, -0.1096840054, -0.0813165978, 0.0887709185, -0.1066995859, -0.0273430347, 0.0774666667, 0.1592332125, 0.0155932289, -0.0320527628, -0.0796193555, -0.2096262574, -0.1586568505, 0.1324436218, -0.1379753053, 0.1609774381, -0.1107467413, 0.1801159233, -0.0391149633, 0.0440161638, -0.2491574436, 0.0869965255, 0.1071071401, 0.1997423768, 0.0630606487, -0.0554737449, 0.1109308302, 0.1045632884, -0.0659854561, -0.0153472833, -0.1240475327, 0.2064080834, -0.1748593152, -0.0898622200, 0.0119118774, 0.0756694525, -0.0898298323, 0.2409754097, -0.1730049402, -0.0960424021, 0.1799961925, 0.0134458328, 0.0856793150, -0.0295314733, 0.0677358732, -0.0123874564, -0.0541575104, -0.0871674418, 0.1903035045, 0.2178895622, 0.0060178894, -0.2593471408, -0.2106431276, 0.0245366525, -0.3161413968, 0.0882197767, 0.1766429693, 0.0654027015, 0.1540428698, -0.0518073328, -0.0475360975, 0.0014737824, -0.2728056312, -0.3285489678, 0.0813500509, -0.5043166280, -0.1332502067, -0.2232702821, -0.0251092464, -0.1839018464, 0.0489715151, 0.0494049080, -0.2769750059, -0.0241995025, -0.2475674003, 0.0681896955, -0.0319870338, 0.0204367712, -0.1221980974, -0.4228399098, -0.0360078886, -0.1449505389, 0.1324518025, 0.1039558575, 0.0190756489, -0.1159042493, -0.1734802872, -0.0117319543, 0.1140093282, -0.0620406643, -0.1292784959, -0.3128678501, -0.0625471696, -0.0399450734, -0.1910026073, 0.0377201475, -0.2583822012, -0.0122615239, -0.0827417150, 0.0006610486, -0.1009474769, -0.1368427426, -0.1381151080, -0.0649028122, -0.0328579508, 0.1360810548, 0.0493027829, -0.0845405459, -0.0418170728, -0.0569180511, 0.0400931612, 0.1736478060, -0.1241151020, 0.0378664285, 0.1966795623, -0.2119699419, -0.0297770109, -0.0078446139, 0.0511628725, 0.2817060351, -0.1813560128, -0.1791856736, 0.0777949020, 0.1178897098, -0.1773782223, -0.0215396453, -0.0702595860, 0.1251239330, -0.2252097577, -0.0601324216, 0.0363667794, -0.2786317170, -0.1483298540, -0.0418473668, 0.2054327577, -0.1710327566, 0.3015248477, -0.2838014662, 0.0836928561, -0.0514723957, 0.1723185629, -0.2314773500, 0.0934733823, 0.1690898985, -0.0444814935, -0.2909446657, 0.0116308052, -0.2787507772, -0.0107352529, -0.1478107423, -0.1205790862, -0.1512540877, 0.1947553754, 0.0026308186, -0.0771171302, -0.0050852257, -0.3071069717, -0.1259036511, -0.0324209295, 0.1249635890, -0.2608418465, -0.2056090236, -0.3452359736, 0.0072692656, -0.2486854792, -0.2692728043, 0.1467025876, -0.0511906222, -0.4364898801, -0.2373351008, -0.0109252483, -0.1251489073, -0.3104206920, 0.1404040009, 0.0338695832, 0.2392178476, 0.0559461340, -0.2194863707, 0.0996915251, 0.0115341172, 0.0000579892, -0.2494161874, -0.0047652605, -0.3900186718, -0.2593125999, 0.2663879097, -0.1306543350, 0.0191713162, -0.7776240110, 0.3146569133, -0.1080868915, -0.0722830519, 0.0760371238, 0.2143569738, -0.2512844503, -0.0144060887, -0.0716574714, -0.2856400609, -0.2840507030, -0.2034785599, 0.0126830749, -0.1976897269, 0.3001952767, -0.1052767560, 0.1021319404, 0.0042228093, -0.0840924233, 0.0189116672, -0.1254503280, -0.0349279791, -0.2036527991, -0.2926925123, 0.2820675075, 0.1978447586, 0.2396117300, -0.0657033101, 0.1066095009, -0.5881130695, -0.4669858813, 0.0180803034, 0.1458293051, -0.2690101862, 0.0472864099, 0.1200374588, -0.0118886288, -0.0139872348, -0.1661637723, -0.0514381453, -0.0450593196, -0.4146942794, -0.0251089092, -0.2359124869, 0.1248949766, -0.2424450517, -0.2081082314, 0.1029720530, -0.2132211775, 0.1096686944, -0.1602486968, -0.3486620188, -0.6061459780, 0.1119569615, -0.1906439066, -0.3250834346, -0.3234508336, 0.1375813186, -0.2131626606, -0.2695571482, 0.1527575701, -0.4095009267, -0.3690653145, 0.1358834207, -0.0690195113, -0.3137356639, 0.0479980931, 0.0386947244, -0.1056881845, -0.1003490612, 0.0552630499, 0.2032852173, -0.2189081013, -0.0455134399, 0.1283968240, 0.1965482533, 0.2310356051, 0.1117442027, 0.4060556889, 0.2243537158, 0.2199045867, -0.0125381248, 0.0710249394, -0.0392627306, -0.1712391675, -0.0180142578, -0.1485275477, 0.2019539326, -0.0888151303, 0.0914125815, -0.3000463247, 0.0197845902, -0.0556426197, 0.0944678411, -0.0624223650, -0.0835558176, -0.1707505584, 0.0612616278, -0.0077610263, -0.0231856592, -0.0035325934, 0.0273118466, -0.1487002522, 0.0969619676, -0.0961402282, -0.2521294355, -0.0893681869, -0.1541627198, 0.0144138476, -0.1988932341, -0.2388778776, -0.1522737145, 0.0757099092, -0.1543172747, 0.0047339383, 0.2147054970, -0.0391571634, -0.2082722634, 0.1282687932, 0.0516332053, 0.0899352655, 0.1078260764, -0.1184293181, -0.2028312981, 0.0095072305, 0.2046655267, -0.2135614604, 0.1239666864, -0.1603151858, 0.0797727406, -0.0393401645, -0.1923146993, -0.1089239866, 0.1151204556, 0.1903577596, -0.2011420280, 0.2124073952, 0.1317221075, 0.1094031781, 0.0046118470, 0.1300688833, 0.0812004805, 0.1010812744, -0.1135543734, -0.2545197606, -0.1282316893, 0.2094867826, 0.0321707875, 0.0948090181, -0.1946771592, -0.1782827973, 0.0061989771, -0.1335762739, -0.0244730357, 0.0204490777, -0.0192808490, -0.1893579811, 0.0820336789, 0.0930117518, 0.1602976769, -0.0056993254, 0.0584002659, 0.1123820320, -0.3849117756, 0.0527864471, -0.0727459639, -0.2398599237, 0.0613925941, -0.1361568123, 0.0427330695, 0.2871010602, 0.1480630189, -0.1330695897, -0.3148650825, -0.1241151318, 0.1617704928, -0.3620880544, -0.1604439169, 0.1691583246, -0.0232884213, 0.1328325421, -0.0152500765, 0.0231577046, 0.1732236445, -0.0905032083, -0.0715410858, -0.0317792185, 0.0153076956, 0.0268699490, 0.0214981921, 0.0195878372, 0.0178261176, 0.0550553054, -0.1112280264, 0.0074455081, 0.0902607217, 0.0112034623, 0.0059066103, 0.0651381090, 0.0843935087, -0.0388101935, 0.0658002272, -0.0678348541, -0.0339111611, 0.0706180483, 0.0550373048, 0.0316584893, -0.0913075656, -0.0610512607, -0.0798831657, -0.0368906260, -0.1010607854, 0.0949813873, -0.0606081858, -0.0351287536, -0.0075031100, -0.0835672989, 0.0925747529, 0.0807200819, 0.0180486813, 0.0111927511, 0.0620139092, -0.0926769152, 0.0121835042, -0.0377698243, 0.0362508520, -0.2687326074, -0.1341662407, -0.0291448012, -0.0341019221, -0.1029305235, 0.0691518039, 0.0325156413, -0.0176995620, 0.1625020206, 0.3544581234, 0.1597411186, -0.2126414776, -0.1548305452, 0.0042520519, 0.2484181225, 0.3072177768, 0.0058161132, -0.2752178311, 0.1149036139, -0.1040458158, -0.0001388622, -0.1389663517, -0.0778464973, -0.1246974990, -0.0556753501, -0.1889379025, -0.0240339004, -0.0031421185, 0.1855864674, 0.2083352208, 0.0531805083, -0.0242672134, -0.0499680489, 0.1322644204, -0.0728992000, 0.1438158900, 0.0926523656, 0.1431896687, -0.0166195706, -0.0839136541, 0.2253511399, -0.0287399963, 0.0498191230, -0.1045912653, 0.1363693625, 0.3002803922, 0.1101574823, -0.3914294839, -0.1390303820, 0.3605357409, -0.0089887138, 0.0565730929, 0.0906749070, -0.0377475731, 0.1520123482, 0.2898802459, 0.2441185713, -0.1607361138, -0.0809624270, -0.1211350113, -0.1186187789, 0.0506287515, -0.0371931270, 0.0975605696, -0.1508093923, -0.3289573491, -0.3380307257, 0.1381466985, 0.0856479257, -0.0461604521, 0.0311035458, -0.0715975016, -0.0260897800, 0.2806331217, 0.0441304035, -0.1730010062, -0.2425640970, -0.1225294620, -0.0779830590, 0.0391769037, 0.0479954742, -0.2045094222, -0.0954748765, 0.1908331662, 0.2285111696, 0.1024552658, -0.2087596804, 0.0436798297, -0.2595199049, -0.0501637906, -0.1842052788, -0.0302397385, -0.2409589887, -0.0593216084, -0.2884983420, -0.0631690025, 0.2506415248, -0.1162496954, -0.3028047085, -0.0726657808, -0.1701651067, 0.2080653459, -0.1640478522, 0.1723634899, -0.1880540550, -0.1001631021, -0.1025810391, 0.0940373018, -0.3132230341, -0.3030636907, -0.1704800725, -0.0078325747, -0.1964026541, -0.2356854975, -0.0928821415, -0.1095293686, -0.2291988283, 0.0166501869, -0.0371780209, -0.0652011260, -0.1139134914, -0.1106606647, -0.0467992462, 0.0792809948, 0.1626398414, -0.1666516662, 0.1992582679, -0.0818621442, -0.3727039397, -0.2326283008, -0.2472111285, -0.1484886557, -0.2761592269, -0.1296908110, 0.0320005976, -0.2125802636, -0.2714414895, 0.1311585009, -0.1422694176, -0.0447695814, -0.1703974605, 0.1069522873, -0.2898966372, 0.1823098212, -0.0270757396, -0.1203224361, -0.0664118379, 0.1525388807, 0.0188417044, -0.3690865636, -0.0517733544, -0.2293520272, -0.1461606473, 0.0662299097, -0.1500932425, -0.0907206759, -0.2879777551, 0.1248678714, -0.0953238159, -0.1938696355, 0.0303980634, 0.0597560927, 0.0173358954, 0.0940731019, 0.1049284339, -0.0072683063, -0.1181723848, 0.0117996354, -0.0964147076, 0.0471116044, -0.1086868048, 0.0872863904, -0.0650585368, 0.0278511047, -0.0098216273, -0.1128996536, 0.1302344799, 0.0806618556, 0.0094150444, 0.1385933310, -0.3467181623, -0.1439618170, -0.0390526503, 0.1275927424, -0.1619544178, -0.0449374579, -0.1353770643, 0.1237171814, 0.0636035204, -0.1752928495, -0.0939375386, 0.0755931959, -0.2623024881, -0.2129782289, -0.0422219895, -0.0788805932, -0.0175733864, -0.0541799702, -0.1283874065, -0.0808890164, -0.1007873118, 0.1715563834, -0.2628619075, 0.0694305897, -0.0153006744, -0.0547742210, -0.2245184034, 0.1048818529, -0.0386057198, -0.1062163487, -0.2816733718, -0.1872310191, -0.0138008958, -0.0270889495, -0.0856816694, -0.3999401331, -0.0249650404, 0.1881773621, -0.1009861380, 0.0107887695, 0.0301673915, 0.0973060727, 0.0254572965, -0.0264580790, 0.3478606641, -0.0415720008, -0.0784720853, 0.2396035045, 0.0682202205, -0.1254185587, -0.0862876624, -0.1669163704, -0.1851026565, -0.1040580124, -0.1699366421, 0.0468877330, -0.2471488565, 0.1458966881, -0.0214245338, -0.1231045276, 0.0234873276, 0.0480911732, -0.2506597340, 0.0954326987, -0.2098296881, -0.0672735646, -0.0548025370, 0.1766757220, -0.3075798154, -0.1324185282, -0.0214941837, -0.1735157967, -0.0266266353, 0.0528656319, 0.0368893333, -0.3798919916, -0.2184110731, 0.0450765453, 0.0696055368, 0.0133071635, -0.1586828381, -0.2383019328, 0.0030899255, -0.2875790298, -0.1665953696, 0.1707400382, -0.0095342016, -0.1916832626, 0.0578644462, 0.0821362883, -0.4085198939, -0.0219854470, -0.0689161196, -0.1654488444, -0.0085956315, -0.0455811992, -0.1586700231, -0.0343725272, 0.0192602240, 0.1007159650, 0.0510789864, 0.1372071803, -0.0266354345, -0.1171376631, -0.0763235986, -0.0961611494, -0.0267910510, 0.0639144257, -0.1449277550, 0.2078417093, -0.1891762167, -0.0725375637, -0.1878904253, -0.0534632020, -0.2022337019, 0.0482772402, 0.0077380333, 0.0956743658, 0.0896700472, -0.0860370472, 0.0477152616, -0.3409569263, 0.1875465214, -0.3217937350, -0.0210482441, -0.0445805788, 0.2036132514, -0.1548757851, 0.0422501229, 0.0684363991, -0.0002733821, 0.0298526324, 0.0838420689, 0.1169026494, -0.0827360153, 0.0376251116, 0.0318050161, -0.1654825658, 0.0841235444, 0.2144686133, -0.0230439901, 0.0652537420, 0.0427822992, -0.1521591097, 0.0190604609, -0.0220034420, 0.2237541378, 0.2443168461, -0.0318202376, -0.1537865400, -0.1094818860, 0.0385934152, -0.0509299934, -0.2883104384, -0.3537398279, 0.2583214939, -0.1075363010, 0.1774741262, -0.0048037060, -0.1726046354, -0.0299350284, 0.0912865847, 0.0681088418, -0.0333409831, 0.0089607928, -0.0991144478, 0.0097106118, 0.0787542537, 0.0866728127, -0.0384047888, 0.0109692672, 0.0636459514, 0.0306299031, -0.0121416068, 0.0240159277, 0.0735790357, 0.0114506381, 0.0709212273, -0.1230736449, 0.0999888927, 0.0731051192, 0.0567070022, -0.0021771356, -0.0629013255, -0.2261663824, 0.0060228156, 0.1831239462, 0.0868970826, -0.0871740580, -0.3353083134, 0.1319714785, -0.1394068748, -0.0067305900, 0.0034411408, -0.0167220756, 0.0006711816, -0.1688150465, -0.0808168426, -0.0711533874, -0.0426157862, 0.0179781467, 0.2315628678, -0.2250043005, -0.0002863465, -0.1341360509, 0.1695154756, -0.1535690129, 0.1316192001, 0.0376336500, -0.0437459610, -0.1149636209, -0.1677705795, -0.1638558358, 0.0735063925, -0.0411009006, -0.0751455799, 0.0192463398, -0.0523898117, 0.0140967416, 0.0263009034, -0.0012154661, 0.1746168733, -0.3008462489, 0.2030047923, -0.1604999006, -0.1091553569, -0.2183633745, 0.2849810719, -0.0122933909, -0.1728316844, -0.0627136230, 0.0706210807, -0.0317769945, 0.0444089696, -0.1342921853, -0.1141898185, 0.1678346843, 0.1268253326, -0.1811316311, -0.2612228990, 0.0526479818, 0.1782171875, -0.1336493641, -0.0521640554, -0.0091553126, 0.0037248482, -0.1077583283, -0.1261136830, -0.1550371349, -0.1198944077, 0.3753784597, -0.0990817547, -0.2240204215, -0.1480571628, -0.0081925793, 0.1803314537, -0.1129158884, -0.0343214869, -0.1473194957, -0.0904116929, -0.1097851470, -0.0236195382, -0.1045972034, 0.0446936227, -0.0818973407, -0.1662409753, 0.1263037622, 0.0403654426, -0.2154768109, -0.4303157628, 0.1330929995, 0.0692822561, -0.0751611739, 0.0132189058, 0.1939868927, -0.1387504488, -0.1161014959, 0.0317226313, -0.0504081622, -0.0942682400, -0.1747020185, 0.0749306828, -0.2019721419, -0.0572134852, -0.4785428941, -0.3234021068, 0.0858665928, 0.0109256906, 0.0367275998, 0.0969159603, -0.0600479506, -0.1319460869, 0.0665139630, 0.2842708826, 0.2537676096, -0.0218920708, 0.1874367297, -0.1389193237, -0.0421768986, 0.0923273638, -0.1426717043, -0.1106030121, 0.0071623325, -0.1492485255, 0.0515929535, -0.1853360534, 0.1047582328, -0.0097229546, -0.0725018531, 0.1482077837, -0.0343222395, 0.3965168297, 0.0114428084, -0.0358578339, -0.0365842767, 0.1730147153, 0.0555329137, -0.0539851449, -0.0203347225, 0.1187320575, 0.0145135755, -0.3100219667, 0.1538153291, -0.1360617280, 0.2277414501, -0.1984905750, -0.0969643667, -0.2885090113, -0.0408738591, 0.0232737251, -0.0241548531, -0.3153432906, 0.0146575887, -0.0178126004, 0.0216456950, 0.1788716465, -0.2057406157, -0.2960279286, -0.1527673155, 0.1320482939, -0.1289230585, -0.5155541301, 0.1424907297, -0.2439184040, 0.1706641316, 0.2468482554, -0.0355884582, -0.3563651741, -0.1716511697, 0.2625004351, -0.1641172469, -0.3477027416, -0.0804574266, -0.0054336255, 0.0062894784, -0.3088692427, 0.0904862061, -0.1246621236, 0.0035519497, 0.2091858238, 0.1814548969, -0.3007583916, -0.2437838465, 0.0364138596, 0.2499925047, -0.0546221137, -0.0690788627, -0.0502211004, -0.1007164717, 0.1461549550, -0.2928918004, 0.0414336175, 0.0779155716, -0.0873123854, -0.2678861916, -0.1863598377, -0.0744206458, 0.1193319336, -0.0803756863, -0.0348999612, -0.1938974410, -0.0679029450, 0.0194604769, -0.2309009284, -0.0643392205, -0.3138927519, -0.0343279280, -0.1993089616, 0.2469977289, 0.1430703253, 0.0692113638, 0.2022634596, -0.1785008758, -0.1652887464, -0.3399667740, 0.2462771535, 0.1115754321, -0.0392140970, -0.0472175665, 0.0984068140, -0.1625628620, -0.1979345679, 0.0611579306, -0.3404041827, -0.1848130226, -0.3016335070, -0.0414865166, -0.1852140278, -0.0914952233, 0.3064632714, 0.0330446586, -0.0174217969, -0.0108457319, -0.1259387732, -0.1805898249, 0.1023300514, -0.0313255340, -0.3634791672, 0.0870326087, -0.0536599383, 0.1613821089, -0.0694871917, 0.0101232734, -0.1628749818, -0.2287383229, -0.0110743139, -0.2086280286, -0.0832898542, -0.0634515807, 0.2922663987, -0.0813705176, -0.3070490360, -0.0188112445, 0.1485923082, 0.0660965145, -0.0555576682, 0.3177918196, -0.7310914993, -0.3146671951, -0.1723006517, 0.0084667169, -0.1160445809, -0.2225706130, -0.2100176662, -0.2525250912, -0.1690008342, -0.2640601099, -0.0118651167, -0.2273423970, -0.3140345216, -0.1977649778, -0.2469919473, -0.2970768511, -0.1347281933, 0.1738175005, -0.3090482652, -0.0018650307, 0.0140811829, -0.0933819115, -0.2162542343, 0.2103583068, -0.1745512486, 0.2122790962, 0.1472912729, -0.2876478732, -0.0386955664, -0.1069428548, 0.0726663172, 0.3770593405, 0.0001812282, 0.1075243875, 0.1812891513, -0.0942743942, -0.0886724293, -0.0575329140, -0.0665749237, -0.1985741854, -0.3136034012, -0.2376560271, 0.3729135990, 0.0394697115, -0.1640759259, -0.0397679955, -0.0046447190, -0.3613367677, -0.1849408448, -0.0005636712, -0.0358102247, -0.1753855199, 0.0044776741, 0.0769399181, -0.1872450858, -0.1706213653, 0.0037966673, -0.1995940655, -0.0449240729, -0.4093802273, 0.0097244056, 0.0406138487, -0.0905720219, -0.0133606009, -0.2517062426, 0.2000242025, -0.2803406715, -0.5334720612, -0.2425780296, -0.0653807372, -0.0265138987, 0.0470324866, 0.1509389281, 0.1979679912, -0.1817403883, 0.0009124061, 0.3039278984, 0.0015507442, 0.0011689225, -0.0222569853, -0.1286731511, 0.0719234347, -0.4115709364, -0.1535558701, 0.0026124320, -0.0640971586, 0.2286670804, 0.1945200413, 0.1673152298, 0.0111777652, 0.0498693921, 0.0500540100, -0.2419386357, 0.3526687920, 0.1358596385, 0.0626992136, 0.0479318127, -0.0921078622, -0.1985488534, -0.0717298090, 0.1281061023, -0.0759484246, -0.1471249014, 0.2265687585, 0.0834017694, 0.0024235817, -0.0771194324, 0.0398609750, 0.0599181242, 0.0221282635, 0.1493757218, 0.0815422535, 0.0896993130, -0.1021686271, -0.0808166042, 0.1204945594, 0.1460671574, -0.1692090482, -0.2218614370, -0.1317443997, -0.0769381821, -0.0205194764, -0.2694341540, 0.0441939719, -0.1373863071, -0.3405741453, 0.0251674186, 0.1071684211, 0.0125705814, -0.2554472685, -0.0634378046, -0.1238880083, -0.2479893416, -0.3633478284, 0.2389567792, -0.0740243569, -0.2802305520, 0.0553462915, 0.1695963442, -0.1317805201, 0.2450518459, -0.2037136108, 0.0590188168, -0.0053554615, 0.0802455321, 0.0536536537, 0.0620783493, 0.0505852401, 0.0502090305, 0.0337427408, -0.0020814743, -0.0947658643, 0.1031285822, 0.1202955320, 0.0157421175, -0.0332723632, -0.0335745364, 0.0674716681, 0.0373263024, 0.1154871583, -0.0612611808, -0.0137032401, 0.1197285056, 0.0324806683, -0.0753131956, 0.1170991808, 0.0012627299, 0.0945143700, -0.0295776185, -0.0835707709, -0.1248076186, 0.0180258919, 0.0481681824, -0.1074554548, -0.0425759070, -0.0208322573, 0.1254635304, 0.0274668988, -0.0842336938, -0.0136732599, -0.0196903944, 0.1063453630, -0.0813361779, -0.0165428091, -0.0444741808, -0.1222137883, 0.2522603571, 0.1803151965, 0.1192321181, 0.1018957943, 0.1795329154, 0.1198610887, -0.0269334931, 0.3046524823, 0.1224933341, 0.2937216163, 0.3179390728, -0.1973868608, 0.2231695503, -0.1479043216, -0.1247067004, 0.0972473100, 0.0881973952, 0.2072638273, -0.1131386459, -0.2045850605, -0.1744783223, -0.0921483263, 0.0876688287, -0.0682057291, -0.0662868023, -0.1426551938, -0.0042042672, -0.1659808904, -0.1216458902, 0.1439846158, 0.1390426010, -0.1559109837, 0.2759491503, 0.2065497041, 0.0500695556, -0.1101970300, -0.0174829066, 0.3123402297, -0.0358195342, -0.0344589092, -0.1131643653, 0.0607556850, 0.2002504915, -0.0732913688, -0.1832187027, -0.1328478456, 0.0430610627, 0.0006486826, -0.1857047379, 0.1769530624, 0.0944138691, 0.0132242562, 0.0868349746, 0.0414224975, 0.1916345954, -0.5356199741, 0.1002640799, -0.0231963694, -0.0361095406, 0.2442870438, -0.0534256324, -0.4993982017, -0.2539985180, -0.2092296630, -0.1098188683, 0.1714986563, 0.0436242856, 0.0591763407, -0.0889116153, -0.0552139431, -0.2046091855, 0.0520572998, 0.0610065125, -0.1071238965, -0.4101174176, 0.0856415182, -0.1522594839, 0.0162535366, 0.0022608631, -0.3294694126, 0.0716124400, 0.0910468027, 0.1195585057, -0.0760663748, -0.2969384789, 0.0968472585, -0.0215832219, 0.0529333428, 0.1764282584, 0.0007479257, -0.1004911959, -0.1896708459, 0.0860996544, 0.0965228751, 0.2766785622, -0.4865222275, 0.3300800920, -0.1458441019, -0.0459269024, 0.0788021609, 0.1408815384, -0.5346743464, -0.2730760872, -0.1741254628, -0.0023511492, -0.2852877378, -0.1680747718, -0.1146188006, -0.0030361735, -0.3760315776, -0.2595884800, -0.0770623013, 0.0802422315, -0.4354618490, 0.1150395125, 0.0350496806, -0.0579097904, -0.3789222538, 0.1746598929, -0.0258474182, -0.3251819611, 0.1017689630, -0.0993155837, 0.0587857924, -0.2943171263, -0.1528276801, 0.0641131103, -0.0660491660, 0.2694219947, -0.2061982900, -0.2209381759, -0.0051325453, -0.2522232831, -0.3601491749, 0.1767300814, 0.1398365945, 0.1122464165, 0.1199323460, 0.1961392909, -0.0161214564, 0.1289247870, -0.0092839058, 0.1398454159, 0.2236865312, -0.0577505454, -0.1302902848, -0.3421469927, -0.0794001818, -0.2631118894, 0.1608954668, -0.0789048746, -0.0782473832, 0.0089803180, -0.1650210470, 0.0118568465, 0.0724701062, -0.1133702099, 0.0400621481, 0.0749644786, -0.0698734596, -0.0427555330, -0.0299314670, -0.0528565980, 0.0927302018, -0.0625165030, 0.0584628098, 0.0112717096, -0.1202796251, -0.0010716771, -0.1435835958, 0.0159483086, 0.0005827075, 0.0236805622, 0.0564318486, 0.0889688209, -0.0776898935, -0.0475822799, -0.1724299043, -0.0818235353, -0.0846489742, 0.2582772374, 0.0764595866, -0.1074603200, -0.1014305800, 0.0088709136, -0.1902734786, -0.2116372734, -0.2295760810, -0.0609868541, -0.1177638844, 0.0356215015, -0.0242630634, -0.2414951324, -0.2745433450, -0.1012391150, 0.0611432604, -0.0715093613, -0.1060153022, 0.0766158700, 0.1667047739, -0.0420879871, -0.3912958801, -0.2239132375, -0.1938712746, 0.1064043790, -0.0662577227, -0.2494699955, -0.3667010069, -0.2098655403, -0.1601391733, -0.2412129045, -0.0394963436, 0.1336457431, -0.4034924805, 0.0979488045, 0.1482220292, -0.0428107269, -0.0755735412, 0.1912338138, -0.0671416447, 0.0255543124, -0.2074550837, -0.1307991445, 0.0083674872, -0.0997503623, -0.2781488597, 0.1371101737, 0.0461874455, 0.1198822707, 0.1610900760, -0.0808319226, -0.4085187614, 0.1379409283, -0.2046364695, 0.0661694035, 0.0450228117, -0.1110004261, -0.0561967492, 0.0710355788, 0.1943420470, -0.0431689695, -0.2509404421, -0.1702792645, 0.0397431888, -0.0502931252, -0.1092850566, -0.1206435412, -0.0403930955, -0.0390100814, -0.0573696047, -0.3665727377, -0.1801298261, -0.1243910939, -0.2307024300, -0.0257282481, 0.1381563693, -0.1105606854, -0.1599490643, -0.1289212853, 0.2517098486, -0.2356258333, -0.4169502258, -0.2010755390, -0.1517344713, -0.1469157934, -0.1943935752, 0.3303749263, -0.1695148200, -0.0442985892, -0.2460469007, 0.0041257739, -0.2089472264, 0.2157533467, 0.1647299975, -0.0130504910, 0.1652269661, -0.0248117540, 0.0322172605, 0.1523403078, -0.0466415212, -0.0145850005, 0.0248097684, -0.0926576033, -0.0505891964, 0.1333696693, -0.0372736715, -0.1773597747, -0.0289349016, -0.0485353842, -0.1385625005, 0.0199267790, -0.1490703523, 0.0249656066, -0.0657694638, -0.0030719307, -0.0481494628, 0.0395259336, 0.0700721443, -0.4420972168, 0.1980850399, -0.0228814241, 0.1451279670, 0.0345595218, -0.0512335747, 0.0170910768, 0.1844764650, 0.0015112648, -0.1008254364, -0.0544384830, 0.0192657225, -0.1661244631, -0.2577849030, 0.0483263433, -0.1060668081, -0.1412206292, 0.1120867878, -0.2654798627, 0.1062477380, 0.0564071387, -0.1177950054, 0.1419214606, 0.1292991638, 0.2196775377, -0.2656503022, 0.0366609059, -0.1379022747, 0.0168299973, -0.1033502072, -0.0692896992, -0.0219984725, -0.2964562476, -0.2132371217, 0.0604632162, -0.0337718911, 0.1070942432, -0.2677392662, -0.0890198275, -0.0776839703, -0.0139520084, -0.0854222178, 0.0573580600, -0.0349754691, 0.0002054119, -0.0722440556, -0.0170774218, 0.0014351256, -0.0268302839, 0.0020809849, 0.0724397153, 0.0446801782, -0.0523938313, 0.0803896785, 0.0695113763, -0.0399817489, 0.0720007867, -0.0656443313, 0.0641387999, -0.1620040387, 0.1763374507, -0.0112464782, -0.0012142526, -0.3464055359, -0.2077824324, 0.1816928536, -0.0226407852, -0.0380957089, -0.1836841106, 0.0011212480, -0.0743728727, -0.0042694369, -0.1766663790, -0.0216129180, 0.0754496604, -0.2016699910, 0.0640228912, 0.0480814166, -0.1488440782, 0.2376426905, 0.0763975829, 0.1848113835, -0.2486590296, -0.4353001416, -0.1569179446, -0.2029298842, -0.0359352864, -0.0483311713, 0.0599771105, -0.2201956660, 0.1273565143, -0.3233388066, 0.2005747259, -0.0413712598, 0.0562772863, 0.1429815292, -0.2149555087, 0.0212853197, -0.2111485749, -0.0558797680, 0.0672011822, 0.0065201055, 0.2639233768, -0.0231166556, -0.0216331445, -0.0586391129, -0.0918310285, 0.0208117459, -0.2917709649, 0.0515446290, -0.0613265373, -0.0294600595, 0.0510851704, -0.2952056527, -0.1606716514, -0.0353434943, 0.1256163865, -0.0101376325, -0.2567432821, -0.0172492936, -0.0425835103, -0.2642970085, 0.1161566526, -0.0862727389, -0.0840295851, 0.0342483521, 0.0365132280, -0.1053147316, -0.0140916584, -0.0405989178, 0.0162901897, -0.1799158305, -0.0119196866, -0.0070627145, 0.1011338457, -0.0194811635, 0.2273397297, -0.1583164036, 0.0326440372, -0.4023853540, 0.0363494940, 0.0294174980, 0.0092684627, 0.0241742749, -0.1260399073, 0.2022233456, 0.0180146936, 0.1476556063, -0.4507448971, 0.1815823168, 0.1871903986, -0.2873833477, -0.0311056599, 0.1044254974, -0.1783305109, -0.2031260431, -0.0940914154, 0.1812792867, 0.0592260659, 0.0082648639, -0.0682761446, -0.0588896982, 0.0077795880, -0.1942057610, -0.0997878015, -0.0557608418, 0.1064786911, 0.1622359306, -0.1792659312, 0.1061615646, -0.1228443682, 0.2843667269, 0.2159824073, -0.0551199205, -0.0086879050, -0.0276448615, -0.1479935199, 0.0786226317, 0.0120489262, -0.0580427051, 0.0707132965, -0.0462879054, -0.0965688452, -0.1171160787, -0.0452536717, 0.1867010444, -0.0436914004, -0.0233637784, 0.0360994302, -0.0415817760, 0.1315868050, 0.0899891332, -0.0306793861, -0.1479131430, -0.0730403066, 0.0413624421, -0.1283420622, 0.0288291294, -0.2086521834, -0.1469410211, -0.0397324339, 0.0608729944, -0.1824670881, -0.1124155968, 0.0737719536, -0.1458652467, -0.2587101460, 0.1137236878, -0.1535982788, 0.1421959698, -0.2431052327, -0.3084540963, -0.1844998896, -0.1105463058, 0.0865826979, -0.5502068400, -0.0059439032, -0.3502430320, 0.2233493775, -0.0746361166, -0.2966901958, -0.3751011491, -0.4643892646, 0.3186966181, 0.2499337047, -0.0606527440, -0.4329285324, 0.4220080972, 0.1868727058, 0.1319339424, -0.2258617580, -0.1497672647, -0.0666785091, 0.0723537058, -0.3390426040, -0.0307801999, -0.2991417050, -0.4667108655, 0.4696831405, 0.1271708459, -0.2257591337, 0.2151895016, -0.3138487339, -0.0816871747, 0.1338547617, -0.0955182537, -0.2605520189, -0.1564915031, -0.2720659971, -0.5945225358, 0.0176429693, -0.2860781550, -0.1161550656, -0.3446446359, 0.0674974546, -0.1017659381, 0.0486333892, -0.0457863882, 0.0303473640, -0.2019338459, 0.2396698296, -0.0320690088, -0.2358871251, 0.2003505528, 0.0523378700, -0.0702470168, 0.1204968393, -0.0521868989, 0.2517329454, 0.0906867757, 0.0801316202, 0.1415687352, 0.0812044516, -0.0557526611, -0.0241930112, 0.0106703779, 0.1834252626, -0.1014772654, 0.0054945424, 0.0197865777, 0.1125037894, 0.1670171916, -0.1146572456, -0.0499757305, 0.0828782395, -0.2167452425, 0.1568107009, -0.0192287434, -0.0346278138, 0.2674598694, -0.1834157109, 0.1415884644, 0.0571863987, -0.0494074970, -0.3617815673, -0.0039737411, -0.0769342408, -0.1136422232, 0.0455585383, 0.0374741368, -0.2132380158, 0.2302210629, -0.2441629171, 0.0630175099, 0.0692473352, -0.1268824488, 0.1295652688, 0.0457493998, 0.0720501319, -0.1128242984, -0.1908851415, -0.0128218243, 0.2561016381, 0.1808264852, 0.1726905555, -0.1508061141, -0.4158217609, -0.3579896986, -0.0617737286, -0.2172130197, 0.2473005056, 0.0209544785, -0.3132466674, -0.2111651152, -0.0781918243, -0.3871160150, 0.0381259359, -0.1794793159, 0.0543751828, -0.0714080632, 0.1356613189, 0.1242371202, -0.0785761029, 0.2964371145, -0.1364837587, 0.1216048151, 0.0548924878, -0.0499267504, -0.0603459924, -0.2591537237, 0.1723364145, 0.2088172585, 0.2537571788, 0.1004007459, 0.1738211960, -0.1475541890, 0.0698037148, 0.4646730125, -0.1489658505, 0.3003111780, 0.1623423845, 0.2088454664, -0.1600711793, 0.0032301862, 0.3272207677, 0.1552489400, -0.5708792210, -0.0773017630, 0.1420006007, -0.3251523674, 0.0221798196, 0.0835515782, -0.4528726339, 0.0873540491, -0.0406379364, 0.1799926162, 0.1240356266, -0.1849436164, -0.2848354578, 0.0698519275, -0.1755117476, -0.0199199747, -0.2786884308, 0.0618090406, -0.1816734374, 0.2016970813, -0.1962861121, 0.1914836913, 0.1542155743, -0.2088600695, -0.1239429563, -0.1845592707, -0.4672041833, 0.0430992208, -0.1730856895, 0.0169274714, -0.0164472088, 0.2654658556, 0.0281545408, -0.0893328115, 0.1025130898, -0.1509764940, -0.3374371827, -0.0133576663, -0.0405299626, 0.1328170300, -0.2354698181, 0.1292097420, 0.1372820884, -0.0403970815, 0.2150668651, -0.0566013195, 0.1452692598, -0.2904774845, -0.0546398126, 0.2286158353, 0.3954500854, -0.0584347621, -0.0026897325, 0.0224610493, -0.1256590486, 0.0934525654, 0.1407482177, 0.2601087689, -0.4719906449, -0.1576032341, -0.0681839064, -0.1924238652, -0.3159235716, -0.1161016375, 0.0974364728, 0.0930276960, -0.1658780128, 0.0161050744, 0.3091966212, -0.1407393217, 0.2148130983, -0.1551174372, -0.3715857565, 0.1839688122, -0.3097529709, -0.1458837986, -0.0617057234, -0.0639108196, 0.2473026961, 0.1569248289, -0.2108310014, 0.1881609261, 0.0978590399, -0.1325234771, -0.0175461993, -0.1037870497, 0.0638458058, -0.1727999002, -0.2213677317, 0.0418287404, 0.2927038670, -0.1489268541, 0.3635166585, -0.2503170669, 0.0739252791, -0.0568491481, 0.0790348575, -0.0322456360, 0.0232788771, 0.0407548063, -0.0435226075, 0.0658935308, -0.2529506385, -0.0968120173, 0.0488672331, -0.0868690088, -0.0557561368, 0.0740372017, -0.0271087512, 0.0219513793, 0.0986629054, -0.0768629313, 0.0217957739, -0.0655102730, -0.0160637908, -0.0527795106, -0.0275435057, -0.0157134645, 0.0365944654, 0.0833005309, -0.0843213201, 0.0090700081, 0.0271041431, -0.0667466745, 0.1111447886, 0.1148006991, 0.0326800570, -0.0020401154, -0.0770990849, -0.0217456296, 0.0259379968, -0.0680308565, -0.1299750209, 0.0422391444, -0.0979779661, -0.0143631846, 0.0125781409, -0.0856972337, -0.0987646580, 0.0463093147, -0.0574120209, 0.0874359533, 0.0682890341, -0.1104298383, -0.2996222377, -0.1191882342, -0.0878918543, -0.3220376372, -0.2324029505, 0.1262350678, 0.1207593158, -0.0728243664, 0.1266070157, -0.1623375267, 0.1313359886, -0.6916074157, -0.2336322963, 0.1699561626, -0.0865452513, -0.1765192598, -0.1651794016, 0.1314098984, -0.1581165642, -0.1034521461, 0.2291922718, 0.1439740062, 0.0135936784, 0.1285553575, -0.1072228253, 0.1736532897, -0.0075314771, 0.0704711229, 0.1089950576, 0.0841893777, 0.0088372976, 0.2038777322, 0.0287388992, -0.0303989835, 0.1636703312, -0.0508060828, 0.0333748870, 0.0314323641, 0.3523771465, -0.0932166353, -0.0814281702, 0.1192526817, 0.2081754804, -0.5598614812, -0.0410633497, 0.2395099401, -0.0496791936, 0.1430897117, 0.1492092460, 0.2511094809, 0.0345059969, -0.3590709567, 0.1398861110, -0.2333938777, -0.2511143982, -0.2449474782, 0.0773917511, 0.3735815585, -0.1233902648, 0.0059697982, 0.0516953096, -0.0814083368, -0.2259944826, 0.1724505424, 0.0266470574, -0.3043368161, -0.2435538918, 0.1044978052, 0.0416756906, -0.0459661335, -0.4650366306, 0.0283138156, -0.1596277058, 0.0436258912, -0.2986119390, 0.1739763021, -0.5696729422, -0.1536548138, 0.2173348367, 0.1884456873, -0.2651240528, -0.0830926001, 0.0146388235, -0.2590563297, 0.2438140959, 0.2351498604, -0.0494639277, -0.0378490090, -0.0713809133, -0.2562782168, 0.0210370440, 0.0247915350, 0.3610395789, -0.5053606629, 0.0013178991, 0.1010238081, 0.2233884782, 0.2319759130, -0.1822537780, -0.2083354294, -0.3437556028, -0.2770148516, -0.2928736210, 0.1297878474, -0.1523161829, 0.1510889530, -0.0707051158, 0.0052137980, -0.2780743837, 0.0197260138, -0.4031703174, -0.0141187413, -0.3220715821, 0.0452659763, -0.3556379378, 0.0652764216, -0.0126161790, -0.0205105320, 0.1042498499, -0.1674254686, 0.1489802748, -0.0237995647, -0.3601556420, -0.0893587843, -0.3284623921, -0.0070775542, 0.1495338082, -0.0791981965, -0.2298012078, 0.0870375931, -0.3249327540, -0.2596401274, -0.0637413189, 0.2876687944, -0.0934868231, -0.2604424953, -0.0542496145, 0.2657087445, -0.1493055075, -0.0332344137, 0.0709595084, -0.0892842114, -0.5217768550, -0.1647463143, 0.1284303814, 0.0229820590, 0.1934489161, -0.0184668619, -0.2130651027, 0.0908078700, -0.3054803610, 0.0536802262, 0.2848407924, -0.0402443334, -0.2703732550, 0.0107752802, -0.3989835083, -0.0445679538, -0.1502820998, -0.0099258786, 0.0085275955, -0.0291234814, 0.0539634526, 0.0253398381, -0.0689734817, -0.0914386213, -0.0063218246, 0.1009509712, 0.0438245572, 0.0331638567, -0.0081497859, -0.0383572653, 0.0389844961, 0.1403768361, -0.0189708583, -0.2068793923, 0.0005536967, -0.0309696048, 0.0639457926, 0.0172066838, -0.0446400791, 0.0303732567, -0.2870478928, -0.1209622175, -0.2202457786, 0.0297446139, 0.0054138401, -0.1324559152, 0.2738964856, 0.0415377654, -0.3138753474, -0.2061719894, -0.2056821138, -0.1066151634, -0.0289414283, -0.1375398785, 0.2893625796, -0.1448462754, -0.0408738777, -0.1614129543, 0.0593700968, -0.2014590800, -0.0836867169, -0.0644961894, 0.0213329159, -0.0417025387, -0.0040343273, -0.0312905610, -0.3800475597, 0.1699805558, -0.3077001274, 0.0636615306, -0.0172891561, 0.0429954417, -0.2312066257, -0.0432456098, 0.0324684754, -0.0941280946, -0.0191508662, -0.0864170939, 0.0562790409, 0.1701293886, 0.0421577170, 0.0811373144, -0.0312151276, 0.1361508816, -0.0997153595, -0.0564469323, -0.0711620972, -0.1033047587, 0.1087630242, 0.0180970002, -0.0609196424, -0.1535511464, -0.0411242880, -0.0032311741, 0.2376729250, 0.0906511396, -0.1502617449, 0.1587204933, -0.1170329452, -0.3543556333, -0.0606864467, 0.0811000913, -0.0520973057, 0.1437050253, -0.2243470401, -0.2377086580, -0.2917222977, -0.0348127894, -0.1798070371, 0.0810706466, -0.1614464968, -0.0073650815, -0.2206953615, 0.2152057141, -0.1189829558, 0.0250542257, 0.0664695278, -0.1071272492, -0.1262632906, 0.0892608315, -0.1383407414, -0.1595139951, 0.2925912440, 0.0953040347, -0.0948220342, -0.3860046864, -0.2283746600, -0.1233759597, -0.0248956569, -0.2860440612, -0.3175413311, 0.2686810195, -0.1272338182, 0.0710125566, -0.4199006259, 0.4064888358, -0.1807093322, 0.0178798065, -0.1462645382, -0.0744979903, 0.0000381450, -0.0023307791, 0.0090346783, 0.0264702756, -0.0951697752, -0.0536913723, 0.0497240126, -0.0416255072, -0.1109994799, -0.0078233564, -0.0134006999, -0.0566416867, 0.0002040071, 0.0224248581, 0.0969284773, -0.0431866087, -0.0094390670, -0.0365696326, -0.0199534651, -0.5362678170, -0.1855232567, 0.0190421548, -0.1526052207, 0.2167240828, 0.3081905246, -0.1741593927, -0.1783230007, 0.2481665164, -0.0670168847, -0.2802874446, -0.0457903817, -0.0429509282, -0.0296784099, -0.1095054597, 0.0604932234, -0.1706890017, -0.1015350372, -0.0785808936, -0.1858972609, -0.1695189774, -0.0928193554, -0.3823934197, 0.0374242477, 0.0639688969, 0.0735431686, -0.3236848712, 0.0484612100, 0.3148099482, 0.1318328679, -0.0174531471, -0.2355421484, -0.1093453541, 0.1177538186, 0.1809698492, -0.0492091253, 0.0761641935, -0.3558270633, -0.0727045089, -0.0360495672, -0.0479269698, 0.0853779316, 0.0486482307, -0.0741733909, -0.0705954656, 0.0352555700, -0.0815866590, -0.0345595479, 0.0070399591, -0.1008197218, -0.0622488707, 0.0039355597, -0.0055581615, -0.0866924971, -0.0262215827, -0.0671051815, 0.0024114365, 0.0442749336, -0.1820326149, -0.0506684259, -0.1459998786, -0.4223169088, 0.0866055414, 0.0404985473, -0.1002196223, 0.0316899270, -0.0826868638, -0.4667054415, -0.1445180774, -0.0560703874, -0.3192374706, 0.0051529380, 0.0555405766, -0.4053792655, 0.0902129188, -0.4065138400, -0.0548313893, 0.0562132671, 0.1722316593, 0.1857030392, 0.0869902819, -0.1138030142, 0.2175360322, 0.2094797492, -0.2698737085, -0.0177965946, 0.0638840422, 0.1301189065, -0.0474072658, -0.1646968573, 0.0239225719, -0.1088842973, -0.3207404315, -0.0673014298, -0.0387341343, -0.1455728114, 0.0905804858, 0.2696965337, -0.0364532620, 0.0445809029, -0.1782140136, -0.0228801630, 0.1881058216, 0.1914658993, -0.2177658528, -0.0841021836, 0.1320508271, 0.1684674472, 0.2505098283, -0.2392081320, 0.2218525410, 0.0704902411, 0.0100622950, 0.1523724198, 0.0872560889, -0.4057098329, -0.2223679125, 0.0824365988, 0.3328149617, 0.3318060040, -0.0486255102, 0.1850236505, -0.1259726882, -0.0285904612, 0.0964201242, 0.1921045184, -0.1189187393, 0.1097529978, -0.1235796437, 0.0264594238, -0.1159339547, 0.1123857126, -0.0545920655, -0.0819994658, 0.2032253593, -0.1717899889, -0.0489802733, -0.2575281262, -0.3575330675, 0.0143486299, 0.0392159633, -0.3136091530, 0.1304788738, -0.0985789374, 0.0106991418, 0.1875770241, 0.0047140885, -0.3430645764, -0.0489721410, -0.1577949971, -0.5571745634, -0.0288956370, -0.0779012814, -0.2885705233, -0.1833791584, -0.0066627651, 0.1106305569, 0.0484617464, -0.1877676100, -0.0528753698, -0.0679056570, -0.2753373086, -0.1854574978, -0.4181584418, 0.2240820080, 0.0298377145, 0.0163780134, -0.2480006814, -0.1089541167, -0.2356676608, -0.3576261699, -0.1127320752, 0.0613114610, -0.1196117476, 0.0636649877, -0.3192650676, -0.1911667734, -0.0717604458, 0.2570455968, 0.0150004178, 0.1129777804, 0.1033921987, 0.0117974747, 0.1865023077, -0.0109018954, -0.1842503399, -0.0818641558, 0.1345568448, 0.2797911763, 0.1922310591, 0.2405104041, 0.0901113898, -0.0682862401, -0.0692701787, -0.0501543656, 0.1826211512, -0.1562808901, -0.0298134945, 0.0099499729, -0.0277379956, 0.0533324182, -0.1065272838, 0.0156275723, 0.3199583888, 0.0634410828, -0.1769481450, 0.1272475123, -0.0446806215, 0.0406676382, 0.0739336312, 0.1021971554, -0.4850894213, -0.4577896893, -0.2489105016, 0.1612140983, -0.4069203734, -0.0128482366, 0.0523422025, -0.2132416666, 0.1143619642, -0.0126529988, -0.4003624618, 0.1368771493, 0.2696704566, 0.0954958051, 0.2291107774, 0.3644778132, 0.1964856535, -0.3880948424, -0.0112924213, 0.0306479745, -0.0688136891, -0.0443874523, 0.1356890798, 0.1200709790, -0.1798934191, 0.2759893239, 0.0986932740, 0.0207203794, 0.1127497852, -0.1736955792, 0.0013780901, 0.2800751328, 0.1005837992, -0.1798187792, -0.0124611547, -0.0427100994, -0.2583853304, -0.1361881047, -0.1455115229, 0.1699131131, -0.1102475896, -0.3533549607, -0.2935986221, -0.0168346688, 0.0585845858, -0.2299157083, 0.0190491751, -0.1790704578, 0.2660156488, 0.0471208617, 0.2574151456, -0.4868017435, -0.1764372140, 0.0308319908, 0.1904562414, 0.0216683783, 0.0164340567, -0.0294714049, 0.2454594821, 0.0030595292, 0.0363939106, -0.4208839536, 0.1576868892, -0.1181047261, -0.0270200558, 0.0305024907, -0.1727684289, -0.1916605532, -0.0793241709, -0.0217442140, -0.4488801956, 0.0418770835, 0.0169858020, 0.0609038919, 0.2407878339, 0.0073647466, -0.1752446443, 0.1712268889, -0.0013666325, -0.1389991790, -0.3318218589, 0.0440652929, 0.0016716819, 0.0147847012, -0.1237802729, -0.1047137976, 0.2349434942, -0.0276128259, -0.0737797841, 0.0294024330, -0.1527470499, -0.2253500968, 0.2807826102, 0.0773432553, 0.1702729911, 0.1557319909, -0.0446632020, -0.2775891721, -0.1828879416, -0.0688542128, -0.3660863340, 0.0110758375, 0.3323904276, 0.1528237313, -0.0413662232, 0.4054223001, 0.3679207265, 0.0757198855, -0.0099156024, 0.1178860888, -0.1720187366, -0.1869242489, -0.3026451766, -0.3422955275, -0.0770650283, -0.2636780441, -0.4913713038, -0.1786407083, -0.0244469661, -0.3111180067, 0.0013853266, 0.2132485956, -0.2615335882, -0.2226608098, -0.0992097706, -0.2033478767, -0.2313036770, -0.3096259534, -0.1015766636, 0.0055675302, 0.1315579563, 0.2644486725, -0.1307815164, 0.4516750872, -0.0174513012, 0.1303573102, 0.0181991197, 0.1194865927, 0.1297213286, -0.1130502596, -0.3453089297, 0.1065682396, 0.0771185905, -0.0529131144, -0.4235112965, 0.2644677460, 0.2050554156, -0.1571132392, -0.0191702917, 0.0772361681, 0.0468348116, -0.0369196348, -0.2884154618, -0.0248304531, 0.1414128989, -0.3532036543, -0.0670193732, -0.1708254516, -0.0565553829, 0.0399263166, 0.2245268524, -0.0362733342, 0.0293690171, -0.1206834838, -0.0868041888, -0.1871569902, -0.2110285312, -0.0495135598, -0.2574703991, -0.0079486193, -0.2259712815, 0.1369646490, 0.1708319634, 0.1713110507, -0.2332879156, 0.1713629514, -0.0953651667, -0.3455542624, -0.2288949192, -0.0468567535, -0.2815203667, 0.0973773524, 0.1477941275, 0.1622499079, -0.0769257173, 0.1531733274, 0.2718786299, 0.0473903753, 0.3612564802, -0.1645109355, -0.1398429722, -0.4449705184, -0.2596804202, 0.0185233001, 0.1663438827, -0.0439989716, 0.1101415455, -0.3298770189, 0.0372763090, 0.0681726709, 0.1883965284, 0.2396733314, 0.0135821421, 0.2703313529, -0.1027724072, -0.1122071147, 0.0197763722, -0.3386605084, -0.0858791843, 0.0190909859, -0.0914149880, 0.1534644812, 0.0518622883, 0.1672180891, -0.2352678627, -0.0857314244, -0.0733116865, 0.1937351227, -0.0537571721, 0.0147696231, -0.4363924563, 0.1240511090, 0.1920167804, 0.0846457928, 0.0316583849, 0.1675041467, 0.1615032256, 0.1077792719, 0.0082515208, -0.0847217962, -0.2631970942, 0.0162684675, -0.2424667329, -0.0800015479, 0.1206164956, 0.1958047450, -0.1302917451, 0.1156338677, -0.3990375996, 0.0378916934, 0.1752116829, -0.4392109215, 0.2145812511, -0.0291519333, 0.2632328570, 0.1281779408, -0.1054142937, -0.0767903030, 0.0886236206, -0.0728646368, 0.0862210244, -0.0487655587, -0.0367821231, 0.0478234589, 0.0802978054, 0.0655939132, -0.0409849845, -0.0633860826, 0.0041344394, 0.0645894930, 0.0869137719, 0.0922684819, -0.0679256469, 0.1011648253, 0.0117645040, 0.0200857408, 0.0769863129, 0.0444343910, 0.0487900525, -0.0932999700, -0.0818180591, 0.0511426143, -0.0083275428, -0.1186164543, 0.0456314757, -0.0317507982, 0.0406404138, 0.1001988873, -0.0754811168, -0.0810223594, 0.0352252983, -0.0376649313, -0.0746613219, 0.0568912774, 0.0493023470, -0.0069497181, 0.0167738572, -0.4379745424, -0.5015850663, -0.1691439152, -0.4428641498, 0.2141024619, 0.2230043709, -0.0679710507, -0.3399392366, 0.0550093688, -0.2013157457, -0.4300331771, -0.2322301716, -0.4808994532, -0.2171990573, 0.3369176090, -0.1887634397, 0.3196876943, -0.0634114295, 0.0632380322, -0.0471112542, -0.0490707420, 0.0690681264, 0.0084140263, 0.0378731750, -0.1461875141, 0.2855249941, -0.0746519193, 0.1064213738, 0.2217153460, 0.1743993908, 0.2274714261, -0.0097453501, -0.0544588305, -0.0763436779, 0.0387323499, 0.0818153024, 0.0468893163, 0.0424480923, 0.0314866900, 0.3429375887, 0.0063203084, -0.0492720976, 0.0895099044, -0.0495562144, -0.1349908561, -0.1201432571, -0.3457412720, -0.0332652628, 0.3623904586, 0.1732241213, 0.1241607144, -0.1092121378, 0.0413162000, 0.2499621361, -0.0355759859, 0.2650557458, 0.1676870286, -0.0582552031, 0.0124905612, 0.1077615395, -0.1531639993, -0.1035224274, -0.0079397168, -0.1895911992, -0.0020675138, 0.1698547006, -0.0097157974, -0.0758411512, -0.1100293472, -0.1744172573, -0.0061363936, -0.1248322949, -0.1876701862, -0.1005441323, 0.1812235117, -0.1097153947, 0.0402778685, -0.4069912136, 0.0341900326, -0.0630384460, 0.0133283837, -0.2924855351, 0.0158852320, -0.2032082081, 0.0306890532, -0.1481108069, -0.1196775138, -0.0097328192, -0.0261668880, 0.0502104163, 0.0035482277, -0.0962584168, 0.0125231240, 0.1059208885, -0.5604946017, -0.0117933787, 0.2086449414, 0.0589920916, -0.1180267781, -0.1579613090, -0.1216628179, -0.0934299156, -0.0351251289, 0.0172789916, -0.0701600462, -0.2506642342, -0.1591258198, -0.0155670093, -0.2786598206, -0.5486607552, -0.1749451458, 0.0988366455, -0.2196219265, -0.2500554025, 0.0390812345, -0.2935378551, -0.2328528166, -0.0779263750, 0.1036487967, 0.0205731466, -0.0538636446, 0.0265554823, -0.0320590250, -0.2057734877, 0.2209924906, -0.2592206895, 0.1509665996, -0.0440735035, -0.4005118608, -0.3117910028, -0.0424979329, -0.1418148577, -0.2023939639, -0.0664248392, 0.2059655935, 0.1292234212, -0.3550045788, -0.0784370825, -0.0363781452, -0.1660004705, -0.0310967229, -0.0176426303, -0.2193912268, -0.1208818778, -0.1301810741, -0.3666989505, 0.0000122750, 0.1796917170, -0.2547607124, -0.7058289647, -0.3105254173, 0.1511360556, -0.3709514737, 0.0685761049, -0.1146728098, -0.5789642930, -0.1951758265, -0.2680628896, -0.2303611487, -0.2160328031, -0.0774765313, 0.0274883229, 0.0092784148, -0.0831619874, -0.0499791987, -0.0569065921, -0.0799758509, 0.0557292774, 0.0008220451, 0.0905736610, 0.0958916694, -0.0615335628, 0.0306130946, 0.0524822511, -0.0909414589, 0.0390163735, 0.0050539174, -0.0595258027, -0.1142667904, 0.1597344130, 0.1479665339, -0.1599995941, 0.0744854584, -0.3299619555, -0.0975726619, 0.0098215267, 0.1931330860, -0.2273060679, -0.1083414033, -0.2174447924, -0.2152957618, -0.1789501756, -0.0073641199, -0.2136673629, -0.0442517549, -0.0062831324, -0.0655500814, 0.2330748588, 0.0162175596, 0.0750466287, -0.0370921828, -0.1985002160, -0.1840699464, -0.2181116492, -0.0783064589, -0.2457883954, 0.0034070385, -0.0737423524, -0.4863226116, -0.4994718730, 0.0551558584, -0.0265936945, -0.1690948308, -0.1639109850, 0.0316639207, -0.1049974114, -0.2581397593, -0.2215349376, 0.0403761268, -0.0958979130, 0.0849762112, -0.2181460708, -0.0112312166, -0.1583259702, 0.2098717839, -0.1068319902, -0.2317324728, 0.0077964165, 0.2164378464, 0.0978101641, 0.0201117825, 0.0318362862, 0.1299695671, -0.2708414197, -0.1800575107, -0.1077239290, -0.2683013678, 0.0087912828, -0.0003946133, -0.1737134904, -0.0970422179, -0.1741816401, -0.2919866145, -0.0878508016, 0.1095451266, -0.1007341370, 0.1394724399, -0.1082999036, -0.3250715137, -0.3901476264, 0.0568071268, -0.0027324047, -0.0449653752, -0.1302972287, -0.0418197736, -0.0999320298, -0.0488592274, -0.3360171020, -0.0850625262, -0.0317164548, 0.0961532816, -0.2754150033, 0.0380723663, -0.2591674328, -0.2757904828, -0.0989213586, 0.0924213007, -0.3065608740, 0.0822411627, -0.0130988434, -0.1822657287, 0.1130646393, 0.1493847817, -0.1665250510, 0.0519573130, 0.2680863738, 0.0524025969, -0.0850163922, 0.2854139507, 0.0518245436, -0.0670892298, 0.0059560584, 0.1681261957, 0.0074361260, -0.0035493157, 0.0484217964, 0.1072452068, -0.0473945625, 0.0414659828, 0.1542301923, 0.0339827873, 0.0472151451, -0.0606335625, -0.1594829857, -0.0851306692, 0.0396925993, 0.1590088308, 0.0482053384, 0.0250702668, -0.0178543068, -0.1662984937, -0.0687273443, -0.1295008063, 0.0203420613, 0.2229214162, 0.0107318712, 0.1064082086, 0.0137712145, -0.5133269429, -0.2849191129, -0.1053178087, -0.0199147332, -0.0221189950, -0.2744891346, 0.1151231825, 0.2524172664, -0.0585576482, -0.1076423004, 0.1967575103, 0.1166599244, -0.0639073774, 0.0393449739, 0.0597303361, -0.0782858804, -0.2200178951, 0.0103231091, 0.0279181264, 0.0174182821, 0.1203744560, -0.1530015469, -0.1163088307, 0.1958434880, 0.0837464780, -0.1584056169, -0.2234957367, 0.1457030624, 0.2017060965, -0.0228185784, -0.1101288721, 0.0634927750, -0.0228040610, 0.0788699687, 0.0539155006, 0.0091740470, -0.1060626954, 0.0174986124, -0.0417727605, 0.0371305607, -0.0832024738, 0.0725324675, 0.0504848845, 0.0649526045, 0.0689557195, -0.0010813382, -0.0023826335, -0.0671243519, 0.0004153516, 0.0746553317, 0.0336875170, -0.0196503084, -0.1108982340, -0.1661923677, 0.1232030466, -0.1966757476, 0.0135630248, -0.0023486498, 0.1454916298, -0.1003823131, -0.4090601504, -0.2566173971, -0.4681916833, -0.1688038111, -0.3295547366, -0.1542334557, -0.0282587856, 0.1049870998, -0.4438466132, -0.1952319145, 0.0222679898, -0.0368808992, -0.0511444248, 0.0706117377, -0.1512725949, -0.0190850124, 0.1344000995, 0.0575618632, -0.1842897534, 0.1808570027, 0.1900599897, 0.1583868861, -0.0017147271, -0.2644078135, -0.0820123553, 0.1587955058, -0.4167498648, -0.2333959937, -0.1853892654, -0.0293773189, -0.0007295643, 0.1924502552, 0.2534694970, 0.1264099330, -0.1488430351, 0.0895781144, -0.1343163997, -0.1626579911, -0.0726957098, 0.1940861493, 0.1380542666, -0.3906081021, 0.0015177923, 0.2902450860, 0.1046956852, -0.0244013853, -0.0751698762, 0.1165453196, -0.0496503375, -0.1038229391, -0.0765777305, -0.2362320125, 0.1881377101, 0.3367767632, -0.2011247575, 0.1739603877, 0.2727526426, 0.1220959350, 0.1549966782, -0.0962771848, -0.1404730380, 0.0776445940, 0.1548918784, -0.0534921587, -0.2546868920, -0.2699352205, 0.0141503867, 0.0454461090, 0.1496671587, 0.0783015341, -0.0348350629, -0.2581601441, -0.2351644635, -0.3122092187, 0.0255372226, -0.2229744643, 0.2281178087, -0.1076786071, 0.0066789710, -0.1364882141, -0.1100789905, -0.2497924417, -0.0172881037, -0.3634138703, -0.4410131574, -0.1710067838, 0.1403322220, -0.2299741209, -0.0719770640, -0.1059210524, -0.0613664277, 0.0655183345, -0.2374077588, -0.3261114955, -0.3292230666, -0.3083835542, -0.2198053598, -0.2370044440, 0.2311874330, -0.3843527138, 0.1318811476, -0.2104303539, -0.4875634909, -0.1083001196, -0.5000500083, -0.4601809978, 0.3892841339, 0.0278753173, 0.1029879376, -0.2604740262, 0.1847893447, -0.0033072245, -0.0764088109, 0.1147208735, 0.1500707567, -0.0846457705, 0.0725483075, -0.1599923223, -0.0906048715, 0.0193676334, 0.0904032513, 0.0828424543, -0.1866217703, 0.1724754870, 0.1847835779, 0.0244719852, -0.1103357375, 0.1260204464, 0.0599600449, 0.1047361344, 0.0343302637, 0.0475040898, -0.1440040618, -0.3660489023, -0.0187254287, -0.3011159301, 0.0250996146, 0.0177726671, 0.0559513755, -0.4584656954, -0.1193983406, -0.0326395333, -0.2073994875, -0.2195517719, -0.3307425678, -0.3405556381, 0.0524740815, -0.2461205572, 0.1805499941, -0.0847249776, -0.2118513733, -0.0381442644, -0.3810768723, -0.2643940747, 0.1706552804, -0.4321445525, 0.1884451658, -0.0002920522, -0.4521738291, -0.2238082290, 0.2167233080, -0.1092214957, -0.1640695632, -0.2637757957, -0.2459110767, -0.2426668257, -0.3523834646, 0.0553704835, 0.0924173966, 0.3046242595, -0.1223142669, 0.1763453186, -0.1257117093, 0.0760664642, -0.2625519335, 0.2886964679, 0.1449588239, -0.1183215380, -0.2478508204, 0.0833662674, -0.1988564879, -0.3876264393, -0.1790335029, 0.1570618749, 0.0198791847, 0.0812210739, -0.3229911625, -0.2597920001, 0.2537141442, -0.0154673951, -0.2379480749, -0.0719615445, 0.2292235643, -0.0201763250, -0.0566600710, 0.1247760430, 0.2253791392, -0.0411578082, -0.4394352734, -0.1128221080, -0.0385586619, -0.1795526892, -0.0925360247, 0.2772421241, 0.4235374331, -0.1396338046, -0.4250393510, 0.2695251107, 0.3134362102, 0.1702925414, -0.0891652778, -0.2189667672, -0.2852620482, -0.1398073286, -0.2201714814, -0.0584900640, -0.0214464478, -0.2223809212, 0.2810274661, -0.2199278474, -0.3687867224, 0.0315356739, -0.2122802734, -0.2394271046, -0.1473223865, -0.2812457383, 0.4119023681, 0.0730061904, 0.1431970447, 0.0112751182, 0.1498355865, 0.1996900737, -0.1797736585, -0.3176557720, 0.3515656590, -0.0681726411, 0.0565413609, 0.1546329856, -0.0573361963, -0.0647916496, 0.3487272263, 0.1401924044, 0.0626786873, -0.3828550577, -0.1017903686, -0.1850880235, -0.0239879470, 0.1212202162, 0.1778454781, -0.0710038543, 0.2713211477, 0.4795778990, -0.1089460775, -0.0435227416, -0.4337368011, -0.2731101215, -0.2163037360, -0.0785836875, -0.0327347666, -0.2037242651, -0.0778410286, 0.0059050187, 0.0418659449, -0.0880068168, -0.0186510980, -0.0679053292, 0.0963224322, -0.2569385469, -0.0483670980, 0.0833921880, -0.1504935324, -0.0721301213, -0.2158358842, -0.1133060753, -0.1438116729, 0.2631116509, 0.0299636405, 0.1838356555, 0.2170752585, -0.0775779635, 0.0378623977, -0.1884506941, 0.1725396514, 0.1325242072, -0.1248658746, -0.1891437024, 0.1031844392, -0.1229689196, -0.0588433444, -0.1681953669, 0.2541158199, 0.3090290427, 0.2203554213, -0.0835173875, 0.0148332994, -0.1487959921, 0.0607770942, -0.5740454197, 0.0525754094, -0.0836609006, -0.2985008359, -0.1335130036, -0.1763106883, -0.1524582356, -0.0499957763, -0.0242837910, -0.2306492478, 0.2628579736, -0.3574811220, -0.0567628257, 0.0352413766, -0.0972234979, -0.0470559485, -0.2570976913, -0.3487459421, -0.3539767563, 0.4051172435, -0.1836509705, 0.1077257916, -0.2316603661, 0.2323271632, 0.0719165727, -0.1272222847, 0.2099500895, 0.1463545114, -0.0668157563, 0.0901889876, -0.1110385805, -0.0079241386, -0.0591013655, 0.2449263483, -0.1294288188, 0.0468413010, -0.1223517507, -0.2106072158, 0.1814692914, 0.0068739112, -0.0937733203, -0.0291541647, 0.3574231267, 0.0905471593, 0.3927509189, 0.1981414407, 0.0226018112, -0.1131092981, 0.6523636580, 0.2397415489, -0.1330172420, 0.1386028677, -0.1916627735, -0.1084654406, 0.1082866266, -0.0831690133, 0.1756676584, 0.2725791633, -0.3024944067, 0.0068137930, -0.4383361638, 0.2926401794, -0.2801284492, -0.1537551731, 0.0693032220, -0.0131637035, 0.0216300935, 0.0849289075, -0.0624950603, -0.1810590327, 0.2442948222, -0.4763531089, 0.0134594422, 0.2433274239, -0.1404870749, 0.0005636207, 0.1706638187, -0.3158238232, 0.3090538383, 0.1009971797, -0.0157118943, -0.3655892909, 0.1798422188, 0.1784065366, -0.4249228239, 0.2103271931, 0.4654782414, 0.2976896763, -0.0047092438, -0.0743316412, -0.1569763571, -0.0330607966, 0.1171419546, -0.1846500784, 0.1554118395, -0.0518865846, -0.0964650586, -0.0876797363, -0.0681097507, 0.0579176433, -0.0438867435, 0.0438941754, -0.0205040369, 0.0761207193, -0.0051295985, -0.0111330068, 0.0823230892, -0.0185441859, 0.0728472620, 0.0705840588, -0.0203082059, -0.0011285755, 0.0367974266, 0.0338572711, 0.0314122997, -0.0235307720, -0.0385557301, 0.0219511557, -0.0071664322, 0.0272246338, 0.0247921739, 0.0105885463, -0.0095279897, 0.1013403013, -0.0355537049, 0.1351323277, 0.0537361465, 0.0477277488, 0.0103438869, 0.0272281393, 0.0202635918, 0.0331921056, -0.0047578826, 0.0598663427, -0.0095553324, -0.4521543980, -0.4565842748, 0.0605352074, -0.1018078253, 0.0021944433, 0.1565982699, -0.0949410126, -0.0626688972, -0.1640197635, 0.2553249598, -0.0052826568, 0.0674806982, -0.4329476058, 0.1189673021, 0.2421848029, -0.1321693957, 0.0981813520, -0.1634286344, -0.0353536271, 0.2161395401, 0.1508290768, 0.2337056547, -0.0118041933, 0.1273405105, 0.1897475570, 0.1325847507, 0.1141107306, 0.1412834525, 0.2298881412, 0.0190448686, 0.1487897784, 0.0703714117, 0.3365107775, -0.0318156965, 0.1467828006, 0.0026148469, -0.1116057709, -0.0734333768, -0.1622964144, -0.0326192081, 0.0098145092, 0.0325548090, -0.1210179701, -0.0180337839, -0.0130593292, 0.0345087200, -0.8645854592, 0.0053556156, 0.1184467673, -0.0338809304, 0.1536856592, 0.0338442996, -0.0834559053, 0.0643075407, -0.0411682017, -0.1814897507, -0.0259437617, 0.0600576624, -0.1449761838, 0.0103417225, -0.0632912815, -0.0033566046, -0.0230920576, -0.3060824275, 0.0239917617, -0.0933877751, 0.1599132270, -0.3316806853, -0.1402650476, -0.0991635770, 0.1591690481, 0.0263613351, 0.0869259611, -0.0214244034, 0.1701903194, 0.1425951421, 0.0132953441, -0.2881429195, 0.1689229608, 0.0250897668, 0.0666544959, -0.4332202673, 0.0061477232, 0.1372059882, 0.1830655485, -0.3178803921, -0.3551279604, 0.0405840836, 0.1159399152, 0.0231053308, -0.0740193129, -0.2074736208, -0.0685694516, 0.2335972637, -0.2710777819, 0.2201873064, -0.2921492755, 0.1463653296, -0.1678573191, 0.0348320715, -0.0346963406, -0.2145254463, 0.1641705334, -0.2866677344, -0.0122256009, -0.2841457725, 0.0256022178, -0.3283693492, -0.0031684509, 0.0436560139, -0.1305892915, -0.1068452224, -0.1536016315, -0.4067679048, -0.0779124498, -0.0255619548, -0.1438671499, -0.0707887262, 0.0750500485, -0.0337947011, -0.2082409561, -0.0073465565, 0.0436825268, -0.1841076612, 0.1730328351, -0.0151811484, 0.0524184667, 0.1462690532, -0.2801616788, -0.1001854613, -0.2297528833, -0.2393814921, 0.0872939453, -0.0296521913, 0.2247940451, 0.0972886756, -0.5620856285, 0.0298759490, -0.0301533733, -0.1523495615, -0.1649104804, -0.0463012196, -0.2137188017, -0.1841017455, -0.1200504005, -0.1777603328, 0.1466839015, -0.0057901847, -0.0497782752, 0.0052889157, 0.0254996400, -0.3223558068, -0.2784354389, -0.1502207816, -0.0847415552, -0.2132140994, -0.1770551652, -0.4058264196, 0.0638354495, -0.1136884540, 0.0069112759, 0.0975428745, -0.0124972044, 0.0712036639, -0.0366149247, 0.0232049339, -0.0677906275, 0.0563814789, -0.0897503495, 0.0229034740, -0.0235136300, -0.0013674356, 0.1308502257, 0.0805772394, 0.1576182097, -0.0755298585, 0.1597611606, 0.0438102297, -0.0197735187, 0.0526191778, 0.0662686154, 0.0810185596, -0.0050323303, -0.2982673943, -0.0901763961, 0.0598219000, -0.1563441604, -0.1750582308, -0.2448508441, 0.1635251194, -0.1715348065, 0.0594836213, -0.0170614682, -0.3037655950, -0.0975549221, -0.3605827987, 0.1965251565, -0.2172917575, 0.0647505596, -0.1284072250, -0.3147325218, -0.2462002635, 0.1626296490, -0.0834193975, 0.0615566596, -0.1925741434, 0.0829022080, -0.3432522714, -0.1768188477, 0.1238542572, 0.0541898385, -0.2458957434, -0.2524544895, -0.0754130855, -0.0311511960, -0.0867252722, -0.2219298333, -0.0179426186, 0.0865446031, -0.2891699374, -0.0280975718, -0.2016167790, -0.0050298432, 0.2407620698, -0.1966451555, 0.0663704127, -0.0234279372, 0.1008700505, -0.1538154185, 0.1830191165, 0.3283718824, 0.1576845646, 0.2682997882, 0.1886096299, -0.1114658341, 0.1154102981, 0.0082736854, 0.0989285856, 0.2770579159, 0.1409314275, -0.1782462895, -0.2756534517, 0.0671079755, -0.2914614975, 0.1788985878, -0.1215011030, 0.2507519424, -0.3063500226, -0.1759798974, -0.1710930169, -0.0705602318, -0.0259876419, -0.2281818092, -0.0543038882, -0.1141931862, 0.1163020432, -0.1217556447, -0.2159851789, 0.1071265116, -0.1241904944, -0.2866388559, -0.0847969502, -0.0129859876, -0.5256134272, -0.2590059340, -0.1793295294, -0.0701375455, -0.2306235284, -0.0143986810, 0.0616174713, -0.1302289218, 0.0031746877, 0.1807439327, 0.0616398193, 