//Numpy array shape [80, 64]
//Min -0.837998986244
//Max 0.582198917866
//Number of zeros 0

#ifndef W15_H_
#define W15_H_

#ifndef __SYNTHESIS__
model_default_t w15[5120];
#else
model_default_t w15[5120] = {-0.2198685855, -0.4450537264, -0.0507176071, 0.2207538784, -0.1171148047, 0.0062704613, -0.1482400894, 0.2925058901, -0.1241393983, -0.1715199947, -0.1019911617, 0.0318760909, 0.0332033597, 0.1438280344, 0.0709394366, 0.2044755220, -0.2920456529, -0.0047794278, 0.0869248882, 0.0717275366, -0.2015673965, -0.2883325815, 0.1538921446, -0.2765446603, 0.2559784055, -0.2603056729, -0.1425095797, 0.1202938333, -0.1077602878, -0.1655319184, -0.4265032113, -0.0095902439, 0.0538063869, -0.2962587476, -0.0593388341, -0.1654541194, 0.0914388821, -0.3537396491, -0.2076761723, -0.0195392910, -0.0401987582, 0.0564361550, -0.0748048350, -0.1477958262, -0.0494859852, -0.1161546260, 0.0498910882, 0.2377880514, -0.0875571296, -0.1483260989, 0.1675401032, -0.0203647502, 0.1851837933, -0.1490065753, 0.0178717170, 0.0860476717, -0.0750450417, 0.1729789823, -0.1307889372, -0.3153615892, 0.0081324950, 0.0645989403, -0.3176934421, 0.0361087993, 0.0849262998, -0.2248565257, -0.0936902910, -0.0168690588, -0.1295066029, -0.3148736358, -0.1193965971, 0.0885213614, -0.0668167844, -0.0619090460, 0.0907387957, -0.1956149638, 0.1476466954, 0.3094897270, 0.1907117963, -0.2817561030, 0.2214584202, 0.2677193880, -0.1420520544, -0.1233283207, -0.1934505701, -0.1473755836, 0.0522753596, -0.2021726817, 0.0040109861, 0.0448699333, -0.0751754716, -0.1412948519, -0.0432689451, -0.4509621561, -0.0241120122, -0.2382291406, 0.0248701293, -0.1620416641, 0.2457282394, -0.0252708234, 0.0010720419, 0.0605731010, -0.1523887813, -0.1244960055, -0.2093193531, 0.0108435694, -0.1542585194, -0.3414110839, 0.0550164990, -0.1065364629, 0.0230894256, 0.1133417860, -0.1152716130, -0.1442930102, -0.2509951890, -0.0029132531, 0.2503316402, -0.5552126169, 0.1472636759, 0.1115820706, -0.0567366853, -0.0277400911, 0.0050384058, -0.3535593152, 0.0254143998, 0.0682236031, -0.1793467551, -0.0197772663, -0.0469685495, 0.0340597034, 0.0469087325, -0.2748687267, -0.0985325575, 0.0288098026, 0.0962108672, -0.4255458713, -0.1153342426, -0.1824075431, -0.2964557111, 0.0705639869, -0.4003549516, -0.1780123860, -0.0706069618, 0.1046046615, -0.0500103682, -0.2359552085, 0.1232574508, 0.3714253902, 0.3036871850, 0.2587302029, -0.3684215844, 0.0830467641, -0.1060413495, 0.2080199718, 0.2821054459, 0.3470501304, 0.0922505260, 0.2327358127, 0.0960941315, 0.3656249344, -0.1523459554, 0.1256017536, -0.1706860811, -0.0357972272, -0.0874271840, 0.2841703296, 0.0002234299, 0.1929215342, 0.3226483464, 0.3166620731, 0.0418619476, -0.1682962924, 0.3476663828, -0.0107364552, -0.2649540007, -0.2615956068, -0.2007835805, -0.3514081538, 0.1072259694, -0.0926232040, -0.4016691446, 0.1406354308, 0.1583961248, 0.0734521821, -0.1839853078, -0.2557493448, -0.1985281259, 0.2648628950, 0.2763243318, -0.2018515915, 0.3501172960, -0.0061721099, -0.2041814476, -0.0264081117, 0.1553734690, 0.1477348953, -0.3534454703, 0.0856785625, -0.2987404764, 0.1356657892, -0.2471703291, 0.1978969425, 0.0234764908, -0.3070085347, 0.0228490382, 0.0019481305, 0.0000577846, -0.1001395285, -0.0679395795, -0.0511365458, 0.0406394601, -0.0609476902, 0.0010250338, -0.4144547582, 0.1796155572, -0.3701223433, 0.1137565225, 0.0083079943, 0.2845621109, -0.0116391890, -0.1933548003, -0.3024300337, -0.3142625093, -0.2019135952, -0.2734285295, -0.1547952592, 0.1386945695, -0.0017555011, 0.0584593713, -0.2245084196, -0.1677410156, -0.2685766816, -0.0643927157, -0.1602896303, 0.0357700400, 0.0239136331, -0.0921658874, -0.0549246557, 0.2267994434, 0.2085798085, 0.1174334958, 0.1574793309, 0.0794385895, 0.0122481026, 0.0527418293, -0.0416799039, 0.0302908774, 0.1990545243, -0.0082757073, 0.3053340316, 0.0650483221, -0.4442529976, -0.2030000538, 0.1814360023, -0.3649976254, -0.0015231624, -0.1152908057, 0.1558505744, 0.2189377546, -0.2151112407, 0.2532694936, 0.3256814778, 0.0565899163, -0.1388833672, 0.0922795236, -0.0929076672, -0.2238821089, -0.2201602161, -0.1962634176, -0.0752751306, -0.4402388930, -0.1185734048, -0.2709051371, -0.2789396942, -0.0526654944, 0.0847123489, 0.1166161075, -0.0188883059, -0.0228836704, 0.2131731212, -0.1620804369, 0.1789387763, 0.0135825509, 0.1259071529, 0.0282997023, -0.4654452205, 0.2872234583, 0.1183510646, -0.2909293473, -0.0697367266, -0.2034448534, -0.1536042839, -0.3360536397, 0.1568204910, -0.0500363000, -0.0993521139, -0.0945618525, 0.0916710198, 0.2071831673, 0.1169111729, -0.0148799093, -0.0256314613, -0.0260504745, 0.1034613401, -0.2464759499, -0.1197918802, 0.0022146739, -0.1951452643, 0.0829213560, 0.1083912253, -0.0166360289, -0.1236219928, -0.2440707386, -0.1331795752, 0.0391931757, 0.1857318282, 0.0309902467, 0.0249674693, 0.4108517170, -0.0187576637, -0.1075774208, -0.3559179604, -0.1092564389, -0.2982285321, -0.0529068299, -0.1201924756, -0.2901682556, 0.3046464920, -0.1144873798, -0.0679713562, 0.1738006920, 0.2109391838, -0.0135329347, -0.1166059077, -0.1691906303, 0.2160311341, 0.0003082622, 0.0588820279, -0.0953570306, -0.2020328343, -0.1783449054, 0.0609145500, 0.0868952200, -0.0032271552, 0.2841323018, -0.1238850057, -0.0073827459, -0.1619948596, -0.0836643651, -0.7647680640, -0.0707743540, 0.0333564095, -0.0728421062, -0.1990786195, 0.0215988010, -0.3448321223, 0.0371886864, -0.1018768996, -0.0860352740, -0.2425277829, -0.1549477130, -0.1256454885, 0.0308593120, -0.1528946012, -0.0787379891, -0.1796483546, 0.2302706689, 0.0794970915, 0.1303204298, -0.0146290045, -0.2754015326, 0.2453651279, 0.1203220189, -0.2728541493, -0.2976543307, 0.0982505083, -0.0916474089, -0.2671676278, 0.0933341309, -0.0247907210, -0.2143516243, 0.2107553184, 0.0602866486, -0.0940423086, -0.0434167609, 0.1819559187, 0.0608420521, -0.2157754749, 0.2776987255, -0.0461303852, 0.0783528909, -0.4870911837, 0.4173825085, 0.1339212060, -0.1071121320, 0.1451341361, -0.1401210725, 0.1023685113, 0.0786854550, 0.0355831757, -0.2518868148, -0.1332160085, 0.1463450342, -0.2692312598, -0.1014772356, 0.0303753112, 0.0107077891, -0.1228876486, 0.0846110955, 0.2698248625, -0.2691380978, 0.1066073552, 0.1875564754, -0.0495305434, 0.1967762709, -0.0001236282, -0.5206263661, -0.0005197492, -0.0385405943, 0.1344916523, -0.0367487557, 0.1430486292, -0.0601945817, -0.1212733015, -0.1203406751, 0.0155152176, 0.0355015136, 0.0441652648, 0.0832462534, -0.1099139303, -0.1152452677, 0.1206382364, 0.0522832908, -0.2188175619, -0.1158619896, 0.2370977998, -0.3745911419, 0.0843415484, 0.1012437046, -0.0246419180, -0.1087061316, 0.0420584828, -0.3263226748, -0.2153519839, 0.0062363041, 0.1080511510, -0.1043886319, 0.1456551999, -0.1218051687, -0.4663507938, -0.0553011708, 0.0380827375, -0.4270036817, -0.0158860814, -0.2179703116, 0.0941924155, -0.1152498946, -0.1569026709, 0.1584541798, 0.2015017569, 0.1301367730, -0.0509884171, -0.0424504131, -0.1402252913, -0.1315793693, 0.0947356671, -0.2394916862, -0.2833281755, 0.0891708881, -0.1236240193, 0.1789337099, -0.3593074679, 0.0555662401, -0.1502709389, -0.2199048698, 0.1124854162, 0.0150724445, -0.4964126050, -0.2049844861, -0.1833795011, 0.1620423347, -0.0353862345, -0.0413586684, -0.4002329409, 0.2680321634, -0.3166925907, -0.0624245629, -0.3847041428, -0.3606855571, -0.2353334427, -0.2313429713, 0.0152366152, 0.0495792851, -0.1031944007, 0.1005630270, 0.0281736199, 0.0752289295, 0.1071109697, 0.0731865168, 0.1990403235, 0.0338761322, -0.4206369221, -0.1474911571, 0.1795869023, 0.0924029946, -0.0386091098, 0.2295437157, -0.5500434041, 0.0714673400, 0.0908154175, -0.1711099297, -0.0088892290, -0.1678665280, 0.0556689166, -0.1641979218, 0.0824993551, -0.0880219787, -0.0715961456, 0.2084138989, 0.0792878270, -0.0388882570, -0.1997155100, 0.0635758340, 0.2355827838, 0.0170842577, 0.0280633494, 0.1188239008, -0.0779589936, 0.2183953077, 0.1505788863, -0.2014535218, 0.0000599045, -0.1796660125, 0.0010633026, 0.0057066297, 0.1482882053, 0.1416608542, -0.2472676039, 0.0073818415, 0.1354032159, 0.0329656005, -0.2818540335, -0.1506975889, -0.0863223523, 0.2354096919, -0.0568145588, 0.1195127890, -0.0658963770, 0.0882316604, -0.1988039911, 0.2708486617, 0.1194068715, -0.0465546139, 0.0973342881, -0.0862722397, -0.0451234877, -0.0052074138, 0.0617591329, 0.0343903378, 0.0482936166, 0.0730853528, 0.0886002332, -0.0288107600, 0.0988608301, 0.1639720649, -0.0469138771, -0.0619049817, -0.0637521744, 0.1397337168, 0.1125735939, 0.1132468209, 0.0643345565, 0.1915285140, 0.0230980013, -0.1078777164, 0.0815878659, -0.0402686372, -0.3978306353, -0.1172452345, -0.2132657468, -0.0343742631, 0.2280361801, 0.1298283339, 0.0734788254, -0.1011579707, -0.2693450451, -0.1031082496, 0.0975498408, -0.2450896800, 0.0756829306, -0.2754105628, 0.1885176450, -0.3378233016, -0.0214821007, 0.2235449404, 0.1096784621, -0.1869499385, 0.1183889955, -0.0520808101, -0.1774515063, 0.1652309000, -0.0520883203, 0.0493588112, 0.3681654036, -0.1904195845, -0.2586698234, -0.3086932600, 0.0186487883, 0.1366958618, 0.0788859054, 0.0975239500, -0.2672226131, -0.2294451892, -0.0512092412, 0.1228018850, 0.1288535744, -0.2536638975, 0.3531339169, 0.0600044318, 0.0101584131, -0.0600685626, 0.4789245725, -0.1108489037, 0.0341254435, -0.1109972820, -0.3056368232, 0.0567404255, -0.1970586926, -0.1192419454, 0.0252363961, 0.0817890093, -0.1117260307, -0.1033316404, -0.0287682265, -0.0977523252, 0.1028243750, 0.0606813990, -0.2648482621, -0.1285528094, 0.0669659227, -0.2267466784, -0.0518180244, -0.1059159860, 0.2308439016, -0.2388419807, -0.2742212713, -0.3200542629, -0.0903413892, -0.2353849262, -0.1634822786, 0.2271397561, 0.0428861603, 0.2115046382, 0.0045386208, 0.2334586382, -0.1180435345, 0.3755968809, 0.0006905735, -0.0545439348, 0.1448630542, 0.0585388318, -0.2397478968, -0.0468305238, -0.0657985434, 0.1393449605, -0.2146416605, 0.2042187899, 0.0737772360, -0.3243612051, -0.2250773609, 0.0517693534, -0.0707169399, -0.0776389465, 0.0906224847, 0.0709421858, -0.1140052378, 0.1438412815, 0.0482835434, -0.0797770098, -0.0678741783, -0.0326239392, -0.0484466851, 0.0244913753, -0.4601371288, -0.0974916741, 0.0784304142, 0.0437987894, 0.0863073617, 0.1376171112, 0.1742472202, -0.0052362583, -0.0373692848, 0.0512612313, -0.2646987140, -0.1445200294, 0.2531969249, 0.0340942368, 0.2383158952, 0.0407097600, -0.1920039505, -0.1978271753, 0.1868621856, -0.0197110903, -0.0855573043, 0.1597266793, -0.4445575178, -0.5627959967, 0.1330128610, -0.2652000189, -0.0598185398, 0.0121861072, -0.0035473080, -0.1810286194, -0.3241885602, 0.0179911591, 0.3798211515, 0.3439675570, -0.0017972563, 0.1655012071, -0.1898711920, 0.3365402818, 0.2435641140, -0.1510510892, -0.0946347490, 0.0709991828, 0.0133034680, 0.1580524147, -0.2786071002, -0.0056221401, -0.4078953862, -0.0555958673, -0.1691310704, -0.0606997684, -0.3510875404, -0.2362198681, 0.1160064042, 0.1277954429, -0.0584087186, -0.1403779238, -0.2731617689, 0.2496233732, -0.0176374521, -0.2417489737, -0.3327554464, 0.0588517301, 0.1120908037, 0.1621837467, -0.4615933299, 0.1653359383, 0.3229456842, 0.1316574514, -0.1404288262, 0.3636564314, -0.0908124894, -0.1602786034, -0.0247156322, -0.1782288402, -0.3740354478, -0.0925801694, 0.0727797300, -0.0501062572, 0.2158614844, 0.2709584236, 0.0366157182, -0.1380633861, 0.1207367852, -0.5544181466, -0.4029773474, -0.0123547232, -0.0024573281, -0.0859821960, 0.2828972340, -0.1690946668, -0.1111058593, -0.3020235598, -0.1729443073, -0.1424629241, -0.0049025775, 0.2555951476, 0.1010319740, 0.0296800584, 0.0671281517, 0.2475534678, -0.2375425696, 0.1674982756, 0.0968593210, -0.0667759925, -0.3746469617, 0.0025042915, 0.0271538496, 0.2024567127, -0.1921429485, 0.0012997591, 0.0121464012, -0.2706879973, 0.0562136807, -0.3331838250, -0.1498519778, -0.0274857897, -0.3604150712, 0.0132156918, -0.3054748178, 0.1905342489, 0.0707087293, 0.0411617123, -0.3790469766, -0.2003307492, -0.1938560009, 0.0491244979, -0.0384349227, -0.1098856628, -0.2867395878, -0.0202877931, 0.0152734751, 0.0990924016, 0.1545289159, 0.0419897512, 0.1794563383, -0.1504548937, 0.2793558538, -0.0191995241, -0.3834955692, 0.0375535414, 0.1353130639, 0.1449131370, -0.1536881477, 0.0874788389, -0.0680351779, -0.1991475672, -0.1126096919, -0.0342973173, -0.0160667393, 0.0828456432, -0.4365859926, -0.0367763229, -0.1048772857, -0.2376124412, 0.1455020159, 0.0249694139, 0.0706487000, -0.0069913846, 0.1063801944, -0.0067783752, -0.1974066198, -0.1168271303, 0.0269586183, -0.1811646223, -0.1396493763, 0.0591898672, -0.0364444368, -0.0606746487, 0.1487683505, -0.4304226935, 0.0099540371, -0.0653328151, -0.5333896875, 0.1173048392, -0.1083679944, -0.0240087956, 0.0117917741, -0.1266943663, -0.2746851444, -0.3575667739, -0.5922981501, 0.0387161896, -0.1582783163, 0.0733059645, -0.1743852347, 0.0849080458, -0.4311515391, 0.0552295260, -0.2352613807, -0.0622314960, 0.1082897559, 0.1397958249, -0.1671961844, -0.0750431269, -0.1983520985, 0.2504226863, 0.0601372160, 0.1211654618, -0.0401976109, -0.0570525862, -0.0552240573, 0.2766210139, -0.1939090788, -0.1770165116, 0.1257499158, 0.1121829823, -0.1455436647, 0.1175186113, -0.1955900937, 0.1685888767, -0.0249162074, -0.2057159543, 0.0191982947, -0.2168747932, -0.0029015699, 0.0429932140, -0.0712500960, -0.1481600404, -0.2721042335, -0.0161096025, -0.3003907800, 0.1082608625, -0.0043405225, -0.1769316196, -0.1243178621, -0.3179164231, 0.0344223902, -0.0754901543, -0.2988612354, -0.3070448339, -0.3009442389, -0.1275711954, -0.1540570259, -0.1218771562, -0.0139432829, -0.0935692489, 0.0233320445, -0.4498923123, 0.0043231673, 0.0165707134, -0.2246338129, -0.1760634184, 0.3781388104, -0.0579651296, -0.3286150694, -0.1915087998, -0.0705438182, -0.0367192887, 0.3203639984, -0.0805979669, -0.3190007508, -0.0720185935, 0.1547465622, 0.1192950234, -0.3102110922, -0.0683754459, 0.0737608373, -0.0228204336, -0.1267538816, 0.0455572456, -0.2240549922, -0.2361015081, -0.3661041558, -0.1287285239, -0.1009902507, -0.0769765079, 0.0469557643, -0.0013737299, -0.4151536524, -0.2014012486, -0.2475533336, -0.1027903557, -0.3068715036, -0.3861214817, -0.0677526668, -0.1760696620, -0.1041731238, -0.0221703034, -0.2109442353, -0.1789970249, 0.0079533337, 0.2147223055, -0.0051585934, 0.2271386087, -0.0877008736, 0.4269300997, -0.1909568608, -0.1812884212, 0.0472999550, 0.0449146815, 0.0228029117, -0.2296219617, 0.0075625554, -0.1061862260, -0.0188043676, 0.2481447160, 0.0097529581, 0.1484354436, -0.0146829057, 0.2210173458, -0.1335972995, -0.1664230078, 0.1255121529, 0.2932871580, 0.1453527957, -0.0458815992, -0.1959864646, 0.1716069579, 0.0824654996, 0.0178336613, -0.1316449046, -0.2223722637, -0.5496872663, 0.1571969688, 0.2147259414, -0.0965299457, 0.1955242008, -0.2121609300, 0.1955375671, 0.0275023635, 0.0303373784, -0.0163564868, 0.2256195545, -0.0241766460, 0.0584157743, -0.0590588450, -0.1487983167, 0.0666028857, -0.0912234858, -0.3759929538, -0.0392386839, -0.0454656258, -0.0051370696, 0.0174459014, -0.0296517443, -0.2746753097, 0.0240110308, 0.2714057565, -0.2500971854, -0.2029827833, 0.1127447486, -0.1028288081, -0.3066893518, -0.0560153425, 0.2240580022, -0.2052949071, -0.1679233909, -0.1586575657, 0.0773254558, -0.0160818361, -0.3227518499, -0.0247905739, -0.1155209765, 0.1198373064, -0.0042971708, -0.0151308458, -0.2121987045, -0.0444538966, 0.3004761040, -0.0443490781, -0.1810547262, 0.0195783004, -0.2989259660, 0.1133141294, -0.2454916537, -0.0949635878, -0.3806652129, 0.2256612033, 0.0881029591, -0.0945895761, -0.5911141038, -0.2168388665, -0.1410043687, 0.1513691097, 0.0565577224, 0.0214403830, -0.1428761035, 0.1321157962, -0.2382775247, -0.0609998144, -0.2676156759, -0.1354849041, 0.0085790474, 0.0370035358, -0.3302906156, 0.0700624436, 0.1433118731, 0.0493149757, -0.0624360889, -0.1691132933, 0.1634711921, 0.1908585727, -0.0832308382, -0.1139576584, -0.1239429414, -0.3488318622, 0.2009023726, 0.0361434706, 0.3609071970, -0.0628121719, -0.2103212625, 0.0870105103, 0.1057205573, -0.4405638278, -0.1097928882, -0.0261409767, -0.3193266690, 0.0638317615, 0.1627463996, 0.0587675124, 0.3529346883, 0.4511630833, -0.1129602715, 0.2293080539, -0.2055437118, -0.0215023477, 0.1642363369, -0.0856699720, 0.1497260481, -0.0858002305, -0.1051126868, -0.0859454200, -0.0259450488, 0.2141244411, 0.1962381601, -0.0564670600, -0.0646123588, 0.3352653682, -0.1986538321, 0.1973428428, 0.2355582416, 0.0869410336, 0.2821025550, 0.2760908306, -0.0842682198, -0.2022683173, 0.1006123498, 0.0567535646, 0.3313386738, -0.1607452035, -0.2214118242, 0.2320166081, 0.0696796924, 0.1606711298, -0.0282340404, 0.2333612591, 0.2338025421, 0.1361722052, 0.1699015796, 0.2899767458, 0.0634799078, 0.1745503843, -0.2548457384, 0.4978987873, -0.0246423073, -0.0905009955, 0.1187111661, 0.1324887872, -0.0701323599, 0.1107645929, 0.1433304846, -0.3416009843, 0.1110039055, 0.0415036492, 0.1743830889, 0.2042411268, -0.0078187492, 0.1775184721, 0.1483137906, 0.0438836887, -0.1625188440, 0.0359396301, -0.1661154777, 0.1373131275, 0.2447738498, 0.1019571275, -0.3436104953, 0.1486625522, -0.0237335861, -0.1109265760, -0.0207658391, -0.0482885353, -0.2383446246, 0.0015632981, -0.0146915792, -0.3214103878, -0.0556315519, 0.1495217979, 0.0139919352, -0.0000505936, -0.1593407989, -0.1437689215, -0.1130306274, -0.0641736239, -0.1065219343, 0.1025154665, 0.0926162601, -0.0088135656, 0.1688514501, 0.1122673303, -0.0749106631, -0.2566595972, 0.0278757270, -0.0726236179, 0.1941804886, -0.0244807228, -0.0055038235, 0.2066024095, 0.0853177160, 0.0110126045, 0.0020302238, 0.0810300708, 0.0440176427, -0.0332725123, -0.1361068189, -0.1668530405, -0.1652214378, 0.0253599267, -0.0999674127, 0.0614095554, -0.2279990166, -0.2394000739, 0.0081560006, -0.0063627474, 0.0316461772, -0.0112831714, 0.0543679930, -0.2517195642, -0.0439034998, 0.0320100300, -0.1662457287, 0.3149390519, -0.0832400098, -0.3047525585, 0.1656710804, -0.1774707437, 0.0858844742, 0.1423824430, -0.0341962390, -0.0680337772, 0.0235262625, 0.1278479993, 0.0567396693, -0.4441036284, -0.0928535610, 0.1103878841, 0.2613182962, 0.0437234417, 0.1606305689, -0.2688509822, -0.2004692107, -0.1948955059, -0.1639133394, 0.1079776064, 0.2145879418, -0.2668165267, 0.2344570756, -0.2418701202, 0.1473710388, -0.0558669306, -0.0831689909, 0.1067159697, -0.5464555621, 0.2158413529, 0.0791506842, 0.1610170603, 0.2481916547, 0.1179112494, -0.3346084952, -0.0016410574, 0.2986870110, -0.0656439140, 0.0952953622, -0.0735119432, -0.1344045699, -0.2566226423, 0.1462708563, 0.1045445800, -0.2471423596, -0.1328331530, -0.0749320760, 0.1238021031, -0.3333706260, -0.1112870425, -0.0513976403, -0.0797458738, -0.3103032112, 0.2503156066, -0.1531707197, -0.0874738097, 0.0045235613, -0.0090502109, 0.0564437360, -0.2151411474, -0.1433636695, 0.1616617739, 0.0937438160, -0.1933611780, -0.0989599228, 0.0253789145, -0.0169956461, -0.1935984492, 0.0635776669, -0.0461707413, 0.1143216118, -0.0484811068, -0.3107269406, 0.1762457937, 0.0537136160, 0.1134148315, -0.0105191646, 0.0455886126, -0.2279017568, -0.1111643910, 0.2474261671, -0.1108614132, -0.1106509939, -0.1158305258, -0.2425542325, 0.0918356776, -0.4023947418, 0.0387496017, -0.0272790585, -0.0481340326, 0.0125365276, -0.0919911638, -0.1012477875, -0.1964550912, -0.1373377889, 0.0058135875, -0.2623363435, 0.2204233408, -0.0791791528, -0.0716976896, -0.4060681760, -0.1551668644, -0.1197455302, 0.0878464729, -0.2655066252, -0.2035458237, -0.0258350633, -0.1989004612, 0.0815392733, 0.0689374357, 0.0439533293, 0.2107796967, -0.0134950941, 0.1216802746, -0.1381653547, 0.2166551799, 0.0496118441, 0.0388809219, 0.0570796579, 0.1895350069, 0.1310027242, -0.1110484526, -0.1319705248, -0.2741565704, -0.0146970712, -0.3354098499, -0.2884891331, 0.0118103614, -0.1379841119, 0.0572988987, 0.1328506768, -0.0915319547, -0.1778576523, 0.1185371354, 0.0723711625, -0.0254554637, 0.0772686899, 0.1036061049, 0.0280908737, 0.1435581148, 0.1706452668, -0.1259761453, -0.3449524343, 0.0400603488, 0.1574712247, -0.1350236982, -0.2166673094, -0.1008673981, -0.3095687330, -0.0393909626, -0.2630082965, -0.0921159983, -0.2248886377, -0.1496302336, 0.0453650951, -0.3784539700, -0.5312839150, -0.1414894015, -0.1650401205, -0.1482048929, -0.3024805486, -0.1361820847, 0.0119577516, 0.3906302154, -0.2783435583, -0.2106087208, -0.1877843738, -0.2036533654, -0.0307639632, -0.1437322646, -0.1515589803, -0.2540626526, -0.3228507638, 0.2311696410, -0.0692935213, 0.1497175395, -0.0257071480, -0.1105555817, 0.1547925472, 0.0379904360, 0.0595667735, -0.1603001654, 0.1501963288, 0.0263702646, 0.0538985766, 0.1427132487, -0.4165664911, -0.3216714263, 0.0843454152, -0.4257377982, -0.3202608824, -0.2501704395, 0.0313324817, -0.0713972375, -0.0416851752, -0.1006990820, -0.0011792245, 0.0864795968, 0.0153520294, -0.1341699213, -0.0972274914, -0.0718584731, 0.0306551307, -0.0007499994, -0.0258802380, -0.0354490578, -0.0220104326, 0.0026735119, 0.0027182612, 0.2175507247, 0.1823059469, 0.1602538675, -0.0126494505, 0.0318414122, 0.0113875763, -0.0764495209, 0.1508058012, -0.1489380598, -0.1093759537, -0.0179614387, -0.4946772754, -0.0023479371, 0.0275941268, 0.0252599120, -0.0387459882, -0.2196091712, -0.2943965793, -0.1461705863, 0.0187942870, 0.0308750290, 0.0228542276, -0.0331825726, -0.0193854794, 0.0068654488, 0.0958593190, 0.0717750043, 0.3021103144, 0.0142496377, 0.1231448501, 0.2570059896, -0.1691421866, 0.0611089543, -0.1306478828, -0.2801298797, 0.0802442729, -0.0748179704, 0.1279714406, -0.1356983632, -0.1931518763, -0.0465949811, 0.0237560011, 0.0433149561, -0.1011636630, -0.0829654559, 0.1941395402, 0.0909105986, -0.3891569376, -0.3405727446, 0.0294457022, -0.0631577447, -0.1973426342, -0.2560445368, -0.1284873635, -0.1450386345, 0.0739112422, 0.2212097198, 0.3702357113, 0.2902438045, 0.0617403984, 0.0136987735, 0.0255452693, 0.0559228584, 0.0683623478, -0.4037397504, -0.1578872651, -0.2662335336, 0.1706575006, 0.3640597463, -0.0306966342, -0.0590099134, 0.3925508857, -0.0601885691, -0.2789771855, -0.1393343061, -0.4135836661, -0.1168253571, 0.2434761375, -0.0262368750, -0.2244696170, 0.0145018287, -0.0527718291, -0.1697380394, 0.1231588125, -0.1589797437, -0.0794166252, 0.0702549890, 0.1965799481, -0.0082215145, -0.0177630894, 0.1327314526, -0.3460644782, 0.0827111676, -0.0529795364, 0.0569536984, 0.1028813049, -0.1433888376, -0.1100318059, -0.1246663556, -0.0681066960, 0.1652387232, 0.1096905544, 0.2406436503, 0.3730566204, 0.0042149145, -0.2135832459, -0.2882896662, 0.1773190349, 0.0656832308, -0.0363361947, -0.3500634730, -0.0676289499, 0.2782879472, -0.0484442040, 0.2682969272, -0.0857585818, 0.0882867798, -0.5586619377, 0.1731093675, -0.3205535710, -0.1907712668, -0.0295328498, -0.0959693715, -0.2940906882, -0.2672063112, 0.2827076912, -0.1231232584, -0.0601969995, 0.3723147213, 0.2345429063, 0.1734233201, -0.2333863676, 0.0288694147, -0.0746082589, -0.4418156743, 0.2475707084, 0.1265063435, 0.0978561416, 0.3781474233, -0.0623291284, 0.2813850045, -0.0926078781, -0.4567562342, 0.2381151468, -0.7510678172, -0.2322712094, -0.0281430706, 0.0518874526, 0.2259920388, 0.1473124623, 0.1897695661, 0.1234622225, -0.0408359356, 0.3330912888, 0.2275379449, 0.1328005046, -0.2938012183, -0.5569704175, -0.1541028470, -0.4161679447, 0.1074739322, -0.0773015991, -0.5443037748, 0.1590859443, 0.1597309262, 0.0560326502, -0.1406464577, -0.2200040668, -0.4909898937, 0.2879798412, -0.1375440359, -0.1654950082, 0.2250970304, 0.1958086789, -0.1294749677, 0.3560669124, 0.2377491891, -0.1797556281, -0.0014656804, -0.3686329722, -0.0482507199, -0.1493518949, 0.1123905703, -0.0381558165, 0.0458202325, 0.1556147635, -0.2676832676, 0.0917590559, -0.3084427118, 0.0716196001, -0.1179597154, -0.1759469062, -0.0776636600, -0.0006035040, 0.1180306748, 0.0195577443, -0.0238160677, 0.0723277107, -0.0528212339, 0.0462296270, 0.0815675408, -0.3810824156, 0.2128246874, -0.1090719849, 0.0730997846, 0.1549589485, -0.0857276395, -0.2481200248, -0.0549025722, 0.0300447885, -0.1756736487, 0.2437005043, -0.3428903222, -0.3609217405, 0.0246968083, -0.2439526320, -0.2579998374, 0.1644879431, 0.0999083966, -0.4516937733, -0.1833386421, 0.0948581323, -0.0632816553, -0.3445047140, -0.2208022028, -0.0418186300, 0.0211031549, -0.1480256468, 0.0362768471, -0.0240614600, -0.1786940247, -0.2214406729, -0.0551280007, 0.1080139652, -0.0504654832, -0.0847283453, 0.0374931283, -0.1656178236, 0.0005259230, 0.0660945773, 0.0996379256, -0.2519609332, -0.1398874670, -0.0904272795, 0.3254910409, -0.5079879761, 0.1756517887, -0.3157274425, -0.1225274056, -0.2057421058, -0.0237042028, -0.3804952204, -0.1086971611, 0.1720762998, -0.1012834907, -0.0652222484, 0.1716077179, 0.2767417431, 0.1827196181, 0.0881223083, -0.1625130624, 0.1150430292, -0.3558825850, 0.0551261418, 0.0672434494, 0.1075158194, 0.0159903597, -0.4006752074, -0.1108548120, 0.0857971162, -0.2859562337, 0.3117702901, -0.3362918794, -0.0038115329, -0.2078341544, -0.1061637253, 0.0382503048, 0.0219992455, -0.0197016299, -0.1832234263, 0.0832511261, 0.0779221728, 0.0318077244, 0.0232332386, -0.2554880381, -0.3211118877, 0.1282955259, -0.1648864001, 0.2306907177, -0.3488055766, -0.1978287250, 0.3240299523, 0.0865194201, -0.4119634330, -0.0409744792, -0.4265930951, -0.0140115451, 0.1461635083, 0.0934359655, -0.0305453259, -0.0485550426, 0.2393517047, -0.1701010168, -0.2757137418, 0.1044589728, 0.1319391876, -0.2338596880, -0.4306145906, 0.0968575701, 0.1333556324, -0.1086626649, -0.1021631509, 0.1005225256, 0.1811595559, 0.1858726889, 0.0154905524, 0.0349980965, -0.1379780918, -0.0033909529, -0.0883038118, 0.0663605928, -0.1229481772, -0.1543504447, -0.2842580080, 0.0225722399, -0.2253608853, 0.1367097497, 0.0643066317, -0.1565698683, -0.1129001454, -0.2152195871, -0.4969832301, 0.1477468610, 0.0558091290, 0.0892196819, -0.0723905042, 0.1706258506, -0.0671514496, 0.0996638164, -0.1790833026, -0.1494110525, 0.0656590536, 0.3261829913, -0.2956127822, -0.2208151966, -0.1301307678, -0.0269480310, -0.0615647808, 0.2588428855, 0.1532090157, 0.2084680796, -0.1314939260, -0.1461612582, 0.0561296046, 0.1870340705, 0.0481896214, -0.0833062455, 0.0430883728, 0.0430752076, -0.0979012325, 0.1284433752, -0.5462989807, -0.1890326589, 0.2336955816, -0.3123442531, 0.0282428730, 0.0252405349, 0.1618977487, -0.0944291502, 0.0882195905, 0.0402757488, 0.1235072613, 0.0864853859, 0.1499544531, -0.0490525477, -0.2794245780, -0.1959577650, 0.0530645140, 0.1585317403, 0.0926673189, 0.1588912159, -0.1785923839, -0.0105503099, 0.1303516924, -0.0886696354, -0.2129771709, -0.0354826748, 0.1202160716, -0.0161879733, 0.0745484531, 0.0420981832, -0.2236417979, -0.1482801437, -0.0897790194, -0.2270773202, -0.1160619184, 0.1582404673, -0.2634161711, -0.0958934203, -0.1377576739, -0.0888786241, -0.1017428860, -0.1679439396, 0.0995226204, 0.1074114442, 0.0158734284, -0.3330534995, 0.0717799067, 0.1088865548, 0.1943435222, 0.1173664182, -0.1961413622, 0.0755963326, 0.3022986054, -0.1130044460, 0.0890852138, 0.0542532317, -0.0613712631, 0.0997180566, -0.0083629275, -0.0450123921, 0.0137268938, 0.0798374489, 0.1195792332, -0.0072251102, 0.1097018197, 0.2593304217, -0.0457695164, 0.1976907998, 0.0562142804, -0.0431391411, 0.1792797297, 0.0718450919, 0.0025777542, 0.1116919965, 0.2087244689, -0.1538866460, 0.0931178927, -0.0119890189, 0.1246954650, 0.1051342115, -0.1775904745, -0.0428330973, 0.2415377349, -0.2440151274, -0.3901998997, -0.2100697756, 0.0971918106, -0.0749706030, 0.0468724519, 0.0538703948, -0.1436033249, 0.1009012908, 0.1729840040, 0.2153752893, 0.0167012159, -0.3236078918, -0.4903533459, -0.1247719899, -0.3205749691, 0.2729044855, -0.1155573130, 0.4103164971, -0.0062753214, 0.0478953905, -0.3340753317, -0.1119319871, -0.0724423155, -0.1703648716, -0.0118474821, -0.0251512323, -0.2047477067, 0.0921212733, 0.0784649476, -0.1501671374, -0.1805840880, 0.1694175005, 0.1811849624, -0.0046494254, 0.0278070159, -0.0292810202, 0.0752143413, 0.0658019036, -0.4031001925, -0.0281137079, 0.2139336318, -0.0602313206, 0.0602334552, -0.0566494651, 0.0637816638, -0.1782107353, 0.0713164732, 0.0110586565, -0.3183397949, -0.0663527697, -0.1682767719, -0.0642797649, 0.2964225113, -0.0029144792, -0.1430091262, -0.0246964395, -0.0115595562, -0.0201845113, -0.3719633520, -0.1198945567, 0.0303962287, 0.2308423817, 0.0144712338, -0.0417599753, -0.1033920050, 0.1836038828, -0.0474697910, -0.1373977363, 0.0730398446, -0.0806150809, 0.0664394051, 0.1882283390, 0.0860398784, -0.1428780854, -0.1753404588, -0.3059620261, -0.0363383219, 0.0566359758, -0.2627515197, 0.1352452636, -0.0822412968, 0.1872873604, -0.1222674549, 0.2016902864, -0.0093372297, 0.1549704671, -0.0932690799, -0.1208506525, 0.0040969853, -0.2345327437, -0.3752282262, 0.0139847416, -0.0018544379, 0.0325035267, 0.0496007204, -0.0140522188, -0.0340071395, -0.0152362222, 0.0909985304, -0.0436535142, 0.0232764520, 0.0649535432, -0.0847263932, 0.1723628640, 0.1333051175, 0.1860923916, 0.2358461618, -0.0463398956, -0.0436866730, -0.0621284805, -0.2157696635, -0.0507879294, 0.1333913207, -0.1506320387, -0.0442030691, 0.0983203575, -0.0487887673, 0.2087805718, 0.0837248117, 0.0371996015, 0.1776325703, 0.4449814558, -0.0651737452, -0.0080668749, 0.5749255419, -0.1222311035, 0.0576162413, 0.0057198717, -0.0939416289, 0.3970982730, 0.1654362381, 0.2562507391, -0.1994088143, -0.0402742140, 0.1941659600, 0.1127390191, -0.0637154207, 0.2416451275, 0.2507071495, 0.1444729418, -0.2658649683, -0.0145418486, 0.0352394581, 0.1235926002, -0.0621842518, 0.1079679504, 0.1925971061, -0.2405147254, -0.1323714703, -0.1459288150, 0.2151787430, -0.0210016295, 0.1370903105, 0.2907347977, 0.0915323123, 0.0083661797, 0.2969390750, 0.1192383170, -0.2631155252, -0.1998949647, -0.0901125148, 0.3870934248, -0.0937151164, -0.2357448041, 0.1222441345, 0.0607781783, -0.1889744699, 0.1174659058, -0.0807360038, 0.2653740048, -0.0747381449, 0.0349862948, 0.0466278568, 0.0622713417, 0.1114285216, -0.1026352197, -0.0074129049, 0.0249910746, 0.1754922867, -0.1515472084, -0.0423470959, -0.0132162739, -0.2468479872, 0.0977349579, 0.0982724726, -0.0327288769, -0.4935292304, -0.1178255007, -0.2856424153, -0.0259142481, 0.1168266758, -0.0051606139, -0.3227409422, 0.1273329854, -0.0108290948, 0.0373127237, -0.2435348034, 0.0227161702, -0.2445404828, 0.1735272557, 0.0376141965, 0.0819205418, -0.0487228967, 0.0877396166, 0.1337821037, -0.1507768333, -0.3780807853, -0.0420922786, 0.1004116610, -0.1381097436, -0.0395823568, 0.1557682604, -0.5104402304, 0.2344926596, -0.0098136868, -0.0998598263, -0.2173449844, -0.3123649061, -0.1909949332, 0.2146434039, -0.2568453848, -0.0556641072, -0.2930954397, 0.1966640502, 0.2152762711, 0.2060469687, 0.0246327277, -0.0947193280, -0.1060347706, 0.1260698438, -0.1451620758, 0.0275519248, 0.0201063715, 0.0320499204, -0.0530439466, 0.1887503713, -0.0533052795, -0.0924345255, 0.1699284464, 0.0798060745, -0.1238591671, -0.0983268768, -0.0897315592, 0.2300374806, -0.1727313548, -0.1548192203, 0.1017766669, 0.0185171310, 0.2365609407, 0.0286063198, -0.0576514900, -0.0529543087, -0.3956965506, -0.0079406090, 0.0017777249, 0.0400098488, -0.5258979797, 0.1757540554, -0.0623150691, -0.1240818128, 0.1010278761, 0.0664533824, 0.0455966629, 0.0826206356, -0.2698212266, 0.2021463513, 0.0167391561, 0.0835532472, -0.2569016814, -0.1471170336, -0.3075899184, 0.0666036829, -0.3003837168, 0.2125048190, -0.0248889886, -0.0473234169, -0.2100346088, 0.1040918529, -0.1233789101, -0.0329379700, -0.1302525550, -0.4518352449, -0.0799344629, -0.1428104937, -0.0489985421, 0.0365064815, 0.0090846680, -0.0401741937, 0.0673883706, -0.0535404310, 0.1681309044, -0.0438573323, 0.0457143262, 0.1136873439, -0.1720720530, -0.2622886598, -0.1310648024, -0.0827597603, -0.0133021316, 0.1600123346, -0.2263959497, -0.4578922987, -0.0218365975, -0.2111552209, -0.2606230974, -0.1911329776, -0.2868843079, -0.1329338551, -0.2534995377, -0.0786458552, 0.0218822751, -0.0701599047, 0.0565546006, -0.1944738775, 0.1630947888, -0.1524107754, -0.1664792001, -0.2318866849, -0.1062041745, -0.0557956062, -0.2497543842, -0.1284497231, -0.0425811261, -0.3776216507, -0.3946094811, 0.0044700461, -0.1516520977, -0.2003217787, -0.3367213905, -0.2890543342, -0.2032191455, -0.0465019904, -0.0052382029, -0.1767657995, 0.1499221027, -0.3025445342, -0.0824294686, -0.0213068519, -0.0916859657, -0.0279610530, 0.3601376712, -0.1922034919, 0.0314101428, 0.1219188869, -0.0232674126, -0.1982794255, -0.1886402965, -0.0344543979, 0.0793535635, -0.1840052307, -0.0440619625, -0.1394827366, -0.2590901256, -0.0030375547, -0.2187492251, 0.0093973167, 0.0581940003, -0.0993019119, -0.4176493585, -0.2647025883, -0.1629906148, -0.2437962145, -0.3613021672, -0.1195522994, 0.0780083835, 0.0075977216, -0.1253671944, -0.1756967157, -0.0812769830, 0.0558717996, 0.0238535982, -0.1703601629, 0.1201572716, -0.1736736596, 0.0852894485, -0.2301840186, 0.0871305987, -0.0128006823, -0.2767502666, 0.1324284375, 0.0263347961, 0.0950644091, 0.0555867925, 0.1371279210, -0.1523268521, 0.4468262792, 0.1446611881, -0.0804182068, -0.0267154593, 0.0843383297, -0.0672084317, 0.2838181555, 0.1888563633, 0.2201970220, 0.0266683437, 0.2094577700, -0.3099207282, -0.0779656693, -0.5446093678, -0.1740614772, 0.0058882786, 0.0387723781, 0.0704469606, 0.0909140781, -0.1963952631, 0.1030152142, 0.2263341695, 0.0684387758, -0.2310929894, 0.1744549870, 0.3182850480, -0.0127041461, 0.0850339457, -0.1490797698, 0.2412207425, 0.0648500025, -0.0347535983, 0.1787668616, 0.3257003129, -0.1238915399, 0.3514204919, 0.2819361687, -0.2918183208, -0.0319652557, 0.1757952273, 0.2549444735, -0.2459683865, 0.1062748209, -0.1062108204, -0.0513534844, 0.0025214469, 0.0977018550, -0.3198214769, 0.0359902717, 0.0961720645, 0.0691851452, 0.1544651389, 0.0560261458, -0.1889770478, -0.1779963821, -0.1161142960, -0.0475814119, -0.5067823529, -0.0109596085, 0.0476697385, 0.0851012766, 0.0380732492, -0.1436113417, -0.3328104019, 0.0364820436, -0.0118235424, -0.2970203459, -0.3049526215, 0.0668969676, 0.0785862654, -0.0021694587, -0.0092455586, 0.0561491586, 0.1281209439, -0.2259502411, -0.1550972015, -0.1962390542, -0.2288040370, 0.0934532210, -0.0440930203, -0.0128529230, -0.0063952161, -0.2709150612, -0.2786587179, -0.0030581406, -0.1252644360, -0.3584750593, 0.0408184044, -0.1433866173, -0.2379589081, 0.0295203496, 0.0415870734, -0.0812884346, -0.1288858354, 0.1884463876, -0.0781535059, 0.2292338461, -0.0737941787, -0.0240306575, -0.2062578648, -0.0262322668, -0.3925730288, -0.0640082806, -0.1723563075, 0.0241330098, 0.0505944677, -0.2095163912, -0.3605594039, -0.4812926650, -0.2115519196, 0.1374603808, -0.1007840931, 0.0962702706, 0.0394647345, -0.2485034466, 0.0743580684, 0.0567787215, 0.0959829167, -0.0888787508, 0.0666099712, 0.0054180268, -0.1448673308, 0.1266050339, 0.1573437303, 0.0597624108, 0.0405035056, -0.2085151672, 0.0652574450, 0.0933270529, 0.0315010697, -0.5158325434, -0.2081820667, -0.0585518032, 0.0538897105, 0.2008469552, 0.0020559679, 0.1409809440, 0.0575046539, -0.0765423030, -0.2293143570, -0.4297871590, -0.1462770551, -0.1274277270, -0.2943830490, -0.0170813054, 0.3289279044, -0.1521553695, -0.1620158106, 0.1922489107, 0.1392921656, -0.0889992565, -0.1140507683, 0.0006515869, 0.0641159490, 0.1101151481, 0.0115235085, 0.0058007422, -0.4649732411, 0.2895034850, 0.1254377514, 0.1741995513, 0.2268982679, -0.0688076168, -0.1639562845, -0.0712955520, -0.4132813811, -0.0467111059, 0.3771913946, -0.1720440984, 0.2847576141, -0.1008407250, -0.1241237596, -0.4586279988, -0.1311443150, 0.1978686005, -0.3744847476, -0.0959862173, -0.1304096878, -0.1826958507, -0.3281619251, -0.1547366977, 0.1626164615, 0.1483733654, -0.1776657254, -0.2887696028, -0.3557834029, -0.0492365137, 0.1262053102, -0.1315098107, -0.1251465529, -0.2377651334, 0.3636873066, -0.2558272183, -0.2059865445, -0.0904048607, -0.0318904035, 0.0941760242, 0.4062696695, -0.0165174380, 0.0152820684, -0.2187590599, 0.0282083061, 0.2058446854, 0.3023059666, 0.0029921164, -0.2022699565, -0.1911513954, -0.3801147044, -0.0361599475, 0.3598410785, -0.2985441685, -0.0962877870, -0.1805630922, -0.2982859612, 0.3667383492, 0.1872843504, 0.2372245342, 0.3341166973, 0.0025252523, 0.2072773427, 0.0858953148, 0.1376024485, -0.1571894884, -0.1039658785, -0.1889983267, -0.1171339378, 0.3903831840, 0.0486772507, -0.1325761229, 0.1930545717, 0.0128170168, -0.0390395783, -0.2668067515, -0.2416755110, -0.0965493098, 0.1031842828, 0.0927147940, -0.4152220488, -0.2240300328, 0.0588314980, -0.1384236366, -0.0467997715, -0.4473500848, -0.1156149581, 0.1283669025, -0.2067788839, 0.1743194312, -0.3516997695, -0.2301216722, -0.1375592053, -0.2894827425, -0.1138202697, -0.1023152918, -0.0998396426, -0.1327617615, -0.2506297529, -0.2417903841, -0.1178419814, 0.3261076808, -0.0027426991, 0.0838439912, 0.3036845922, -0.3136575818, 0.0363465324, -0.2470627576, 0.1678255945, -0.1054048538, 0.2453752011, -0.1204424724, 0.2985488176, 0.0489279963, 0.1235871240, -0.1937009692, 0.0343027674, -0.2444132119, 0.0165882464, -0.0165759176, -0.1162805408, 0.1254017353, -0.0295856800, -0.2127040178, -0.0205973908, 0.0683874488, 0.0185504295, 0.1679248363, 0.0773934275, -0.1668543518, -0.3250304461, 0.0022610386, -0.0210960079, 0.0247936193, -0.1619889736, -0.2977653146, -0.0756919757, 0.1070584059, -0.2125061899, -0.2922030687, -0.1628921926, -0.1511859447, 0.1259670556, 0.2222355604, -0.0424012691, 0.1581854075, 0.1577196270, -0.0144242253, -0.0544761345, -0.4727232754, -0.1105122641, 0.0436685756, -0.0812893733, -0.1854820400, 0.0668173805, -0.1718712449, -0.1093559861, -0.1501560658, -0.1196227223, -0.1915190816, -0.2360543609, 0.0763354674, 0.2589818537, -0.1950147748, 0.1185776517, 0.2187548280, 0.1520138979, 0.0128442347, 0.2318733037, -0.3402321339, 0.2341269553, -0.0035390842, 0.0519217625, -0.1730722785, -0.0788955018, 0.3449900448, -0.3765985668, 0.1083557680, 0.1884807050, 0.0823534206, 0.2377679050, -0.1149680614, -0.3696702123, 0.0238984767, -0.0280638319, -0.1772430092, 0.0728590414, 0.1144665107, -0.1679242402, 0.0971185192, -0.1757256836, 0.0492386222, 0.0907629579, -0.0309159216, -0.0599276759, -0.1333822310, 0.1761417985, 0.0760064945, -0.3684186339, -0.1736275256, 0.2995947003, -0.0140606202, -0.0642214939, -0.1450770944, -0.0486106649, 0.0946922377, 0.3093499839, 0.2163396329, -0.2828508019, 0.1401813328, 0.1934612095, -0.1133792400, -0.0524412878, -0.2265039682, 0.0558315888, -0.0576571822, -0.0385501161, -0.4067463577, 0.1046249866, -0.0970821902, -0.1949305385, 0.2195008844, -0.0527477339, 0.1006716341, 0.3665126860, 0.0097394530, 0.2054421604, 0.3735212088, 0.1669329554, 0.0164420940, -0.0350422487, -0.1160397157, -0.3404169679, 0.1595953852, 0.0526461378, 0.3725210726, 0.0046119993, 0.1295684874, -0.2859557569, -0.1284239292, -0.0597146302, 0.1111567095, 0.0314603299, 0.1055180132, 0.0007710161, -0.0146750184, -0.2455527335, 0.2059579045, -0.2162667662, -0.1031117365, -0.2271415293, 0.2286171615, -0.1163537726, -0.0405249968, -0.3122589588, -0.3128953576, -0.0890924782, 0.1283378005, 0.2179523855, -0.1783010960, -0.0617522746, -0.2916052043, -0.0402665809, 0.0547406450, -0.2786685228, -0.0091447737, 0.0981832743, 0.2083121240, 0.0013226120, 0.1356528550, -0.0276811700, 0.1337990910, 0.1969302893, 0.3688672781, -0.2879881263, -0.1345538497, -0.0562544130, -0.1422873437, -0.2174603939, -0.1014304534, -0.0328111202, 0.2129244357, -0.4647756219, -0.0510316156, 0.1214273423, -0.4599857926, -0.3600441217, -0.1417998970, -0.3425744772, -0.2718628347, 0.1797769219, -0.1334309429, -0.2153163105, 0.1642324179, 0.1741806865, 0.1260813922, 0.1375664026, -0.3609403074, -0.2295959890, -0.0281134658, -0.0073238071, -0.0340678133, 0.2769477665, 0.0892017409, 0.0423148461, -0.2589701116, -0.0682866052, -0.5729252100, 0.1271130890, 0.0725871027, 0.0787030607, -0.3412772119, 0.1746899188, 0.2391183525, -0.0957738012, -0.2191192359, 0.0196695291, -0.2789272368, 0.1362139434, -0.3022724092, 0.0608163737, -0.2971338630, -0.0030530498, -0.5015820861, -0.0682165027, 0.2940262556, 0.0401851982, -0.3425591886, 0.2503626645, 0.0123939458, -0.3130533397, -0.2361945063, -0.1984287947, -0.0741118714, 0.2866283953, 0.1739703417, -0.2963415682, -0.1695709229, 0.0432649329, -0.2711720169, 0.0101442672, -0.1207584590, 0.1611377895, -0.0500210971, -0.4787462652, -0.5059324503, 0.0106664188, -0.3043663800, -0.0089032054, 0.0655945390, -0.2319315076, -0.0324619412, 0.0012708105, 0.2366171181, 0.0652847812, -0.2604769468, 0.0783376396, -0.2032987177, -0.0000018967, -0.2559929192, -0.1674951762, 0.1301086843, 0.0904215351, -0.0346927084, -0.0424242653, -0.2084354758, -0.3578794003, -0.3957868814, -0.1832322031, -0.1317686141, -0.0428215414, -0.1892898530, -0.0050796596, 0.0823356435, -0.0197296962, 0.1941116154, -0.0840701014, -0.1521372497, -0.2092692852, -0.2706269026, -0.0500270277, -0.0908811688, -0.0239008758, -0.5212734342, -0.1841343045, 0.0467358977, -0.0461318530, -0.0286255721, 0.0855380967, -0.2832994759, -0.0011128819, 0.0078223599, 0.0468373299, -0.4370330572, -0.0043324623, 0.0315456316, 0.0964942873, 0.4261885881, 0.0216846652, -0.4420994222, 0.1522400081, 0.0352023020, -0.3275209963, -0.0463199802, -0.1142678261, -0.0632691160, 0.2017773390, -0.1441245526, 0.0084920451, -0.0417984501, 0.0825443119, 0.0762318894, -0.4992500246, 0.1881531328, 0.2126620263, 0.0366591550, 0.0401883721, 0.0381124057, -0.0802152976, -0.0371477194, 0.2543544173, -0.0327014439, 0.2933226228, -0.1340188682, -0.0671620741, 0.2474707067, 0.0126469303, 0.0138129098, -0.0313838050, -0.3281216323, 0.2624604404, -0.0517327003, -0.2823123038, 0.0038079536, -0.0588815659, 0.1308590472, 0.0074638100, -0.0651485026, -0.1197113544, 0.1571083963, 0.1314719468, 0.0373077765, -0.1213737652, 0.1079382375, 0.0677822828, 0.3664958179, -0.0829461738, 0.0292656422, 0.1187356263, 0.0407030433, -0.0981780738, 0.2060185522, -0.0771964863, -0.3039179742, 0.1942494214, -0.0484980308, 0.2421979308, -0.0154879782, 0.2969661951, 0.0449132845, 0.3361327648, 0.0364085548, 0.0145357484, -0.0424798429, -0.1688586920, -0.0626029074, 0.0202356875, 0.0227259845, 0.0838189051, -0.3623283803, -0.0988667980, 0.1830996126, 0.1446312070, 0.1247903854, -0.0410631076, -0.0484963767, -0.2198510766, -0.2541395128, 0.0009252458, -0.0830446407, -0.3767769635, 0.1283203661, 0.0805725232, 0.1517295539, -0.1562560499, -0.3306987286, -0.0715264603, -0.1028214097, 0.2297724485, -0.1524097621, 0.1326010972, 0.0333938487, 0.1803758442, -0.0983680487, -0.1966641992, 0.1041713506, -0.6047030091, 0.2495413274, 0.3748339713, 0.1152472422, 0.0582597442, -0.0473982580, -0.3772073388, -0.5734874606, 0.2263809144, 0.0773320571, -0.3205274642, 0.0728236362, -0.0053064455, -0.1740224659, 0.0411447585, 0.3074802756, -0.2979692817, 0.0541905835, -0.2225061059, -0.1684848219, 0.0584779084, -0.1961744726, -0.2818863094, -0.2584364414, -0.4738025665, 0.1783887148, -0.1474332511, 0.0392777771, -0.3390324414, 0.1095394418, 0.2177199423, 0.0985141024, -0.0949533060, 0.1524329334, 0.0124895116, -0.0508903787, -0.1807789356, 0.2645325661, -0.2142460495, 0.0297888312, -0.0160987545, -0.1472336799, -0.5340589285, 0.2229655385, -0.1891788989, -0.1761003882, -0.0258968584, -0.0972651467, 0.0515910238, -0.1141092926, -0.2271357477, -0.1532209814, -0.5222249627, -0.1416372508, -0.1283733547, 0.1941238195, -0.2222055048, -0.2262737453, -0.0246816427, -0.6931389570, 0.3780694604, 0.1843592077, 0.0654770210, 0.0458195806, -0.3789763749, 0.2399013042, 0.0850328133, -0.3007071912, 0.0299855359, -0.1735811383, -0.2499686480, -0.4683299959, 0.0557554141, 0.2449937761, 0.1631120592, -0.0353113450, 0.0742571056, -0.0446660891, 0.1735516042, 0.1876292974, 0.1871745586, -0.1576406509, -0.1127258912, 0.1287778318, -0.1356820613, 0.2687271535, -0.3626230359, -0.2245301604, -0.1175451875, -0.0011023940, -0.2600724697, -0.3775260448, -0.1674243212, -0.0095869871, 0.1666890532, 0.0762142837, -0.3951979876, 0.1124271229, -0.0809012204, -0.0135711599, 0.0422969796, -0.0943188518, 0.1774784327, 0.0261552967, -0.4361189604, -0.4379557371, 0.0209243689, -0.2331455797, -0.3158131242, -0.1267789602, -0.0611025691, 0.3509222567, 0.2962425947, 0.1512035728, -0.0625999048, 0.2343095243, 0.3014306128, -0.2343243212, -0.2070561200, -0.1552972198, -0.0974700376, -0.1184706241, 0.0516522415, -0.3647068441, -0.1500560790, -0.0626813769, -0.4412134290, -0.4149900675, -0.5825808644, -0.0134796845, 0.0189159494, -0.0579718091, -0.2673372030, 0.0633409992, -0.3173476458, 0.2312057614, 0.0875681564, -0.1885920912, -0.5032541156, 0.0178322773, -0.1665973365, -0.1856647730, -0.0808397979, -0.5681851506, -0.3042128682, 0.1654089987, 0.1181731820, -0.1952172965, 0.3590797186, -0.3349427581, -0.2085094452, 0.1054733768, -0.1990408599, -0.5420590043, 0.2098064423, 0.1897199601, 0.0781200528, 0.3188057244, -0.1667722166, -0.4455490112, -0.0159165207, 0.1046275795, -0.2817775607, -0.0363902636, 0.2526646852, 0.2187013179, -0.1926092207, 0.2764287293, 0.2607761323, 0.2327785492, -0.2651382089, 0.1682968885, -0.1562330574, -0.4022040069, 0.0559965298, -0.0715173483, 0.0041438146, -0.2981796265, 0.2281544954, 0.0234029107, -0.3225745559, -0.2861958742, -0.0750545189, 0.2251278758, 0.1517854780, -0.5062371492, 0.0238023326, -0.3997202516, 0.2531977594, -0.2282981128, -0.0340450071, 0.2370924056, 0.1994908452, 0.2611276805, -0.2179341614, 0.0134876743, 0.2744230032, -0.1011435539, -0.1910607368, -0.3342818916, -0.2101672143, -0.0862433314, 0.0856230706, -0.1723073125, -0.0461068749, -0.1631068289, 0.0481538549, 0.3089346290, -0.1219659224, -0.3408060670, -0.1150779650, -0.0596876442, -0.1959786862, 0.2541490495, -0.1014993116, -0.0948139131, -0.3822395205, 0.0328483395, -0.4214758277, -0.3979433775, -0.3791409731, 0.0734419674, -0.1720456630, 0.0268432070, -0.3769262135, 0.1282418966, 0.3038110733, -0.0199909881, 0.1892873645, -0.1514890343, -0.7132159472, 0.3723722994, 0.1434191912, -0.0145546235, -0.1091859490, 0.2897860110, -0.1277791858, -0.2338382304, -0.1353806406, -0.4428935945, 0.0795314685, -0.2611030340, 0.3509654701, -0.0282364376, -0.1674885154, 0.1401422918, 0.0184216108, 0.2274771482, -0.1393511295, -0.0596336909, 0.1007958651, -0.0275950767, 0.0508988872, 0.0907999724, -0.1586792171, 0.2757252157, -0.5034468174, -0.0416142121, 0.4293899238, 0.1387843192, 0.1563552767, 0.1863388568, -0.0645919666, -0.2192215919, -0.0590630770, 0.1716817319, 0.0337810628, 0.2228994817, 0.1597685367, -0.0946803167, 0.2267047316, 0.1205329970, -0.0488957614, -0.3310580552, -0.1299399137, -0.3914190233, -0.1360609829, 0.1996172667, -0.2742931843, -0.1101778224, 0.0268171933, 0.0641800836, -0.1752844602, -0.1902027875, -0.4287362099, 0.1332604885, 0.2027360201, 0.3237529099, -0.4049055278, 0.2146791220, 0.0639491603, 0.1234175190, 0.0837199166, 0.0948173255, -0.0510300621, 0.1233158708, 0.0057906439, 0.3402641714, -0.3617200553, 0.3049532473, -0.3800834715, -0.3409061134, -0.1334394962, -0.0063326778, -0.5876743197, -0.3378085792, -0.0233889613, -0.0277627613, 0.0534711219, 0.2144168317, -0.0792109147, -0.0515418574, 0.1389028728, -0.0271629598, 0.0463061705, -0.1630615145, 0.1981680691, 0.2856704295, 0.1241991669, 0.2580414414, -0.3896471858, 0.0959691033, -0.0401455015, -0.6158605814, 0.0919454247, 0.0341538116, -0.1915875077, -0.0707063526, 0.1263769567, -0.2697938085, 0.2049562782, -0.1325311661, -0.0692198128, 0.0053483951, 0.2862883806, -0.0085053584, 0.0293274559, -0.3604528904, -0.2364277691, -0.2435284108, -0.3017379045, -0.0570073538, -0.3920488656, -0.1169272959, -0.1552897245, 0.3601034582, 0.0600222424, 0.0696412772, -0.1395998597, -0.1560189426, 0.0993703604, 0.0880010650, -0.3699167967, 0.0470385700, -0.0191848539, 0.0853058770, -0.2599792480, -0.2955026627, -0.0079806261, 0.0292153452, -0.0273257308, -0.0553396791, -0.3363440931, 0.1206793487, -0.0754918754, -0.1078188345, 0.0981300697, 0.1733221859, -0.1897355467, 0.4265984297, -0.0080708368, 0.0543729924, 0.2130562365, 0.0141984150, -0.0726447627, 0.1885952801, -0.1417714357, -0.1819193363, -0.0583072677, -0.0319958515, -0.1001955792, 0.2976862192, -0.0217578094, -0.0708956718, -0.1971346587, -0.1153860316, -0.2199005336, 0.0986643955, 0.1485532671, 0.0491096638, -0.1731522381, 0.2679516077, -0.0772214159, 0.1400660127, -0.2199353427, -0.0867925808, 0.2392074317, 0.2696092129, 0.1044458449, -0.0445749611, 0.1707261950, 0.0934913009, -0.2293694168, 0.3021659255, 0.2880618870, -0.4544230103, -0.0463860109, -0.1037240028, -0.3042861819, -0.0322754756, 0.2964035571, 0.1301739514, 0.3023658097, 0.1073398814, 0.0729945824, 0.0322325863, -0.1074313745, -0.2339777350, 0.0158701073, 0.0775311738, 0.1228279471, -0.3085791171, 0.1459682435, 0.2436707020, -0.1959060431, 0.1677597165, -0.1677585095, 0.0453440696, -0.1707511544, -0.0803935304, -0.1046455428, 0.0941288620, -0.1862037480, 0.0468963832, -0.3384393156, 0.0675356463, 0.2523334026, -0.1692541391, -0.1978323758, 0.0429275818, 0.0409767516, -0.1828183383, 0.1216766909, -0.1431546211, 0.1473568231, -0.1674137712, -0.0050132736, 0.0304575358, -0.2565577328, 0.1385951340, -0.2158000767, -0.2091609538, -0.2685066462, 0.1158642992, -0.2402454317, 0.0561672971, -0.1839589924, 0.0387014300, -0.3150944710, 0.0062353713, -0.0514493436, -0.3050645888, -0.0619268417, 0.1159375161, -0.0600143783, -0.0024734819, -0.2179091871, -0.2542116940, 0.1908498406, 0.0070046345, -0.2395051718, 0.1256437004, -0.0646528676, 0.0295092165, 0.1670699716, 0.1179473326, -0.0865117013, 0.0258603916, -0.1059033200, -0.2407316864, -0.1522703916, -0.0993348286, 0.1140792817, 0.0371287875, -0.0578447394, -0.1307505816, -0.2210030258, -0.0134924967, -0.0951216593, 0.2095471472, 0.1143074110, 0.2360338122, -0.0974302888, -0.2973878682, -0.2027216703, -0.0060753943, -0.1404512227, -0.2275761366, -0.0477629229, -0.2247146517, 0.1108099669, -0.2021925598, 0.0323389918, -0.0314195268, -0.0848769471, -0.0875082687, -0.0362353995, -0.1366177201, 0.1976248920, 0.0019942014, 0.2078789622, 0.0805132166, -0.7668665051, 0.0637215301, -0.1722580940, -0.1734432280, 0.0439739116, 0.0050766920, -0.2422693670, -0.0903643370, 0.1408122182, 0.2284925282, 0.0293751899, 0.0460260808, 0.0228419900, -0.3888427019, 0.2019035369, 0.1807684004, 0.0856562406, -0.3164369166, -0.0075988108, -0.3269141912, -0.0784173086, 0.1305584610, -0.1173018739, -0.0042894562, -0.1989156306, 0.1233150363, 0.1361645311, -0.3890997767, -0.2208728790, 0.0329869017, -0.3052842617, -0.0291084461, -0.1833784878, -0.0646118522, 0.2868769765, -0.1274788529, -0.0412021279, 0.1193149388, -0.2780394256, 0.3224304616, 0.2278520912, -0.1015187278, -0.5868578553, 0.0820761099, 0.5412449241, -0.2174281478, -0.2058313787, -0.1997607052, 0.1999873668, 0.0991831645, -0.0433683805, -0.2087868750, -0.2262533307, 0.1104166433, 0.0177214816, -0.1703546941, -0.2026225626, -0.2350855470, -0.2377849817, -0.3413776755, 0.0573459193, 0.2645451725, -0.1739153266, 0.0553816371, 0.3051010668, 0.1105242819, 0.0477411225, 0.0973485336, 0.1724892259, -0.1718510687, 0.1578708142, -0.0961613208, -0.0806478634, -0.1033044457, -0.2672263384, -0.0436571427, 0.3813733757, -0.0007893220, 0.2511586547, 0.0523681380, -0.2137369215, -0.3359410167, -0.4737438858, -0.0718109608, -0.3486382067, -0.0270884149, 0.3468407691, -0.1655097753, -0.2719675899, 0.0391693078, -0.0713514537, -0.0931139514, -0.0849136338, -0.0729753450, -0.0376676582, 0.0069064829, -0.0711686835, 0.0062474823, 0.0542243235, -0.1357043535, 0.1004183814, -0.0028973739, 0.1649704129, 0.2987373471, 0.0546277687, 0.3243712783, 0.0123771289, 0.1720042378, -0.0706727654, -0.3608064651, 0.0450452194, 0.0686440840, 0.0744363070, -0.0298638213, 0.0060363766, -0.0388738886, -0.1390161663, 0.3214615285, -0.0144715784, 0.1418844163, 0.2217097729, 0.1854715794, -0.1212180331, -0.0333999880, -0.1690246165, 0.1788188517, 0.0905233696, 0.1382000446, -0.5129505396, 0.0192382801, 0.2571933270, 0.0384262875, 0.2761320472, -0.1251438111, -0.3310555816, -0.1778456271, 0.1167382449, 0.4028241336, 0.0138546424, 0.3899053633, -0.0267917737, -0.1030492336, 0.0736998320, 0.0056738947, 0.2040548772, -0.2464153469, -0.4574101567, -0.0951363966, 0.0439012460, 0.2485634983, 0.0151837962, -0.3571510315, -0.1331809163, 0.0698387846, -0.0995450020, -0.0709465593, -0.2293954492, -0.0170324594, 0.2667748034, 0.0742885843, -0.1088697985, 0.0913265496, 0.2603744566, -0.0351528414, 0.0378703848, 0.0544268712, -0.0083131269, 0.0427963920, 0.0394453444, 0.2355738431, -0.2291546166, 0.0259922724, -0.2639041841, -0.1908273101, 0.0328152850, 0.1739577055, -0.1590389907, -0.1510055959, 0.0686209798, 0.1130244210, 0.2437864095, -0.0582617335, -0.0436196998, 0.2480007112, -0.1285005063, 0.0396120772, 0.1222302467, 0.2243598104, 0.2550770044, -0.0396634601, -0.1286658347, 0.1538166851, -0.4032045603, 0.0530309081, 0.1738322526, -0.0031381622, 0.0673079267, -0.0210162383, -0.5057848692, -0.1377818137, -0.1175209358, 0.1731957495, 0.2081798315, 0.0285747293, 0.0835750848, 0.0318506137, 0.3226124942, 0.0538306423, 0.2910699546, -0.0270468332, 0.1628051847, 0.1025953367, 0.0530162938, 0.0250209812, -0.0459562875, -0.0501929522, 0.0499396883, 0.2115976661, -0.0549727492, 0.2291831374, -0.0159657374, -0.2112054676, 0.0375295244, 0.1700881571, -0.2223544270, 0.1996433735, 0.0738828033, -0.0927366093, -0.1175070778, -0.2827315629, 0.1825781316, -0.3845617473, -0.2446008474, -0.0878922120, 0.1368997097, -0.2831507325, -0.0982399955, 0.0842947811, -0.2529866397, -0.0165408012, 0.0329625942, -0.0211705416, 0.1553106755, 0.1281401813, -0.0031222994, 0.0700209960, -0.0896011218, -0.1699477881, -0.1053730622, 0.0178988706, -0.1842201650, -0.0810927600, -0.4510386288, 0.1945070922, -0.0737307593, -0.3476450145, -0.3476187885, -0.2699529231, -0.2304415405, 0.1922007352, -0.2911113799, 0.1748408079, -0.5700718164, -0.1162622944, -0.2355781645, -0.1349576563, -0.1180413291, 0.0015208967, -0.0085584996, 0.1192787662, 0.0264761485, -0.3619749844, 0.2039234340, 0.0709858909, -0.1043746471, -0.1542789042, 0.0921128914, -0.0069195670, 0.1548416317, 0.3616556227, 0.1636304408, -0.3528305590, 0.2788286805, 0.2378922999, 0.1871586740, -0.0661387071, -0.1313354224, -0.1821189225, 0.2423479259, -0.0882523730, 0.1109338328, -0.0977273881, 0.0808741823, -0.0356116630, -0.1556928903, 0.1162163243, -0.2981512249, -0.1250663847, -0.4208783805, 0.0087748608, -0.1361873150, -0.3989879191, -0.0662341118, -0.0854874775, -0.1661533117, -0.5105612278, 0.1196275502, -0.6666561961, -0.4052494466, 0.1490323991, -0.1480571926, 0.1733969003, 0.0542086810, -0.2795204520, -0.1315119267, 0.1585207880, 0.0561362058, 0.0166507717, 0.0171681866, 0.0597300902, -0.0188244581, -0.0059130779, 0.1050602049, -0.3650376201, 0.1516460627, 0.0340179354, 0.1393931210, 0.0152489981, -0.1965191364, 0.2174399197, 0.3069081306, 0.3168320656, 0.0694738477, -0.0417477898, 0.1689861119, 0.1502669007, -0.0253825448, -0.0505447052, -0.0717620179, -0.3511825502, -0.1435726285, 0.1841879636, -0.1307814270, -0.2518939674, 0.1736330539, 0.2219774574, -0.3777900636, -0.3393153548, -0.1544996649, -0.0530553423, -0.0310602691, 0.0826100633, -0.3350504935, 0.0824814588, 0.1147191375, -0.2676456273, 0.3413740993, -0.0698764920, -0.1534002870, 0.0923425555, -0.1452443451, 0.0194090921, 0.0616630241, -0.1624761820, -0.3916245699, -0.4289179444, -0.2040397823, -0.3210952878, -0.2037750632, -0.2967151105, 0.2568155825, -0.0304592568, -0.0230365060, -0.0819344372, 0.1476052999, 0.3131107390, 0.0374075212, -0.2045263797, 0.2984748781, -0.0013720391, -0.1037019640, 0.0513223819, -0.2227285802, 0.0629482791, -0.1643222868, 0.3221656382, -0.0592267998, -0.0425098501, 0.2319361866, -0.1637344360, -0.4561650157, -0.2634165883, 0.1767435074, -0.1367441416, 0.1912955940, -0.1546134502, 0.1062158123, -0.0453078821, 0.0670938119, 0.1441304982, -0.0545127504, -0.0834673122, -0.1974501163, 0.1603848636, -0.0592209920, -0.0421749316, -0.1916209906, -0.1931328177, 0.0778015926, -0.0346080214, 0.0225596614, -0.3936693072, -0.1149931327, -0.0350567698, 0.2672886848, -0.2163675427, -0.0916831642, 0.1940236539, 0.2677128017, -0.1333404183, 0.1774719507, -0.3209590316, -0.2616100609, 0.0483310260, -0.1662667096, 0.2725761831, 0.1334378570, -0.2040980309, -0.4702712297, -0.2069249451, -0.2100540251, -0.1998632252, -0.1722927094, -0.0790324286, 0.1522348523, -0.1338787377, -0.2814363539, 0.2268998176, -0.0427554362, 0.1630902141, -0.0253950264, -0.2814556658, -0.2642621696, 0.0472655073, -0.2740878761, 0.1805830896, 0.4300078750, -0.0452704057, -0.6496102810, -0.1492015719, -0.1896561831, -0.0912437439, 0.1570802927, -0.0167844538, -0.3563749790, -0.3400982916, 0.0462731495, 0.2046754658, 0.2354694903, 0.0536279902, 0.3213076890, 0.0085649351, 0.2009658515, -0.2229905128, 0.0970919281, 0.0778676793, 0.0966749191, -0.3014029860, -0.0138252303, 0.0438938700, -0.3625812829, -0.1234153807, 0.0737807304, -0.0741523802, -0.4304930270, -0.0918188989, -0.2462424338, 0.1544993818, 0.0885109603, 0.1228984371, 0.0875725448, 0.1368947178, 0.0458336696, -0.1752256900, -0.4017083347, 0.0896553025, 0.0113952020, -0.4867629707, -0.0085670240, -0.0502157956, -0.1106137335, -0.4065502882, 0.2026044875, -0.1564824283, 0.0813761353, 0.0678607076, 0.2936674058, 0.2114762366, 0.0224466771, 0.1888341159, 0.2465644628, 0.0718298107, 0.0383817144, -0.4096306860, 0.1010690704, -0.0383711644, -0.3986640871, 0.0564667359, -0.3643102646, 0.0338814631, -0.0754619986, -0.0452877320, -0.1365467459, -0.1389539093, -0.0191958733, 0.1943502426, -0.1698594391, 0.3331458569, 0.0696885362, 0.1355368793, -0.3092061877, -0.3795563281, -0.1263575703, -0.0641506538, 0.0015620196, -0.0837159529, 0.0159090739, -0.2199209929, -0.1279212087, 0.1579081267, -0.2348835468, 0.0771357864, 0.0812001005, -0.1769777387, 0.1760005206, 0.2434631586, 0.1345461458, -0.1788014174, 0.0438484810, 0.1642080545, 0.1785088778, 0.1149071157, -0.0094105667, 0.3277775645, 0.1204926074, -0.1418536454, -0.3577727079, 0.0158828255, -0.1320028007, 0.0190489665, -0.1001862735, -0.0940707251, -0.0861244276, 0.0129846139, -0.0792212412, -0.2292465270, -0.1636755466, -0.1011367738, 0.0400308929, -0.2767595053, -0.0029839817, -0.1733938903, 0.2837405205, 0.1062216610, -0.1675280929, 0.1761574447, 0.3106202483, 0.1371008903, 0.3249281943, -0.2694380581, 0.0212152693, -0.1054652557, -0.2486024350, 0.1919764280, 0.3273741901, -0.0889920741, -0.5195816159, 0.0635427833, -0.0793878883, -0.0709919333, 0.0017167137, -0.3476751149, -0.3402471244, -0.1580879390, -0.0324052610, 0.2410046756, -0.2516729832, -0.2283887863, 0.0969373882, 0.0364358872, 0.2290742099, -0.1190575659, 0.0571304895, -0.0135139143, 0.0189866088, 0.0383772589, -0.0467921309, 0.3364086747, -0.2339515537, -0.1312613636, 0.0578150526, -0.0765610337, -0.2381495833, -0.2290545404, -0.0300588366, -0.0792076886, 0.2322758585, 0.2745579779, 0.0278795268, -0.0444755591, -0.0747957528, -0.0776293427, -0.2389278114, -0.1296457648, 0.3282104135, -0.4122985303, -0.1257413626, -0.2311853617, -0.1062392294, -0.3034502864, -0.3855144978, 0.0068063075, 0.0007140120, 0.1843021363, 0.1113115177, -0.1595554203, -0.0063636634, 0.0844469965, 0.0197996441, -0.1217844933, 0.0587132089, -0.5030131936, -0.2728802860, -0.0548580997, -0.5546029806, 0.0251191147, 0.0155373607, -0.1924294382, -0.1077080891, -0.0502607971, -0.4203220010, -0.2574689388, -0.1111156419, -0.0860930905, -0.0981838629, 0.2750720084, -0.0324873105, 0.1344117820, -0.2993338406, 0.0801636204, 0.0884390622, -0.1813825220, -0.4685084820, -0.1193234995, -0.2220666856, -0.3678287566, -0.2306011170, 0.2159008682, 0.2792198062, 0.0980626717, 0.0235093702, -0.3420379758, -0.1442744583, 0.1851529032, 0.1814693063, -0.4099736214, 0.1827406883, 0.1677067131, 0.2266853899, -0.1800693125, -0.0508344509, -0.1769294739, -0.0332974568, -0.2438918054, -0.4123038650, -0.1093386933, 0.4027313292, 0.2697521746, -0.2859154046, 0.3045569062, 0.0923331529, 0.1025169045, -0.2711800933, 0.2273940444, -0.8379989862, -0.0602314211, -0.0243760813, -0.0623059236, -0.2236006111, -0.4057598412, 0.1520344168, -0.4257776141, -0.5387805104, 0.3481308818, -0.1229437441, 0.1376506835, 0.1562176198, -0.0839478821, 0.0953026935, -0.2097297162, 0.0833506212, -0.1427224576, -0.1501955688, 0.1105803773, -0.0037838717, 0.1989480704, 0.2389356941, -0.4599687457, 0.0804761127, -0.3562287688, -0.2213638574, -0.0394113511, 0.2541472912, 0.0684356987, 0.1025202796, 0.1316243559, -0.1605272442, -0.0910425261, 0.0763288364, 0.1102838814, -0.4716589749, -0.2635206878, -0.4840701222, 0.0255206898, -0.6028044224, 0.2892840803, -0.2355952561, -0.1418080181, 0.2208644301, 0.0759314671, -0.0433224291, -0.2243574113, -0.1364873946, -0.1730023175, 0.2405494601, -0.0309736803, -0.0223567858, 0.2125730067, -0.0136094764, 0.0050816606, -0.0447742976, -0.2387794554, -0.0877984315, 0.1749735326, -0.0586890131, -0.2110940963, 0.0146521050, -0.0470696241, -0.0713226572, -0.0570041053, -0.0821305364, -0.2195207924, -0.0844992772, -0.3378568590, 0.0957034379, -0.1199358329, -0.2685554624, 0.0607075356, 0.2440485954, 0.1198740751, -0.0074803815, -0.0870348513, 0.3979500830, -0.1167931184, 0.1775353104, 0.0041393838, -0.0445715860, -0.0900207087, -0.2084902525, 0.1078135893, -0.0365712531, -0.2431538850, 0.3703557253, -0.2184713334, -0.4097399712, -0.1798287779, 0.3216251135, -0.0248720031, 0.3090878427, 0.0980181172, -0.0126230735, 0.1046581939, -0.1710329801, -0.0540277250, 0.1004472822, 0.0654392913, -0.0852127373, -0.4219931066, -0.3479729295, -0.1469355375, -0.1373674572, -0.0181316119, -0.1885637492, -0.0568969846, -0.4208098352, -0.3306339681, -0.0690443069, -0.2219343185, 0.1013285294, 0.1408705115, -0.0819821581, 0.3440742791, -0.0081206141, -0.1712147295, -0.1342263222, 0.1194204241, 0.1489113271, -0.0651711673, 0.0762805641, 0.1818770468, 0.1638858020, 0.1146443486, -0.5807933807, -0.2306231558, 0.0814832821, 0.0155346235, -0.0996264741, -0.0002294872, -0.1992259473, -0.0261509065, 0.0073893070, -0.2407744229, -0.0548907258, 0.0512965433, -0.0873556584, -0.0631911606, -0.1780167520, -0.1162722036, -0.2368402928, -0.0451861881, 0.1065734923, 0.0932732522, -0.3842975497, 0.1018614992, -0.2273418158, -0.0236657187, 0.2413847297, -0.3143302202, -0.7018203139, -0.1919416040, -0.2402240187, 0.1110694110, 0.1085081771, -0.2214698195, 0.0622240789, 0.2523755431, -0.0236648899, -0.0609802045, 0.0859932899, 0.0318395793, -0.1974547803, -0.3096242547, -0.0593047291, -0.1375281662, -0.4679479897, -0.1026287004, -0.2016922086, 0.0234941095, 0.0532471016, -0.2020219862, -0.0741365477, 0.1307733804, -0.0584131740, -0.0350970402, -0.0618377887, -0.2851360738, -0.0245286636, -0.0271398909, -0.5546907187, -0.0414103717, 0.1348372400, -0.3357104659, -0.0880880356, 0.0376363210, -0.1167057529, 0.0128291287, -0.2963619232, -0.1406886876, -0.1414715201, 0.2332984954, 0.2529442906, 0.2480843663, 0.0776552483, -0.0664693415, 0.3959823251, 0.2312909812, 0.1128187329, -0.4456526637, -0.2040854841, -0.0437491611, -0.5474210978, -0.0648675486, -0.0713814571, -0.1997545660, 0.1987086684, 0.0520927310, -0.6670718789, -0.4981806278, -0.0166032091, 0.0579718314, -0.1093404219, 0.2125586420, -0.3451245427, 0.3741422892, -0.2126637697, -0.1408719718, -0.3448719978, 0.1165309995, -0.1691232771, -0.0078725172, -0.1157180816, -0.6350114942, -0.0706278235, 0.1565775722, 0.0248911381, 0.3181702495, -0.0315737277, 0.0230644327, -0.1967579722, -0.2241292298, 0.0791115537, -0.1915869117, 0.0806007236, 0.0786115676, 0.1636675298, 0.2840252519, 0.0432885364, 0.0395491272, 0.2706613541, 0.0659828559, -0.1184161529, -0.0136195393, 0.1200601608, 0.2711254656, -0.3283010125, 0.1374359578, 0.2293488234, 0.2393160313, -0.0416506268, -0.1246969551, -0.3449702263, -0.0392191485, -0.0545989200, -0.1117990837, -0.2461223006, 0.0186213441, 0.2168494016, -0.1830870062, -0.3991534710, -0.1225240901, -0.0784871206, -0.0908591375, -0.0866261274, -0.7929853797, 0.0356327184, -0.1634552628, 0.1123388261, -0.1099837646, 0.2232301533, -0.0444281958, -0.1269790530, -0.1629578322, -0.0573801510, -0.0785611719, 0.0417603105, -0.3459381461, 0.1688639671, -0.1201010495, -0.1057828739, 0.1586523056, 0.0753949881, 0.1407430619, 0.3006068766, -0.1111683697, 0.2093746662, -0.0178684387, 0.2015730143, -0.2445845753, -0.2320077717, -0.0511518791, -0.3330181241, 0.2625590563, -0.2724473178, -0.2800384164, -0.0939734653, 0.1171204597, -0.2237156183, -0.4262734652, -0.0411539003, -0.1632486582, 0.0384905338, 0.2936496139, -0.0374944545, -0.1100788862, 0.1021824926, -0.1706699431, 0.2439063638, -0.0781115368, 0.0931703374, 0.2391385287, -0.3254515529, 0.1883711964, 0.1773740798, -0.0231565218, -0.0960818157, 0.0800395086, -0.1565541625, -0.2804730237, 0.1214215383, -0.2499254793, 0.1952897459, -0.1842261106, -0.0487943403, -0.1256542802, 0.2377554178, 0.1361595690, -0.0442183353, -0.2262584567, 0.2025304437, -0.3278938234, 0.2134623528, 0.0847442225, 0.0194099452, 0.3490784764, -0.3346155286, 0.1580474824, 0.2366420925, 0.0354692452, 0.3845503628, -0.0182474721, -0.4676924646, -0.3476650715, 0.3812185526, 0.3132497370, 0.1299499273, 0.1366357207, 0.0107631190, 0.0013489504, 0.0226435624, 0.1759788245, 0.2219215482, 0.1229771674, -0.0852550641, -0.4055743814, -0.2166436464, 0.2370919287, -0.0238793157, -0.2063678652, 0.1712390184, 0.1002923623, -0.3844078779, -0.2207050920, -0.3329626322, -0.0682794154, 0.0618817843, -0.1026240364, 0.0267870706, 0.0686094463, -0.0080527924, 0.0754313916, 0.0092827566, 0.3865657449, 0.1228123307, 0.3397502899, 0.3399261534, -0.0916505679, -0.2513221800, 0.3250872195, -0.3678525984, -0.3453664184, 0.0023392974, 0.0881350115, -0.4741447270, 0.0729713291, 0.0026833916, -0.1125478372, -0.1468702555, -0.0563083403, -0.0581060313, 0.3073084354, 0.1306628436, -0.0064386437, 0.1562056392, -0.1594801843, 0.1604510993, -0.0243822429, -0.2062163949, 0.0128592458, -0.1938142031, 0.1076694727, -0.1175045669, -0.5406733751, 0.1755427569, -0.1172700450, -0.4550566077, -0.1248145178, 0.0602061749, -0.0838272944, 0.0339927748, 0.0572454892, 0.2883698642, -0.2325001955, 0.2421131134, 0.4542160332, -0.0715632513, -0.3283028007, -0.1968068779, -0.2439701408, -0.2979332805, -0.0055166599, -0.0297063328, -0.4422901571, -0.1288953573, 0.0779818147, -0.0803072080, 0.1347282678, -0.0010479717, -0.4342488348, -0.2561158538, -0.2332327366, -0.3474693894, 0.0025805437, 0.0147269312, -0.1575061381, 0.0116524184, 0.0497908965, -0.0278075933, 0.0583170801, 0.2738063335, 0.2697561085, -0.3176701963, 0.2430793345, 0.2026939243, 0.1040546671, -0.1433504224, -0.3662757874, 0.0997295082, 0.3953827620, -0.3748137653, 0.4220655859, -0.2260672152, 0.2042515874, -0.1158746034, 0.3370715976, 0.3261650205, 0.0242761448, 0.5286594033, 0.0592880286, 0.0847095102, 0.2066281140, -0.0034072893, 0.1998217404, 0.0763612166, -0.0807629600, -0.0352790691, 0.1720710248, 0.0025775363, -0.0276386682, -0.3065259159, -0.1675805151, 0.2148528099, -0.0950344503, 0.0917647481, 0.2789529264, 0.4586254060, 0.1059479862, 0.2114520371, 0.4533060491, 0.0086588841, -0.1710503995, 0.0129969092, 0.2635275722, 0.0323217474, 0.2610252202, 0.5821989179, 0.0794325396, -0.0839848593, -0.2480194867, -0.0299325492, -0.2108659893, 0.3264814317, 0.1155803576, -0.1605363935, 0.2388571054, -0.0792387202, 0.1475044042, -0.0292953178, -0.1209663451, -0.1470650434, 0.1622429788, -0.1086101755, 0.2082726508, 0.1880036592, 0.0147168105, -0.2535139322, 0.3363825679, -0.0578468218, -0.0567635484, -0.0727184638, -0.0589351021, -0.3035665452, -0.0494983271, 0.0080034882, 0.2430444509, -0.1816033572, -0.1154248640, -0.3654497266, 0.0422271900, -0.1786275655, -0.4510128796, -0.1104680523, -0.4835789204, 0.2320150435, 0.1452048570, 0.3065964580, 0.0456086397, -0.2431324422, 0.1391437203, 0.1507973373, -0.0858545080, -0.1215146333, 0.0183655396, -0.2378301173, 0.0117632272, 0.2235032618, 0.0828699693, 0.0818415731, 0.0930596441, 0.0137575259, 0.1512218118, 0.2616263926, 0.2214132994, -0.0676826388, 0.0318313278, 0.0334909596, -0.3908791840, -0.2306843698, 0.1053945795, -0.3388882875, -0.1211794019, -0.0753984526, 0.0466502197, -0.2780025005, -0.2513703704, -0.1042151898, -0.3723897338, 0.1908254623, 0.0339348763, -0.1186765656, 0.2091701627, 0.1651476771, -0.1559571326, -0.1474204957, 0.2704839110, -0.1764324903, 0.2290632427, 0.3361982703, -0.0745481625, -0.1075008959, 0.3308532238, 0.0100513883, -0.3159086704, 0.0549257956, -0.1577836424, -0.2622630894, -0.2389993668, 0.1422476321, 0.0336823165, -0.2101532370, 0.1165415868, -0.1957690120, 0.0548072942, 0.0817864388, -0.5470417738, 0.0091772778, -0.2089097947, -0.2682179511, 0.0477753431, -0.1086498573, 0.1297729909, -0.1706754565, 0.1023787856, 0.0688997954, -0.5163695812, 0.2230460346, -0.1235495657, -0.1136288121, -0.2449612767, 0.1226648986, 0.2678791583, 0.2395021766, -0.0444984771, 0.1270628572, 0.2040851414, 0.1774451882, 0.0234341361, 0.0201988537, -0.0580764599, -0.2755156457, -0.4002249241, -0.2547569275, 0.2690908909, -0.3369525075, -0.1776301116, 0.2554022968, 0.0008177031, -0.1644071639, -0.3181654513, -0.1945265532, -0.1732870787, 0.2266676575, 0.0748651177, -0.2502696216, 0.0649171621, 0.0660812855, -0.2131912261, -0.1068870276, 0.3076521158, -0.0832008347, -0.1131776795, 0.1312286705, 0.0807339996, -0.0094337324, 0.1614896506, 0.4422379732, -0.4331005514, -0.1893120557, -0.1857417673, 0.1575707197, -0.2042648941, -0.2804444134, -0.1914987266, -0.2544102073, -0.0434719734, 0.0077277971, 0.1249491051, -0.0148332920, -0.3595363796, 0.0591459423, -0.1891465187, 0.1144565791, 0.0766084790, -0.0437536016, 0.2252903134, -0.0654259101, -0.0322262049, -0.0520412698, -0.2643701434, -0.1602845043, -0.2797913551, 0.1853672862, -0.2595908642, -0.2978264987, 0.0683664158, -0.0517342649, 0.0971373767, -0.1577065140, 0.0883385763, 0.0212011859, 0.0103841079, 0.0415190682, -0.1030454114, -0.3585994840, -0.0243797582, -0.2828021348, -0.0124434168, 0.2188531756, -0.3985305727, -0.3044278920, 0.0347793289, -0.3236444294, -0.0869073868, 0.0120075727, -0.3829650879, 0.0100562330, -0.0099322246, 0.2287602127, -0.1467644125, 0.0829393491, 0.0335753560, -0.1295574158, 0.2346122265, -0.0572013147, 0.4685441852, 0.2469822019, -0.1193596646, 0.0111023728, -0.0543801822, 0.1459952593, -0.1653871089, 0.1596555859, 0.1250711381, -0.2925513983, 0.0273272377, 0.1216652319, -0.0025390701, 0.1307637542, 0.1261370331, 0.0836746693, -0.0576078184, -0.0639405698, 0.1189682558, 0.2936410010, -0.0613429956, 0.5049203038, -0.1808133870, 0.2583930194, 0.1063802093, -0.0923196524, 0.0943055153, -0.1762394309, 0.2939173877, 0.0497687235, -0.0515716076, -0.0748436451, -0.1878645271, 0.0976257622, 0.2996600568, 0.1058085412, 0.2045719028, 0.3126929402, 0.2250046581, -0.1254597008, 0.1452878714, 0.0502542555, 0.0733751059, -0.4071744382, -0.0709675327, -0.0845786780, 0.1985436976, -0.0759376884, 0.0021291461, -0.0470388532, -0.0605635606, 0.0707426965, -0.1805056781, 0.3500338197, -0.0514975563, -0.2342663109, -0.2486583591, -0.1329399347, -0.0276898015, 0.0893937573, -0.2176308334, 0.0454495773, -0.2307059616, -0.0626833513, 0.0301915184, 0.2334394902, 0.2356069535, -0.3384716511, 0.0061091492, -0.6438671947, -0.0296065975, -0.1105878949, -0.1972511411, -0.4397982359, -0.3438585103, 0.2558199763, -0.1996175796, -0.2536908984, -0.2149775624, 0.1559987664, 0.0903663337, -0.0158657003, -0.2758115232, 0.2073670775, -0.2304602414, -0.1048515439, -0.2059061974, 0.0812112018, 0.2945154905, -0.5624902844, 0.2361633480, 0.2291319072, -0.2157906890, 0.1044619456, -0.3925842345, -0.1731356233, -0.2785753608, 0.2573598027, 0.2762969732, -0.1663563848, 0.1437736303, -0.2684353590, 0.0253011845, 0.0741551444, 0.1208226085, 0.2212592959, -0.0063371635, -0.2165305912, 0.0379243866, -0.1903844178, 0.2191694230, -0.2480766177, -0.3631066680, 0.0097075785, 0.1842094809, -0.3246436715, -0.2818221450, -0.0561492518, -0.4041197300, -0.0099607445, 0.2499032468, -0.2732067108, 0.2110882998, 0.5214341283, -0.0461194813, 0.0065751309, -0.1563300192, 0.2321033180, -0.4439783394, -0.1453630775, -0.1859194040, 0.1541022509, -0.3909429908, -0.1193275675, -0.0173912048, 0.2743694186, 0.2596396208, 0.2803768516, 0.1362927109, -0.0084433472, 0.2743840218, 0.0651740804, -0.3800395727, -0.2585170865, -0.4103412628, 0.0068843286, 0.2077624202, 0.0735663846, 0.3057402968, -0.3895087838, -0.2324842513, -0.3390557170, -0.4549152553, -0.4450927377, -0.1509627104, -0.3045877814, -0.0008850925, -0.3228779733, 0.3751903772, -0.1822457910, -0.0073413621, 0.0600279868, -0.1117504165, -0.1329436451, -0.1780587137, -0.2431892604, -0.0438735783, -0.2893004417, -0.3508449197, -0.4059311152, 0.0259346962, 0.2502346337, 0.2758270800, 0.2344460040, -0.2998555899, 0.1719773561, 0.1470596492, -0.4267649949, -0.3831680417, 0.1316639036, 0.0924618691, 0.2155394852, 0.4168657362, -0.2538943291, -0.3474805653, 0.1844007075, -0.0732097253, -0.4118643999, -0.2414686233, -0.1061872616, -0.1261785477, -0.3105691969, -0.0163729899, -0.0441732481, 0.1753726155, -0.0136308987, -0.0679348037, -0.0541631430, -0.1348902136, -0.0245520193, -0.2430849224, -0.0175629947, -0.2636504173, 0.2118135989, -0.0921035111, -0.2665435076, 0.1175302118, -0.1103559807, -0.1141248792, -0.1554537266, -0.2006714046, 0.0709546208, -0.1740996391, -0.2155260891, 0.0950355679, 0.3104327917, -0.0203555208, 0.0202744696, -0.2478897721, 0.2995921075, -0.1024020389, 0.0527233481, -0.0993459821, -0.0253862515, -0.3680954576, 0.2272927314, 0.1269323081, -0.1003528610, 0.1974441260, -0.0156534854, -0.0904084295, 0.1974008083, -0.3466968536, 0.2645144463, -0.0050637624, -0.0738145113, -0.4071382284, -0.1263970137, -0.1349544823, -0.1661949903, -0.1147890389, -0.0229621548, 0.2507964969, -0.2747808397, -0.2895417511, -0.3246903419, -0.1154242232, 0.2827775180, 0.0537657924, -0.0710846558, -0.1997155696, 0.3867280483, -0.0939122587, 0.1763329357, -0.1225572079, -0.2804478109, 0.0075744539, -0.0077687842, 0.0574580021, -0.2488713562, 0.3368394077, -0.0841732249, -0.1513555944, 0.1121388823, -0.2403748035, -0.2509076893, -0.5364894867, -0.2514751852, -0.5548400283, -0.3528107703, -0.3779795766, -0.1151906550, 0.0028203472, 0.1702449769, -0.5348637104, 0.1808813810, -0.1152722016, 0.1106386259, -0.2482840419, 0.0651936755, -0.0443353914, -0.0426615700, 0.2479875982, 0.0389642566, -0.3477481008, 0.0807054341, -0.6208587289, -0.0375043340, -0.2173692584, -0.0141060473, 0.1438626796, 0.0611195490, -0.2187825590, -0.2841592133, 0.0155369258, -0.0518569611, 0.1129305512, -0.1150287390, -0.2558461726, -0.2987859249, -0.1630783379, -0.4175496995, 0.1865354478, -0.0215211157, -0.2671763599, -0.0602867380, 0.1636926681, -0.3911615610, -0.4203763008, -0.2689620256, -0.2948207855, 0.0728204399, 0.0510882065, -0.2645654678, 0.0806553513, 0.2744305730};
#endif

#endif
