//Numpy array shape [48, 2]
//Min -0.316940963268
//Max 0.266819745302
//Number of zeros 0

#ifndef W19_H_
#define W19_H_

#ifndef __SYNTHESIS__
model_default_t w19[96];
#else
model_default_t w19[96] = {0.2263078839, 0.1453246772, 0.0009075668, -0.0301978532, 0.1851265281, 0.0925914720, -0.0742584914, -0.1634859890, -0.3169409633, -0.2565034330, 0.1310985535, 0.0623217188, 0.0814825669, 0.1962704808, -0.2601756155, -0.2178324759, -0.0993902013, -0.1286979914, -0.1230260506, -0.2174678445, -0.0585968234, 0.0121299531, -0.0888463259, -0.0232536700, 0.2104097605, 0.1791624129, -0.1206792817, -0.1758874208, 0.0946682990, 0.0286323112, -0.1791352779, -0.2624880075, 0.0383244380, -0.0555780642, -0.0183901526, -0.0781746954, -0.0902390480, -0.0217022114, -0.1601618677, -0.1074273363, 0.2668197453, 0.2109530717, 0.1167910770, 0.1881146431, 0.0125337495, -0.0941359252, 0.2020606548, 0.1609132588, -0.0379010476, 0.0577546358, 0.1777048409, 0.1321994364, 0.0441669300, 0.0012979839, 0.0948391110, 0.1707824618, -0.2059347928, -0.1069253236, 0.2013170421, 0.2585082650, 0.1379383355, 0.1966835260, -0.1072623804, -0.1681062728, 0.0316026770, 0.0833641142, 0.2612709999, 0.1716525406, -0.2587594986, -0.2900003195, -0.0631059557, -0.1259931922, -0.1860934496, -0.3070068061, 0.1585682780, 0.2536667883, -0.2231323570, -0.1379707307, -0.1907775998, -0.2592112720, 0.0643972829, -0.0142324334, -0.0687607974, -0.1386027634, 0.0988070518, 0.1719166189, -0.0054423623, 0.0612674430, -0.0900182724, -0.2074375451, -0.0992593095, 0.0773919225, -0.0256478153, 0.0084535209, 0.1749390662, 0.2358083725};
#endif

#endif
