//Numpy array shape [3, 3, 3, 80]
//Min -0.923178613186
//Max 0.374695837498
//Number of zeros 0

#ifndef W2_H_
#define W2_H_

#ifndef __SYNTHESIS__
model_default_t w2[2160];
#else
model_default_t w2[2160] = {0.1468220651, 0.1530848444, 0.1894322783, -0.2653010190, 0.0563404560, -0.3329550028, -0.0766480267, -0.1711120456, -0.1344158500, -0.0290275030, -0.1802502722, 0.2504256964, -0.0093057528, -0.0510854535, 0.1626310945, -0.1449933052, -0.0149775250, -0.2103370428, 0.1060012132, 0.0919300914, 0.2845478058, -0.2092622668, -0.1650367081, -0.1825747341, 0.2641007006, -0.0321127959, -0.5720334053, 0.0047351005, 0.0438291952, 0.2517925203, 0.2670558095, -0.0410349406, -0.6597149968, 0.0230286717, -0.1520970762, -0.1305519938, 0.1032136232, -0.1400967836, 0.1237088442, -0.1904756129, 0.0013362662, 0.0252339058, -0.0835696459, 0.0422031432, -0.2498176992, -0.0889777243, -0.1691486984, -0.0422470868, -0.2852390110, -0.0706022084, -0.1284893453, -0.0222285278, 0.2320323139, 0.0367744640, -0.0686940104, -0.0791148245, -0.0445643701, -0.2827392817, -0.0208656136, 0.0774176791, 0.0978436768, -0.3239808679, -0.3307937086, -0.0750669390, -0.4367855787, 0.1650809944, -0.0921722129, 0.1737917215, 0.1671578884, -0.0239620190, -0.2131248862, -0.0694341063, -0.1188254133, 0.1628153622, -0.1642937660, -0.2017921507, -0.2018885314, -0.0295013357, -0.1579995155, -0.1187552959, 0.1300332695, 0.1049908921, 0.0508049428, -0.1533293724, 0.0138095347, -0.2291670293, -0.2377274483, 0.0072615012, 0.1251748651, -0.0508360416, -0.0671413839, 0.2142661065, 0.0053985664, -0.2063724548, -0.1038274243, 0.1871417016, -0.3050515652, -0.1547102779, 0.0615678616, 0.0306005161, 0.1537835300, -0.1583834738, 0.0336866006, -0.0308691151, 0.2568476498, 0.0212227963, -0.2126111090, 0.2159220725, 0.0646731779, -0.0810703039, 0.2141121626, 0.0267525651, -0.9138301015, -0.1506748050, -0.2167944908, -0.0670254752, -0.0282187928, -0.1744377762, -0.2461920530, -0.1487500817, -0.0740711316, 0.1108515859, 0.0254257955, -0.0912849829, -0.0667691082, 0.1290485114, 0.0411788933, -0.1031925082, -0.0416929871, -0.2818769813, -0.0859172791, -0.0834592655, 0.2040729076, -0.1027559713, -0.1535751820, -0.1181173325, 0.0283649191, 0.1358734369, -0.1603748202, -0.1020044237, 0.0190457739, -0.2239115387, -0.3433516026, -0.2111409605, -0.0723760128, 0.1783656478, -0.1223318055, 0.2491901815, -0.0301721320, -0.0846313611, -0.1602503955, -0.0192447789, -0.1471236050, 0.1379176676, -0.1121918932, -0.0566357598, -0.1786124706, -0.0319533125, -0.0645154417, -0.1075715572, 0.1551750004, 0.1963271499, 0.1461516768, 0.0616935790, -0.0816907287, -0.2384884059, -0.1501279473, 0.1274720132, -0.1987181306, 0.0947468877, -0.1297137588, -0.0043383166, 0.1469227672, -0.0414436236, -0.0711469278, -0.1446685344, -0.0394009501, -0.1440890431, 0.0096148169, -0.0152896903, 0.2727967799, -0.0847026110, 0.0103143184, -0.2539867759, 0.1644995511, -0.0451588072, -0.0313909762, 0.0444179587, -0.0452037789, 0.0979127288, 0.1750659496, -0.0494618714, -0.2601855099, -0.0033995213, -0.0818432048, -0.1007405370, -0.1601109654, -0.0348590761, 0.0903244913, -0.1183025390, 0.1116816252, 0.2305002362, 0.0979527533, -0.0785274431, -0.0344505198, 0.1229279339, -0.1593045592, -0.1121470556, -0.1119688302, -0.1770772785, 0.1374659389, -0.0215632692, 0.1337929815, -0.0535113700, -0.2272120267, -0.1165855750, -0.0516343862, 0.0530011281, -0.1575300694, -0.0760514066, 0.0797333792, -0.2409553975, -0.2383646965, -0.2088251263, -0.2248519808, 0.1054037437, 0.0295760296, 0.1610975564, 0.1023590043, 0.1877212375, 0.0582502112, 0.0154325701, 0.0699439496, 0.2136547416, -0.1108536795, -0.0889348537, -0.0897876993, -0.0611820333, -0.0653961822, -0.0080969194, 0.0603823252, 0.1910163164, 0.2549448609, -0.1367866546, 0.2021528482, 0.1743095070, 0.1333745420, -0.2936514914, -0.1212429181, -0.0806738809, 0.1197739840, 0.0962497294, 0.0482430644, -0.2250161618, 0.2029210478, 0.0958980620, -0.2828947008, -0.3033500612, -0.1201780885, -0.1914980561, -0.0780721307, 0.0632471666, -0.2436271161, -0.5079017282, 0.2896269858, 0.0423983149, -0.2178229392, -0.1415683627, -0.2546517551, -0.3590407670, 0.0431522429, -0.2107917219, -0.4513996243, 0.1252890974, 0.0236954484, -0.0489338972, 0.0768805891, 0.0704854131, 0.1057847217, -0.0159309562, 0.2452145070, -0.2216939926, -0.0672794059, 0.0265235305, -0.2567968667, -0.1957048923, -0.0980159193, 0.0813286752, -0.0126362955, 0.0105611915, 0.0950656608, -0.3852989078, -0.2916778028, 0.1807525903, -0.1382840127, 0.0089959083, 0.1191695258, -0.2469118536, -0.1464291513, 0.0394514836, 0.2228121758, -0.0677411035, -0.6685423255, -0.0139555605, -0.4764235318, 0.0715674534, -0.0727230385, 0.0558079183, 0.1925998330, -0.4290330112, -0.3662873209, -0.1020720676, 0.2177801877, 0.0934988037, 0.1216321364, 0.1364702731, -0.3109707236, -0.0217716526, -0.0162167046, -0.0983335599, -0.0334508233, 0.1287137270, 0.0893922746, -0.2322890460, 0.1703915596, 0.1751638800, -0.2524881661, 0.0503705963, 0.1264043450, -0.1860653311, 0.0627193451, 0.1017958820, -0.0146927712, -0.3965523541, -0.0305515528, 0.1612671316, -0.5616151094, -0.2185717374, 0.0560491122, -0.3016732335, -0.1363261342, 0.2038240880, -0.0917834118, 0.0422574133, 0.2093481570, -0.0115194451, -0.1302994043, -0.1146160066, -0.0356636047, -0.5315968394, 0.0244583637, 0.0797261968, -0.5441347361, -0.1542202085, 0.0192862861, 0.0243398119, 0.0667555630, -0.0817302391, -0.2998426259, 0.0062848087, 0.0341352187, -0.3016710877, 0.0351527818, -0.0721223354, -0.2031071037, -0.1281941384, 0.0113452617, -0.0314795822, 0.2044685632, -0.1285697520, 0.0267443191, -0.4061228037, -0.2306663245, -0.0968130529, -0.2538050115, 0.0444206260, 0.0589400530, 0.0887068734, -0.2803833187, -0.0344019234, 0.1724350601, 0.0384204090, -0.5805823207, -0.2308612913, 0.0702151433, 0.2603782117, -0.0022950000, 0.1914009452, 0.0637506470, -0.2640795708, -0.3873549104, -0.0552835166, 0.1652460396, 0.1972249448, 0.1439223737, 0.0673523694, -0.1609929651, 0.1058666036, -0.1222835109, 0.0064620087, 0.0997174606, 0.1894243956, 0.2273718864, -0.0174752660, -0.0235373564, 0.1686073542, -0.1316101402, 0.1935206950, -0.1503895819, -0.0383412987, 0.0586524121, -0.0158306751, -0.0018101155, -0.1603615880, -0.1644101739, -0.2239714712, -0.1250890195, -0.1642466933, -0.0818604305, -0.3506371081, -0.0817395076, 0.1915323883, -0.0829177052, -0.1057216227, 0.1400924176, -0.0358305164, 0.2127067894, -0.3138234913, -0.1557126343, -0.1220975518, -0.0441079736, -0.1500644833, -0.3258528411, 0.1382901073, -0.0496188737, -0.1556326449, -0.1881581098, -0.0144302296, 0.1610235870, -0.1371682286, 0.0981957316, -0.0292677116, 0.0587535799, -0.0527797900, -0.1255587488, -0.1794547439, -0.2782954574, -0.0044463924, 0.1222351938, -0.2237990946, 0.1219825521, -0.2825487554, -0.2122020721, 0.0244006030, -0.2491028458, -0.0163181927, -0.0265085343, 0.0789357349, -0.3066906631, -0.0679873601, 0.1784919053, -0.1514944136, -0.2772697210, -0.1162299737, -0.0147506353, 0.0107376240, -0.1316270381, 0.1041927934, 0.1991737485, -0.0315080024, -0.1493168622, -0.1054230556, 0.2667294443, 0.1683302820, 0.0514201447, 0.1727318466, -0.1793947965, 0.1661371291, -0.0873827934, 0.1208148301, -0.0158773363, 0.0174999125, 0.0974303558, -0.2221228033, 0.1321040392, -0.2505362034, 0.1173050255, -0.3131923676, -0.2963170409, 0.0721097067, 0.1967854947, -0.2138773799, 0.0202115066, 0.1692568958, 0.1780807227, 0.0822208524, -0.1690317690, 0.1533550769, -0.2659834325, 0.2173242569, -0.2438288927, -0.1741892099, -0.2585794330, -0.4191433489, 0.1277957261, -0.0097320871, -0.0087467674, 0.0021134508, -0.2736282349, -0.3912450671, -0.3389507532, -0.2116037011, -0.0523213856, 0.1326019913, 0.1356149167, -0.0737190396, 0.0336145610, 0.1824941486, 0.1258127242, -0.0515479371, 0.1874287874, -0.3219141066, -0.0256832261, -0.0250847451, -0.1135695800, 0.2129877657, -0.0238064602, -0.0314453989, 0.0637830421, 0.0517258719, -0.0007042428, 0.0986313522, 0.1134352908, 0.2147465646, -0.1305836439, 0.0433527529, 0.1395152807, -0.2787277400, -0.0022419603, 0.0145483445, 0.1458037943, 0.0519685224, -0.4529756904, 0.0781055167, -0.3494300842, 0.0334535092, 0.0306404438, -0.0192157812, 0.0120651806, 0.0911764950, -0.1707571596, -0.0735193193, 0.1714263260, -0.2228956819, 0.2898464799, -0.0220495500, -0.0776529536, -0.1900190711, 0.0056314417, 0.0106478399, 0.1078898087, 0.0407119319, -0.0250673890, -0.2570554912, 0.0320588984, -0.1664116681, -0.3276528120, 0.1126657501, -0.2046533376, 0.0544911548, 0.2024476677, -0.0812943503, -0.0018525308, 0.1074493378, -0.0383186601, 0.3160696924, -0.6680034399, 0.1038996354, -0.2856200933, 0.0566909686, -0.1724601537, -0.1213517711, -0.0100572174, 0.0767005980, 0.1226960942, 0.0514284521, 0.0312774591, -0.1341177523, -0.1634720713, -0.5239556432, -0.2882134616, -0.1294810027, -0.1354503930, 0.0895024240, 0.1217690781, 0.0151248751, 0.0606033765, 0.1842248738, -0.3270493150, -0.1701067835, -0.0513891466, -0.3025329113, -0.0742482543, -0.0591174550, 0.0177908055, 0.1399714798, 0.0569202974, -0.0136533706, 0.2366299480, -0.0633674189, 0.0638098940, -0.0342278294, 0.0240543969, -0.0966801271, 0.0183926672, 0.1489131749, 0.1340630502, 0.1047514752, -0.1120107993, -0.1469413191, 0.0579127632, 0.1947513819, -0.3295609653, -0.1685844064, 0.0260642376, 0.0948798060, -0.0964359492, 0.0328166299, -0.1686213911, -0.0011135545, 0.0338233411, 0.0447799750, 0.0533028953, -0.1764342785, 0.1586645395, -0.0817914158, -0.1904354244, 0.0280751139, -0.0238757320, 0.1953966171, 0.1150700748, 0.1444659978, 0.1362726092, -0.1522483975, -0.0627915040, -0.1822088510, -0.2287973911, 0.1682712883, -0.1730171442, 0.0410852432, 0.0194968581, -0.2702243030, 0.1105167791, 0.1390118003, -0.1363113821, -0.1824714094, -0.3910389543, 0.1415662766, -0.1267818511, 0.0069488562, -0.1204257980, -0.1520184427, -0.0100348331, -0.1541960835, 0.2086953521, -0.0395479202, 0.2448186874, -0.1151968762, -0.1131116822, -0.1484879553, -0.1815382242, -0.1139943525, 0.0519349612, 0.2328772247, 0.1467496753, -0.1065889746, -0.0953076184, 0.0691390559, 0.1567586362, -0.1044296995, 0.1149320379, -0.0705709308, 0.0639758185, -0.0333147161, -0.1152092889, 0.0662677959, -0.3033983409, -0.1593391597, 0.0770714059, -0.2315095067, 0.1811224073, 0.1012070253, 0.1179166138, -0.0424539819, 0.0505596399, 0.0400251150, 0.1528064013, 0.0543779433, -0.0760299712, -0.0552433059, 0.0992472172, 0.1263010949, -0.3099168539, -0.1017419770, 0.0752044842, 0.0452139787, 0.0404034182, 0.0035488610, 0.1412977725, 0.1884009242, -0.1189380214, -0.0424838848, 0.0638687089, -0.1799101382, 0.2475378066, -0.1525167823, -0.0851527974, 0.0677886158, -0.0907001495, 0.2395614088, -0.0067485343, 0.0980811864, -0.1484573931, 0.0622830875, 0.0267686564, 0.2358119786, 0.0732255057, -0.2314596772, -0.0512474924, -0.0550931878, -0.2527484894, -0.1431737542, -0.2761020958, -0.1218405738, 0.2556786537, -0.1245524958, 0.0032527589, -0.0682213530, -0.1169511154, 0.2348836213, 0.3298075199, 0.1837174147, -0.3016281128, -0.3560625315, -0.2971629798, -0.0319938958, -0.8019869328, 0.2894144356, -0.0661985278, -0.2939217389, 0.1293214262, -0.0450780168, -0.2722168267, -0.3001206815, -0.1863698065, -0.2040854096, 0.1575755775, -0.2932776511, 0.1736522317, 0.0846726894, -0.1304106414, 0.0051788948, 0.0430724435, -0.0561731234, -0.3163139820, -0.0353888199, -0.3023804426, -0.0001957736, -0.2900831997, -0.1610867977, -0.0797985345, 0.1317416430, -0.0397643521, 0.0338853225, -0.0273203906, -0.0359117873, -0.1559077352, -0.3650880158, 0.2403284609, -0.0212104581, -0.0282158852, 0.1172628999, -0.0950942412, 0.0255242549, -0.4962912798, -0.1039119661, -0.0458214059, -0.0891650543, -0.0113870371, 0.2407564670, 0.0835711062, -0.0396572463, -0.1545009017, 0.1042828560, -0.2259764969, -0.0231423043, 0.0949002430, -0.2904717028, -0.1955334395, -0.2893472612, -0.1776458323, 0.0820906609, -0.2010447532, 0.1222747043, -0.1743265092, 0.1789720953, -0.2077352107, 0.0303755850, 0.2246446162, -0.1229645833, -0.1981555820, 0.1109107733, -0.2591717243, -0.3682783246, -0.0788960308, 0.1576026827, -0.0706543550, -0.2001767457, -0.0515942648, 0.1816401184, 0.3187142611, 0.1753087193, -0.0011477376, 0.1288002580, -0.2429915816, -0.0237596575, -0.3001565635, 0.2925050855, -0.1231740639, -0.4200361371, 0.0448912084, 0.1060083956, -0.4850411713, -0.6333491802, -0.2107546777, -0.1202427223, 0.0136984838, -0.4104511440, -0.3655207455, 0.0562236868, -0.4715035558, 0.1441895217, 0.0729420781, -0.0006490031, -0.0172250345, -0.2237729132, 0.0513225123, 0.0151132597, 0.0040807999, -0.2644345164, 0.0314782783, -0.0431109406, 0.0074315616, -0.2402697504, -0.1380984932, -0.0400791578, -0.2957643270, 0.1197336018, 0.1201630458, -0.1284489036, -0.1098207682, 0.1413469613, -0.0703846887, -0.0765051395, 0.0689307526, 0.0348486118, 0.0027687917, 0.0800843388, -0.2188608646, 0.2479668260, 0.0393770225, 0.0434800684, -0.2324336171, 0.0025799177, -0.1954999715, -0.0909250081, 0.1175752729, -0.2751437426, -0.0855539292, -0.1564448923, -0.0323509015, -0.0188161507, -0.0275725909, 0.0892272219, -0.3528037369, 0.2085455507, -0.2717122734, 0.0996934250, 0.0592886321, -0.1334322989, -0.2159036100, -0.1261983067, -0.0648592487, 0.0362911671, -0.1840360910, -0.3024324775, -0.0802460462, -0.2163443863, -0.0369746312, 0.1584092528, 0.2154950500, 0.1553111076, 0.0002660898, -0.0469766259, -0.2141109258, 0.0326177478, -0.0122589730, 0.1064118892, -0.2311390042, -0.2493775040, 0.0877955630, -0.1310674846, -0.2380668968, -0.1735679954, -0.2340848744, 0.0273536053, -0.1364490688, -0.1749342233, 0.1249765903, 0.1146253273, -0.0876475200, 0.0782744139, 0.0992431119, -0.1069149598, -0.2286830246, -0.0916763544, -0.1535648555, -0.1173293218, -0.0839832947, -0.1466839164, 0.0178977996, 0.0923979431, 0.0598511547, -0.1211959869, -0.1619691402, -0.1203452349, -0.2363621742, 0.0870757326, 0.0692192018, -0.0080527673, 0.0113627873, 0.0103621539, 0.2950700521, -0.0044185589, -0.1331015974, -0.1852244288, 0.0010909981, 0.0715165511, 0.0559792183, 0.2304584235, 0.2341408134, -0.0217166375, 0.0431707129, -0.0032752980, -0.1686905771, 0.0238946266, 0.1543089151, -0.1061822027, -0.1136814207, -0.0533688664, -0.6028022766, 0.0635693967, -0.4136465490, -0.0595716164, -0.0587788559, -0.2734921873, 0.1922074258, -0.3570103049, 0.1396708786, 0.2355943322, -0.0130941654, -0.1336512268, -0.1955160201, -0.2232404202, 0.1785882562, -0.0004242049, 0.0087450417, -0.2341180742, 0.1852325797, 0.1326433271, -0.0423953161, 0.1727655828, -0.1838241071, -0.4697946906, -0.2305586934, -0.0958514884, -0.1758543253, -0.1150321588, 0.3340871334, -0.3707948029, -0.1744128168, -0.0682436824, 0.0035785818, -0.4038462937, 0.0168812871, -0.0397664048, 0.0747695863, -0.0079202019, 0.1804290712, 0.3131514490, 0.0480444878, -0.3342738748, 0.0302515645, -0.0807474703, -0.2285828441, -0.0475817882, -0.1284223944, -0.1128038242, -0.0708254725, -0.1410407126, -0.5789464712, 0.0219410975, -0.2293938696, -0.0425117314, -0.2384166121, -0.1066819429, -0.1254583299, -0.2947864234, 0.0411639027, -0.0457083583, -0.4412822127, 0.0014156697, -0.2315694094, -0.0590905845, -0.5944969058, -0.0385810807, -0.0965204313, -0.0647503734, -0.2756677866, -0.2086456418, -0.1431694776, -0.1102715880, -0.3471666574, -0.0524491146, -0.0269837584, 0.1975094080, 0.1006736010, 0.1115600616, -0.1286648065, -0.2581321001, -0.7460525036, -0.0150412545, -0.4326007962, 0.1055332422, -0.0674042851, -0.2850142419, -0.2419558913, 0.0989171490, 0.2943711281, 0.2478303760, -0.0104689188, 0.1374007910, -0.3306549191, -0.2674331963, -0.0705584437, 0.2821665108, -0.3249778748, -0.2404538989, 0.2800092697, 0.1403489709, -0.0021349101, 0.1964434683, 0.0273172855, 0.1487725079, -0.1211890802, 0.0164372399, -0.0210639779, -0.1336928904, 0.3195631802, -0.5347041488, -0.0800490230, 0.0666972250, -0.0274654794, -0.5492266417, -0.0127516072, -0.1787022203, 0.0847885460, -0.0500385351, -0.4079714417, 0.3746958375, -0.3252010345, -0.3219078183, -0.0059465556, 0.0614807308, -0.0488595106, -0.2032486349, 0.1164011955, 0.0212158300, 0.1571510732, -0.0782321244, -0.6433478594, -0.1671672314, -0.3421710730, -0.4004285038, -0.3473198414, -0.1042340696, -0.1457545310, 0.1429128200, -0.1570085138, -0.0735494271, -0.3768611550, 0.0426414572, -0.2928627431, -0.2145629078, 0.0097863749, -0.1483332366, 0.0336128213, -0.0675743148, -0.5403630137, -0.1151036397, -0.2740853727, -0.1055776402, -0.3855057955, -0.0046031470, -0.1025541872, 0.3092330396, -0.0095914043, 0.0838614106, -0.1535845846, -0.3606385291, -0.5149493217, 0.0420971736, -0.3425374329, 0.0417943522, -0.3194739819, -0.2311037630, -0.0977095142, 0.1410221606, 0.1162738577, 0.2487353683, -0.0008407237, -0.2048678696, -0.1349849999, -0.1541558653, -0.1996512413, -0.1702810824, -0.1703900993, -0.1861812025, 0.1820755452, 0.1878001988, -0.1223842725, 0.0596910268, 0.0387378708, -0.0084602740, -0.1556666344, 0.0289198905, 0.0389024019, -0.2152987421, 0.3166017830, -0.1740853786, -0.0533358343, -0.1240988150, 0.0680125505, -0.3501062989, -0.0465971939, 0.0490361862, -0.1634971648, -0.0621986873, 0.1385005563, 0.2872695327, -0.0731545687, -0.0960013941, 0.1579268277, -0.0203994568, -0.1036768556, -0.1418835074, -0.1698621064, -0.1402965337, 0.0548392981, -0.0696060061, -0.2821443379, 0.0004566578, -0.2448116243, -0.1853118688, -0.2091152817, -0.1527562588, -0.2335478812, 0.1112973467, -0.1869218796, 0.0200417768, -0.2809826136, -0.0785456300, 0.1245841980, -0.1059775501, 0.0940798223, -0.3080455363, -0.0546589009, -0.0007950514, -0.3080485165, -0.0594435595, -0.0032584732, -0.0794736296, -0.1847377270, 0.0305842794, -0.0699560270, 0.3357887268, 0.1245247722, 0.1549975574, -0.1185428202, -0.0821513236, -0.0035286127, -0.0238007419, -0.2272428870, 0.0224855598, -0.1109436303, 0.1024981067, 0.1175145581, -0.3519534767, -0.0969443992, -0.1764814854, 0.2109562010, -0.0327233598, -0.2282025665, 0.3369408846, 0.2560504973, 0.0930063054, -0.0920698047, -0.2517322004, -0.0739209354, -0.1595363170, -0.2362284511, -0.2727553546, -0.2630505860, -0.4652614295, -0.1195491180, -0.0340335369, 0.0133324293, -0.0949311554, 0.1530542076, -0.3807222545, -0.1063083932, -0.1536975950, 0.1728596538, 0.0680273771, 0.1883844286, -0.1325296909, 0.1305440217, 0.2656342387, 0.0848626569, -0.0078227194, 0.0995781794, -0.2163199484, 0.0439596511, -0.0665325373, -0.1427459866, -0.1508154422, -0.2513005435, 0.0457156450, 0.0166965798, -0.1770975143, -0.3304154873, -0.4577537477, 0.2306769788, -0.0241932720, 0.1424760669, -0.0475809947, -0.0054474152, -0.3711320162, -0.3731935024, 0.0104417186, -0.2020201981, 0.0591652580, -0.1907598227, -0.1046724245, -0.3302814662, -0.2351679206, -0.0242098700, -0.3333872557, -0.4258562326, 0.0381921045, -0.3529506326, 0.0188113321, -0.0999006331, -0.2340712100, 0.1075355262, -0.1741427481, -0.1896539032, -0.0969047174, -0.0867076367, -0.1618756503, -0.0719658732, -0.0570567846, -0.1240759119, 0.0864011347, -0.1834544390, 0.0515423864, -0.2369381040, 0.0603169985, -0.0707783997, -0.0983877257, 0.2143452018, 0.0545229279, -0.2800516784, 0.2826759517, -0.1027625352, 0.2003929913, -0.4325113893, -0.1666705757, -0.0752857178, -0.2001726478, -0.2005822510, -0.0453494899, -0.0206712186, 0.1422943622, -0.1961614639, -0.1096414030, 0.1003334373, -0.2624784410, 0.2468629777, -0.4213478565, -0.0065803085, 0.0093941148, 0.0678982809, -0.0908651799, 0.2310379744, -0.0955440477, 0.0245834310, 0.1842978299, -0.3324269354, 0.1207450256, -0.0952527300, -0.2824295759, 0.1173656583, -0.0052846191, -0.1187109873, -0.1504348963, 0.1037513241, 0.0216345843, 0.2052684426, -0.0902213976, -0.4255953729, -0.5393778086, 0.1474940181, -0.1752874106, 0.1073396578, -0.0174844749, -0.1424528062, 0.0832243413, -0.6635580063, -0.0679439306, -0.1265181601, 0.0938437358, -0.1716759354, -0.1755526215, 0.0072692246, -0.1751575321, -0.0598157197, -0.1319586337, -0.9231786132, 0.0396697931, -0.2919007838, -0.1007391661, -0.1405748576, -0.2139291167, 0.1274724007, -0.1372834444, -0.5595068336, -0.0386679098, -0.0211424753, -0.1027417481, 0.0198421851, -0.0791471750, -0.1699778140, 0.1519954950, -0.3582567573, 0.0123626310, -0.1546135396, 0.1963098496, -0.0745299831, -0.1446325928, 0.0412396751, -0.1395873874, -0.1175091788, 0.2431176901, -0.2006979883, -0.2248608768, -0.2840410471, -0.1398884803, -0.1390850693, -0.0222759284, -0.1924846619, -0.1031635255, -0.0837452784, 0.0307198651, -0.1546450406, -0.0498292856, 0.2524431646, -0.2873327136, 0.2013753206, -0.2123972178, 0.0701053068, -0.0590767264, 0.1004106626, -0.0795154274, 0.2430194318, 0.0311318208, -0.2761154175, 0.1157555580, 0.0697554126, 0.0871240646, -0.0478945263, -0.0828507692, 0.0503828339, -0.0471432842, -0.1103127524, -0.2178582400, -0.1478866041, -0.1831685454, 0.1059907898, -0.1810167283, -0.0428296998, -0.4698907137, 0.2390221506, -0.2245443314, 0.1282137334, -0.0404966250, -0.1040026620, 0.0886947736, -0.4497620165, -0.0909552127, -0.1910760701, 0.0041288598, 0.1833909154, -0.1049488187, 0.0972390845, -0.3714402914, -0.0985169336, -0.2186443806, -0.3183795512, 0.1118515879, -0.0198813844, 0.0037820428, -0.0566227809, -0.2673823237, 0.0854008570, -0.2238567173, -0.4450083375, 0.0727213472, -0.1428303868, 0.1243873686, 0.1561766863, -0.0324454643, 0.1133410782, -0.2850579321, -0.1365934163, 0.0067378157, -0.0031384716, -0.0878132135, -0.2099946588, 0.2115554661, 0.0001813704, -0.3135216534, -0.2030264735, -0.1323933750, 0.1789110154, 0.0660697743, 0.2066796273, 0.1281658858, -0.3348712623, -0.3578069210, 0.1618132591, 0.0481493585, -0.1933604926, -0.1903277338, 0.0609990284, -0.0500855036, -0.6773629785, 0.2939885259, 0.1057768986, 0.0777120963, -0.2931830585, 0.0174161438, -0.0172899347, 0.0038960692, -0.2401691079, -0.0367176235, 0.1592015475, -0.2708211243, 0.1729004383, 0.0234342311, -0.1071244925, -0.0313097537, 0.0841817707, 0.0335028172, -0.0131013747, -0.2173198014, -0.2199964374, 0.0074095256, -0.2793004811, 0.0861174539, 0.2445417196, 0.1987148076, -0.2191026062, 0.0820120648, 0.1471653432, -0.1997442544, 0.0482016429, -0.4589614272, 0.2327444553, -0.0373375155, 0.0486651473, 0.2278737426, -0.3181659281, 0.2218199223, -0.6125963330, 0.0078755021, -0.0546743385, -0.2250982672, 0.0547617264, 0.0742379576, 0.1005043760, -0.0176026132, 0.2455471307, -0.2427781224, -0.0074317167, 0.1666515321, -0.0681384951, -0.2004086375, -0.0210056733, -0.3809660375, 0.0772311911, -0.1041612178, -0.0259741507, -0.0254937243, -0.2035900056, -0.0991822183, -0.1846276522, -0.0243959147, -0.1029060259, 0.1910664290, 0.0066678817, 0.0419371687, -0.0888592005, -0.2069266886, -0.0379396267, 0.0361131616, 0.0589307025, 0.0754643679, -0.1710191518, -0.3481410146, 0.1947585493, -0.1977660358, 0.0274754241, 0.1915549636, 0.0102467462, -0.1165745482, -0.3788163662, 0.2279233485, -0.0143690733, -0.0776853859, -0.4165596664, 0.1807364672, -0.1679775715, -0.0906241313, -0.1896526217, -0.1029843315, -0.0182080735, -0.2576936483, -0.1910211593, -0.0745484680, -0.6536598206, 0.0586404614, 0.1262197047, -0.0776484460, 0.1782299727, -0.0653490126, 0.1104689389, -0.0144613432, -0.1465260684, 0.1381743550, 0.0705635622, 0.0043777046, -0.0730238929, -0.0615082346, 0.1161640584, -0.1746920049, -0.0177599695, -0.0657789186, 0.0294551533, -0.0739762783, 0.1348069012, 0.1407114416, -0.2790628672, 0.0469197780, -0.0482423902, -0.2162486017, -0.0341516063, -0.1027887687, 0.1184485406, 0.1047224626, 0.0990136191, 0.0017988480, 0.1615434289, -0.3633900285, 0.1822872907, 0.0385961197, -0.0755396858, -0.1434581429, 0.0560639687, -0.3529696167, 0.0495193265, -0.0112522095, 0.1443817616, -0.1640443802, -0.2352680266, -0.0115542552, -0.3288066089, -0.0504022911, -0.0914429054, 0.0525207631, -0.0648979470, -0.2465875894, -0.0415466651, -0.0347717889, -0.1730112433, -0.2621156871, -0.0524007082, 0.0475300290, -0.2032914907, -0.2263802588, 0.0630031377, -0.0246937443, -0.1048533693, -0.0789002404, 0.0061666979, -0.1045981273, -0.1030807048, 0.0832597464, -0.0607629791, 0.1530852765, -0.2877812684, 0.1890407950, -0.0627975017, 0.0200963598, -0.2223503888, 0.0110658007, -0.2907029092, -0.1233295649, 0.0704954192, 0.0338287801, -0.1246540099, 0.1260707080, -0.0072894413, 0.0193374287, 0.1108082235, -0.1319909394, -0.0899240449, -0.1935419440, 0.1499680281, 0.1954230666, 0.1016379818, 0.0456104837, -0.0264067017, 0.0148146525, -0.0213305131, -0.1130102128, -0.1000590473, -0.2080365270, -0.0925897658, -0.0175067298, 0.1505214870, 0.1424960643, 0.1728252172, 0.2247447968, -0.1170859635, -0.1409472078, -0.1023930982, -0.1849755645, 0.0724470392, 0.1087198555, 0.2147005349, 0.0276137255, 0.1611222476, -0.2883962095, 0.1243511215, 0.0304929726, 0.0692747086, 0.0339851491, 0.1426448971, -0.1510486305, 0.1032791287, -0.0522154756, 0.1132656783, -0.2774406970, -0.1629653275, -0.0977341682, 0.1883567274, -0.2402907014, -0.2088837177, -0.4208025932, -0.2265260071, -0.1166076288, -0.2277104408, -0.1501591206, 0.2173975855, -0.1098992899, 0.2942578495, -0.2257305235, 0.1712040007, 0.1221660003, -0.0814062953, -0.1487903148, -0.2916148901, -0.2282857001, -0.0041650520, -0.0939323679, -0.3288277686, 0.0317913815, -0.0333586931, 0.1651287526, -0.0625449345, 0.0058925631, 0.3038315773, 0.1934953630, 0.0354302414, -0.0692319721, 0.1641465276, -0.4020487368, 0.1967558265, -0.2842692137, -0.1246214807, -0.2908096015, 0.0786391869, -0.0571927018, 0.1585328281, 0.0034493876, -0.1568612307, 0.0435275696, -0.1610703319, -0.0284393989, 0.0985026434, 0.3069963455, 0.2670001686, 0.1781412065, -0.2028413862, -0.0845756531, -0.2339693755, -0.5191891193, 0.3031349778, 0.0710400715, -0.0617279187, 0.0034066404, -0.2561135292, 0.2146222293, -0.6196660399, 0.0850721002, -0.0600840077, -0.2210152298, 0.0579455309, 0.0085196262, 0.1855399609, 0.0211674199, 0.1744497269, -0.1315415651, -0.3782053590, -0.3039399087, 0.1244238913, 0.1210849583, -0.1445202380, -0.5993189216, 0.0212129336, -0.1795256436, 0.0697876886, -0.0914540514, -0.3294802010, -0.1191200465, -0.2287097573, 0.0116800163, -0.0605128706, -0.3527327478, -0.4068160057, 0.2423022389, -0.2637770772, -0.2283053994, 0.0278767813, -0.1443301141, 0.1334976405, -0.1566277295, 0.2514258027, 0.1849914938, -0.0403454266, -0.3954287171, 0.0165860299, 0.2233894914, -0.1192221791, -0.0333829150, -0.2601067722, 0.0454586223, -0.0939028114, 0.1734173149, -0.2050049752, 0.2074849457, 0.0410316288, 0.0384461135, 0.0427508801, -0.2308407575, -0.0273411777, -0.4674275219, -0.3157335818, -0.2803826928, -0.4370474517, -0.2221675217, 0.1295223087, -0.0996494591, 0.1997228563, -0.1145637557, 0.0259257983, 0.0233723093, -0.3556693494, 0.0504946373, -0.0863130391, 0.1948063523, 0.2899546623, -0.0339571051, -0.1094291359, -0.1185571477, -0.3214063942, -0.1203243136, 0.0827992707, -0.0625984073, 0.0565488786, -0.2628327012, -0.3414703310, 0.1016902849, 0.0141508244, -0.3119634092, -0.0838175341, -0.1969910115, -0.0220077503, 0.0204551518, 0.1611820161, -0.0751438737, 0.0333477519, -0.4670294523, -0.3000045419, -0.4129914343, 0.1436204612, 0.2254205942, -0.0597273558, -0.5295591950, 0.0614327267, 0.0520939380, 0.0412582941, -0.0997374952, -0.2922001779, -0.1355311573, -0.2520659864, 0.0035566732, 0.0896661207, -0.3599651754, -0.2760786712, 0.0662987530, -0.1578481793, -0.0488465279, -0.2194555551, -0.4056663215, 0.1039442569, -0.3297739625, 0.2464571148, 0.2687419653, -0.0931246206, -0.2610249221, -0.0826248974, 0.0893979892, 0.1154634580, -0.1050796434, 0.0502554402, -0.0068212757, -0.0167195275, 0.2691225410, -0.0492594354, 0.0788649246, 0.1934200674, 0.0854430497, 0.0511760898, 0.0151379965, -0.2553645372, -0.2202186882, 0.1499802172, -0.2131190598, -0.2315355688, -0.0635817125, 0.0130689945, -0.0272527430, 0.1603025347, -0.1444700509, 0.0204602685, -0.1912777275, -0.1802964360, -0.0416069366, -0.1212739870, 0.1760317981, 0.3214149773, -0.0325401574, -0.1279335022, -0.1471215934, -0.1554580927, -0.2078002095, 0.0922877342, -0.0665102527, 0.0076616365, -0.0537146516, 0.0110091111, 0.1910266578, -0.0155357113, -0.1589338928, -0.0464383215, -0.2846361697, 0.0892205462, -0.0039109653, 0.2602918744, -0.0685876980, 0.0913249999, -0.1587913930, -0.2195138782, -0.3121560812, 0.1262746155, 0.1255780309, 0.0485045426, -0.0802632347, 0.2015605122, -0.1442677230, 0.2130799741, -0.1461906880, -0.1396696121, 0.0828747079, 0.2054635286, -0.2354990095, -0.1998957396, 0.1091512144, -0.0151101639, 0.0026507634, -0.1482522339, 0.0871076807, 0.2349103838, -0.1364337057, 0.1600470245, -0.1473852247, -0.1488827765, -0.1637844145, -0.1449336708, 0.3214023113, -0.0849366859, -0.1587554067, -0.0861907452, 0.0196347516, -0.0870565325, -0.0824857503, -0.1538763791, 0.0805922374, 0.1937488616, 0.0976976529, 0.0890309662, 0.2339282781, 0.1956336498, -0.1227389872, 0.0802018419, -0.3314675987, 0.1403066069, -0.0285245534, 0.2693836093, -0.3869740069, 0.0014856246, 0.0178248752, 0.1701772809, 0.0108434623, -0.3085049987, 0.0379317477, -0.1500714570, 0.0894336998, 0.0890796036, -0.0074895555, -0.1836894155, 0.1352655143, -0.1188149378, -0.1858755648, -0.0823276266, -0.4939091504, -0.2639296055, -0.0359426476, 0.1800591797, -0.1771101505, -0.3692853451, 0.1589967608, -0.3993440568, 0.0073609240, 0.0411853045, -0.3100786805, -0.1324115694, -0.0332218483, -0.2473175377, -0.0141427722, -0.0001013362, -0.0934253335, -0.1652760059, 0.2191542089, -0.0070725083, -0.0911036655, -0.1976815313, -0.2489748001, 0.1643345058, -0.2112430185, 0.2423670143, -0.1797769666, -0.2197154164, 0.0048353551, -0.1896196753, 0.0727928653, -0.1623658985, 0.0874208212, -0.3145622015, 0.3681381047, -0.2155091465, 0.1895381063, -0.0395332389, -0.2258282006, 0.0298079159, -0.1717851609, -0.0243100189, 0.0472394153, -0.0843744799, 0.2307817489, -0.0980591401, 0.1033318266, 0.0030699314, -0.0632946938, -0.0649943948, -0.1345225722, -0.2356843501, -0.0874656886, 0.0966079310, 0.1145031527, -0.0632180199, 0.1488524675, 0.1878726482, -0.1969605535, 0.0113130882, -0.3556995988, -0.2285314649, -0.0384762213, -0.1239410192, -0.4945552051, 0.0315219015, -0.0866011754, 0.2209287435, -0.1963000298, 0.0069177486, -0.0702355653, -0.1581219137, 0.1388691217, -0.1239959002, -0.2278469503, -0.1911794245, -0.0620093569, -0.0855767578, -0.0943155065, -0.1649054736, -0.1830318868, -0.4225836098, -0.0181600098, 0.2107117772, -0.4254365563, -0.3222154677, -0.0013994905, 0.0809111446, -0.3790907860, -0.0331092812, -0.1862477213, -0.2368330061, -0.0282495189, -0.4004850090, -0.0548591875, -0.0692583397, -0.1115479618, -0.2040012926, 0.2342074513, -0.1909091920, -0.0531154685, -0.0195611324, -0.1607694924, 0.0770235211, -0.0122205913, 0.1018118784, -0.0863738060, -0.3128353655, 0.0299393144, -0.2780737877, 0.0808359087, 0.1292764097, 0.2917196453, -0.1992973685, 0.2635588348, -0.0731856823, 0.1816840917, -0.1994086951, -0.3516227007, -0.0005401016, -0.3514626920, 0.0055859759, -0.0210473053, 0.0146706579, 0.1923014671, -0.1297381967, 0.0575993881, -0.0752227232, -0.1263392121, 0.0637462884, -0.2369358540, -0.0972292200, 0.0164847746, 0.2634390295, 0.1791182160, 0.0793972909, 0.0671160370, 0.1138211787, -0.1063579693, -0.2738530636, -0.3339587152, 0.0606301054, 0.0014591764, 0.0631176308, -0.2888718545, 0.1355869025, -0.0534217432, 0.2173355222, -0.2351579815, -0.0733599961, -0.1013645530, -0.1144562885, 0.0613288842, -0.1350238472, -0.2370913476, -0.2867545784, 0.0537804514, -0.0419881307, -0.0656249225, -0.0310989730, -0.1793938130, -0.4899544120, -0.1190150604, 0.2520369291, -0.2680168748, 0.1032944694, 0.0748483241, -0.0248522498, -0.1119895056, -0.1182102710, -0.2510959804, -0.1111972332, 0.1103203669, -0.1301397681, -0.0350438394, 0.0625636950, -0.0096578691, -0.0692248419, 0.1877834946, -0.2161338329, 0.1098460555, -0.0580911003, 0.0685587078};
#endif

#endif
