//Numpy array shape [3, 3, 80, 64]
//Min -1.646200656891
//Max 0.910461127758
//Number of zeros 0

#ifndef W5_H_
#define W5_H_

#ifndef __SYNTHESIS__
model_default_t w5[46080];
#else
model_default_t w5[46080] = {-0.0702355951, -0.1808917075, -0.2102554739, -0.1133388132, -0.0483178161, 0.0012646003, -0.4545554519, 0.2901846170, -0.0154945273, 0.1526087224, 0.0466535091, 0.4373298287, 0.2044423819, 0.1079222858, -0.2438035905, -0.3205708563, -0.1829703599, 0.1355039626, -0.0705978423, -0.4459904730, 0.1141010821, 0.2779337764, 0.0570219196, -0.0940662473, -0.0635543615, 0.0743711591, -0.1686529666, -0.1041893438, 0.2624812424, 0.0867587849, -0.1447735280, -0.1638365090, -0.2801259756, -0.3660711944, 0.1633651257, -0.2154735774, -0.0622925274, 0.0333884172, -0.2411121130, 0.0250535849, 0.0117998216, 0.2533184886, -0.3629256785, -0.2634966373, -0.0197519157, 0.4216804206, -0.2356113642, -0.2716432214, 0.0598488115, -0.1448052824, 0.0823032707, -0.0229598731, 0.1796324998, -0.2474265695, -0.0053841122, -0.4651536047, -0.3462719023, 0.0004318799, -0.2895096838, -0.3266217709, -0.0441634730, -0.1001450047, 0.3010035157, -0.2904449105, -0.0338183977, -0.0910096690, -0.1779334247, 0.0316219218, -0.1518460363, -0.0307787936, -0.0413406305, -0.0216153301, 0.0583611429, -0.2923049331, -0.2286739498, -0.1663960516, -0.0735193416, -0.1409912109, 0.1922948360, -0.1766460091, -0.2023183405, 0.0819912329, -0.0729140043, 0.2341156006, 0.0497630537, -0.0639013797, -0.0107573038, 0.0606048405, 0.0778221190, 0.1895464212, -0.3660530448, 0.0533885956, 0.0066481563, 0.0389735438, 0.0120007079, 0.0137213925, -0.1906522363, 0.0526083186, -0.2789363563, 0.2041968852, 0.1755235344, -0.1228150427, 0.1501307935, -0.2923645079, -0.2304447293, 0.1491934508, 0.0846571252, 0.0731270537, -0.2513849735, -0.0203906745, 0.0544855632, 0.0943941996, 0.0500665978, -0.1479222178, -0.2434001267, -0.0374904759, 0.0635548905, 0.1005386263, -0.1812275052, -0.0406178944, -0.3700597882, -0.0336709172, -0.1138694733, 0.0752509460, -0.0006112900, -0.0018052282, -0.0232907329, -0.1017830521, -0.0747263134, -0.9948081374, 0.1892796904, 0.0467198044, 0.0092153028, -0.0695293173, -0.1969288588, 0.3509491384, -0.0251779705, -0.0386778936, -0.1214371771, 0.2663094103, -0.1016150191, -0.0680885166, 0.1267052889, -0.1532579064, -0.1540718526, 0.3292552829, -0.0301217418, -0.2753469646, 0.1558993310, 0.0321864709, -0.1794779152, -0.0962375775, 0.1247072443, 0.2468870133, -0.2956640124, -0.0380462818, 0.2294540405, -0.1378611177, -0.0482129566, -0.2480341047, 0.1585525423, 0.1827915162, -0.0748351291, -0.1931838244, 0.1159342453, -0.1626731306, 0.1298051625, 0.1186006591, -0.0629917085, 0.2398888767, -0.0061612283, -0.0894771069, -0.1336729974, 0.4158715308, -0.2536529899, 0.0262561981, -0.0289399493, 0.0226748735, 0.1696236134, -0.0774442777, -0.0247118641, 0.0528829917, -0.2567597628, -0.3768524826, -0.3471243382, -0.0489244536, -0.2217752486, 0.0803418979, 0.0723347813, -0.2505206168, 0.3128300607, -0.2963175774, -0.0480752215, -0.0001802276, 0.1161888838, -0.2594985068, -0.1395548284, -0.2405448109, 0.1194261909, 0.0720673725, -0.0452264138, -0.0002638699, -0.3746970892, 0.0028758547, 0.2006711215, -0.1030501947, 0.0954647362, -0.0383737944, 0.1018135175, -0.1823453754, -0.1759639680, -0.0722905174, -0.2519523799, 0.2626794577, -0.2526412308, 0.1342442483, -0.0454475544, -0.0031969585, -0.0483267680, 0.0047240858, 0.1073909104, -0.0368364044, -0.0313664041, -0.0841101035, -0.1371048689, -0.1341103613, -0.0095159663, -0.2050296962, 0.1649041921, -0.1079881117, 0.3707639277, -0.0249206200, -0.1425552219, -0.0070719826, -0.1141846702, -0.2446454167, -0.1027018875, 0.1186170503, -0.1836250126, -0.1101075560, -0.0569096319, -0.0000354458, 0.0057800123, -0.0719022304, -0.1382822096, -0.0935442448, 0.0854142308, 0.2027361095, -0.1483509988, -0.0782189369, -0.0569947958, -0.0235631298, -0.1006291658, -0.1637756675, -0.1712009609, 0.0312588364, 0.0110438485, 0.1546253413, 0.0416613929, 0.0039218809, -0.1843881756, 0.1516422480, -0.2522763610, -0.0210456625, 0.0554275848, -0.0033614456, -0.1414421350, -0.1563443691, -0.2460647374, -0.0420157313, 0.1310958564, 0.0089023421, -0.0315239653, -0.4718026817, -0.2408860177, -0.0580684505, 0.1217883825, 0.0743299052, -0.0923277736, -0.4381904304, -0.1409471184, -0.0287160911, -0.2859852910, -0.0308947638, -0.3808490932, -0.2174009085, 0.2510839403, -0.1705366075, 0.2705139518, -0.3796547949, 0.1152715832, 0.1680483818, -0.0757061020, 0.2237175703, 0.0074568130, -0.2038762420, 0.1786405593, 0.0073157740, -0.1739455611, 0.2139683068, 0.1515200138, 0.0391942225, -0.1581649929, -0.0190276653, 0.0252410900, -0.0034649482, -0.0682525486, -0.4674366713, 0.4497399628, 0.0314271227, 0.0945942402, 0.0470328815, 0.0191580262, -0.0035199379, 0.0710591301, -0.2080298960, 0.2458469719, -0.2056784183, 0.3962627053, -0.8682870865, 0.0156181781, -0.1980014741, -0.0608396269, 0.2981566787, -0.0698453039, 0.0028271717, 0.0069819707, -0.0347144566, -0.0306289680, 0.2054085732, 0.1528463811, 0.3397355378, -0.2467665225, -0.0637398735, 0.1268091649, 0.0425891541, -0.0685493052, -0.0129695097, -0.0647370592, 0.0080879647, 0.0033613634, -0.1287953109, 0.1097354591, -0.0450981222, 0.1225313768, -0.1723845601, -0.1303100139, -0.2745511532, 0.2467964441, -0.0929689035, -0.0875874311, 0.0068747811, -0.0267931614, 0.0120278690, 0.0915617272, -0.0332468972, -0.1679434329, -0.2044146657, 0.0028846785, 0.0301849209, -0.1238972545, -0.1327568591, -0.2419576347, -0.2073892951, 0.3025254309, 0.2467820644, -0.0034866726, -0.1829612702, -0.0533059649, 0.0447480157, 0.0517959967, 0.1398537010, 0.1072690636, 0.0456039608, -0.2318459004, 0.0224063452, -0.1101849377, -0.0274570193, -0.1073310822, -0.0239140354, 0.1316113621, -0.1805959046, -0.1655880660, -0.0137352701, -0.0258383192, 0.2081565559, -0.2405421734, -0.4627315402, -0.0140074873, -0.0860424638, -0.1584603488, -0.5159116983, 0.0470686518, 0.0259159990, -0.1821736246, 0.0562644973, -0.1478010863, -0.0229582097, -0.2042767853, -0.1057429537, -0.0584634468, -0.0579539649, -0.2763305008, -0.2593758702, -0.1572023779, 0.1660866886, -0.0251483936, -0.0459864736, 0.1888124496, 0.1074654385, -0.2043853700, -0.1094701067, -0.3136775494, -0.1084784344, -0.0542180538, -0.1360592246, -0.0274675954, -0.1214259192, 0.0735961720, -0.0715370029, -0.0677857697, 0.1892412007, -0.0584835671, -0.1159064993, -0.0263475496, -0.1126157343, -0.2043940574, 0.1078394800, 0.3715442419, 0.1669481546, -0.0484757088, 0.0485384464, 0.0280954186, -0.0395797752, 0.2171205431, -0.1779213697, 0.0414120071, 0.2570776343, 0.0662686527, -0.1379526556, 0.0513354950, 0.0365451276, 0.2887705266, -0.2369924635, -0.0907305554, -0.0312580019, -0.1014854908, -0.1882138699, -0.0983621180, -0.0641321465, 0.0945901126, 0.0456757508, 0.0944094434, -0.0466117710, -0.0764554441, -0.3491925597, -0.0734329596, -0.0207580328, 0.1998083591, -0.3254271150, -0.1593041718, 0.0067677777, 0.0280332584, 0.2071653605, 0.2779974043, 0.1752411723, -0.5220895410, 0.0531133264, 0.1334040612, 0.1422668248, -0.0670890138, 0.2190975696, -0.2282947004, 0.1743224710, -0.1055313274, -0.0773093477, -0.3212557733, 0.0689011961, -0.1329956055, 0.3711056411, -0.1312973052, 0.0708311945, -0.2001348734, 0.1281132549, -0.2403358519, 0.0263971277, -0.6631546617, 0.0323553048, 0.1628727317, -0.3337720037, 0.0450887419, -0.5717427135, -0.0534179993, -0.3324792385, -0.0299609620, -0.4123502076, -0.0930834860, -0.0327586532, 0.2182114273, 0.0848451555, 0.0997259542, 0.0381881334, -0.3027164638, 0.0357784480, 0.3612719774, -0.0170928165, 0.0688860640, 0.0981442556, 0.0139807910, -0.1597909778, 0.1144248471, -0.0967602730, -0.0624218434, 0.0119817108, -0.0315702781, 0.0675946698, -0.0639158785, -0.2336939424, 0.0562526323, -0.2028752267, -0.0420607403, 0.1939705908, -0.3077743351, -0.0302814413, 0.2433032393, 0.1244111359, -0.2002734989, -0.1795051694, -0.0093746670, 0.2230294496, 0.0607743077, 0.1740196347, -0.1463731974, 0.2138140947, -0.1449679583, -0.1251947582, 0.3348448575, -0.1991756707, -0.0161989592, -0.1001797989, -0.1766140014, -0.1266727597, -0.1190525740, 0.1167838499, 0.0139572397, -0.0275119003, -0.1167738885, -0.1611135006, 0.0967455432, -0.1025841907, -0.1401010752, 0.0146323740, 0.0400442109, 0.0765763521, 0.0353545994, -0.2241421491, -0.4224651754, 0.0958407745, -0.1289414763, 0.1215510890, -0.0445083342, 0.1395200491, -0.0711328015, 0.0303898901, -0.2791898251, 0.0984222144, 0.0065587237, 0.1600032002, 0.0864185244, -0.0151351569, -0.0171441641, -0.1864293814, 0.0833662450, 0.0798799247, -0.2713389993, 0.0356559604, 0.0949677527, 0.0682534203, 0.0261304025, -0.2783671319, 0.3450960517, 0.1835465878, -0.1487463564, -0.1625854373, -0.0314949863, -0.0190531574, 0.2620235085, 0.3613220453, 0.1317823529, 0.0748648345, 0.1224557087, -0.1217819005, -0.2214071751, -0.1561554074, -0.0053193211, -0.1807101965, -0.2665080130, -0.1307856143, 0.2609475255, -0.0716752037, 0.0369072631, 0.0299851112, 0.1741567850, -0.0045049461, 0.0012397252, 0.0709990114, 0.0309656095, 0.0350526124, -0.1386006922, -0.2852804363, -0.0823802054, -0.0057848594, -0.3181397319, 0.0212878846, 0.1292413622, -0.0074054636, -0.3338254988, 0.0483384170, -0.2642498910, -0.0579600222, -0.0867880732, 0.4120805562, 0.0935773477, -0.2904992402, 0.0608205125, -0.5744739771, 0.2352178991, 0.0639333054, 0.1752850860, 0.0510968156, 0.0794008598, -0.4445973337, 0.2667920887, 0.0384749360, 0.1117417142, -0.2691831291, -0.0552602671, -0.3209261298, -0.3068125546, 0.2490891218, 0.1589340270, -0.0406932831, -0.0650209039, -0.0802303776, -0.0742459893, -0.0858324021, 0.1027635708, 0.0245081577, -0.0836224258, -0.1083084345, 0.0130376369, 0.1795926243, -0.4230295718, -0.0432043076, -0.2474196851, -0.3221789598, -0.3732451200, -0.1809466332, -0.0593687296, 0.3516741991, -0.0407773554, 0.1191738248, -0.1502735466, -0.2397476286, -0.1112149730, 0.1548876315, -0.3158750236, -0.1853586882, -0.1447523683, 0.0095793540, 0.1719405055, 0.0853351280, -0.0988212675, -0.1305772811, -0.3494833708, -0.0072716735, 0.0884837583, 0.0785203800, 0.0577634647, -0.0436224043, -0.3058285117, -0.0224575251, -0.1097318456, -0.2117988318, -0.1685655564, -0.2927383482, -0.2878538668, -0.2763619125, -0.0527956598, -0.2901931703, -0.1544806063, 0.0087747313, -0.0770294592, -0.2937172651, -0.2054875195, -0.1660225391, -0.0021127833, -0.0522575974, -0.1412680000, -0.3887088001, 0.0132117663, -0.2152416855, 0.1163689345, -0.3880638480, -0.0627954006, -0.0459369272, -0.0319635421, -0.1538190693, 0.2544559538, -0.1903063208, -0.0335159115, -0.2130492777, -0.1130254194, 0.1196174845, -0.0628917366, -0.0147713153, 0.3831745386, 0.0333442502, -0.1847698390, 0.2374451607, -0.0451146960, 0.1879481226, 0.1037660465, -0.2840512693, -0.1336870492, -0.0353241675, -0.0835306123, -0.4133104384, 0.0325563960, -0.0671480447, -0.1921290904, -0.1573477983, 0.3035675883, 0.2031712830, 0.0537146702, -0.0298339147, -0.1230691820, 0.1855742782, 0.0796913952, -0.1671864688, 0.0923771262, 0.0276643671, -0.1510974616, 0.0427382216, 0.1009092256, -0.0402296744, 0.3676172495, -0.0052634194, -0.3210038543, 0.0056419834, -0.3714626729, 0.3724419475, 0.0116156312, 0.0836566463, -0.0325842425, 0.0875737891, 0.3349947929, 0.0549506918, 0.0237287022, -0.1785780340, 0.1287910938, -0.1128510162, -0.0092670033, 0.0479407609, -0.0569613203, 0.3602668345, -0.2348325253, -0.0923053548, 0.0403669588, 0.0148442648, 0.0652576163, -0.0608152412, -0.0562814288, 0.0782736093, -0.0625774264, -0.1504054666, -0.0011596078, -0.2895533741, 0.0713463426, -0.0758544505, 0.0024272415, -0.0728610381, 0.1691407561, -0.0974795297, -0.0510751009, -0.1121539325, 0.1085852236, 0.0299179573, 0.1192486510, 0.1859283447, 0.2308966964, -0.0839949176, 0.0087757753, 0.1246307269, 0.0487984382, 0.0772169083, -0.0905065835, -0.1960127652, 0.0691281483, -0.0389382616, 0.0932637975, -0.0654297471, -0.0554568321, -0.2243535370, -0.0488790236, 0.0246954802, 0.2138305753, -0.1179375425, 0.0313542932, -0.0616631433, -0.1572448462, -0.0903493389, 0.0510803871, 0.3043017685, -0.1027411968, 0.1034682468, -0.0611745194, -0.0446086340, 0.0670208260, -0.0426639915, -0.0549856015, -0.1784683168, 0.0625312701, -0.0385639817, 0.0323291980, -0.0426419862, 0.0600515343, -0.0670257285, 0.0777972117, -0.0029407998, -0.0211251900, -0.2898240387, 0.0398845561, 0.0286230203, -0.1134603396, -0.3669376373, 0.0841158032, -0.2310412824, 0.2903743982, -0.2944220901, -0.0596822761, -0.0974459946, -0.2713860869, 0.0625120923, -0.1808353961, 0.1351030022, 0.1168808490, -0.2738846242, 0.0026635830, 0.1552229524, 0.2846069634, 0.1103442460, -0.1368485987, -0.2819229662, 0.1827581078, -0.0454683006, 0.1491363496, -0.0112785045, 0.2638637722, -0.0898135453, 0.0206169952, -0.2783251107, -0.2114196867, 0.1012846231, -0.3806135058, -0.1919197142, 0.2688534856, -0.1406967640, -0.0676272511, -0.0475108176, -0.2524308562, -0.0450393334, 0.3288834691, 0.0851864144, -0.0649458990, -0.0261991769, 0.1678646654, 0.1360628158, -0.1647056937, -0.2146738172, -0.0499552079, -0.1659450382, -0.1499174833, -0.1229552180, 0.0374956392, -0.2980803847, 0.0407191068, 0.3462353647, -0.2597247958, -0.0643781573, -0.1622755229, -0.1530596614, -0.3513226211, 0.0993503481, -0.1993066818, 0.0352346636, -0.1023615375, -1.1383606195, -0.5435627103, -0.1424092799, 0.1022727787, -0.1332581788, 0.0489235111, -0.1594355255, -0.0812191591, 0.1107807830, -0.0713145435, -0.0396560878, -0.0209248271, -0.2570008934, -0.0564780049, -0.1967783570, -0.2800165117, 0.1488076299, 0.2555604279, -0.0897486880, -0.0395753607, -0.3974179327, -0.0623608977, -0.0336475968, -0.0530645363, -0.0462046787, 0.1172204465, 0.1631665975, 0.0323106945, 0.0195765570, 0.0218761191, -0.3258145452, -0.0790325478, -0.1316187978, 0.0771845579, -0.5777507424, -0.0935417637, -0.2144319117, -0.3000272810, -0.0885177478, -0.2375579327, -0.0440167338, -0.2975338101, 0.0854820311, -0.4776648283, -0.1158910319, -0.2214660197, -0.0495290123, 0.0064340006, 0.1045058146, 0.0020181288, -0.3205527961, -0.0289749056, -0.0924980342, -0.1522586495, 0.0428654253, -0.3822804689, -0.0750329718, 0.0474029630, -0.0246717278, -0.0193106942, 0.1210126504, 0.0757712722, -0.4775844514, 0.0359650180, -0.1835798174, 0.3198575377, -0.2355930805, 0.0647441894, 0.0863087028, -0.1339471787, -0.0128800189, -0.0630979910, 0.1916259229, 0.2401257455, -0.2766394019, -0.1518577784, -0.0000994581, -0.2116258293, -0.2393049598, 0.0559465587, 0.0217541978, -0.0882467628, 0.1933168322, 0.0569284484, 0.0940587297, 0.1802519113, -0.2401164770, -0.1079367250, -0.1321944743, -0.2343171835, 0.1655512452, -0.1576025188, 0.0916059762, 0.2044596523, -0.1014223248, 0.1670206785, 0.2380504310, 0.0514439084, -0.2029279470, -0.1795159578, 0.1624712050, 0.0385388918, 0.0527860820, 0.1589463055, -0.2299880683, 0.0541331135, -0.0534623303, -0.1343359500, -0.3184308410, -0.3850045204, 0.0608933195, 0.0202642810, -0.4070363343, 0.0189196896, -0.0089590959, -0.1995391548, -0.2563316822, 0.0480605252, -0.3238514066, 0.1442000270, -0.0351605490, 0.3975889087, 0.1228903979, 0.2178742588, -0.0518712178, 0.2133534998, -0.5513778925, -0.0271280687, 0.1194497421, -0.3144906461, -0.1320778131, -0.0600466542, 0.2438699007, -0.2032806277, -0.2460126579, 0.0430382751, -0.0783402473, 0.0328757390, 0.3775435686, 0.2217694670, -0.1512783915, -0.0095113460, 0.0685305893, -0.0879996493, 0.0447126403, -0.8430748582, -0.4317680299, -0.1158000678, -0.3262515366, 0.2072637528, -0.1208779067, -0.2693682313, 0.3007720411, -0.2612721324, -0.2516400516, 0.3445534706, 0.0917591527, -0.2192312777, -0.1433045119, -0.0985299125, -0.2135157585, 0.3338981271, 0.0613760874, 0.1583447009, 0.0959767774, -0.3442019522, -0.3195987344, -0.1882542372, -0.0560434349, -0.3235702217, -0.1233836636, 0.0340474620, 0.0065763588, -0.2606785297, 0.0776959956, 0.0066673514, 0.1083640531, -0.1295562387, 0.1464607716, -0.0276724678, 0.2506377995, 0.3355036080, -0.1914586127, -0.1353239417, 0.0416410901, 0.1097494140, 0.0321154520, 0.2173110247, -0.2620018423, 0.0262828823, -0.1588041186, -0.0569081567, -0.1209408864, 0.1131698862, 0.1658332497, 0.1688768864, 0.0350919068, -0.1126002222, -0.1835851967, 0.0410717055, -0.2146238983, 0.0244197641, -0.0177056175, 0.1831260622, 0.2983172536, 0.1162838638, 0.0927499980, -0.0242112856, -0.0776809603, -0.1770053804, -0.0178886354, -0.0022916826, -0.0881323740, 0.2210865915, 0.0385875963, -0.0427128412, 0.1767666489, -0.1127654165, 0.2100381106, -0.0241653044, 0.1653333455, -0.0566818789, 0.0990921110, -0.0756634623, -0.2363853604, 0.1914943308, 0.0412418321, 0.0091741793, 0.2451942116, -0.1032785624, -0.1563822031, -0.1135133356, -0.1419087648, -0.1064934880, -0.0946120918, 0.1467276216, 0.2656168938, 0.0346108489, 0.2387654334, -0.0656920671, 0.1924094409, -0.0458031856, -0.1067480594, -0.0654336438, 0.3565614223, 0.0350868218, -0.0682967529, -0.0882038474, -0.0551652350, -0.0523038283, 0.0373253487, -0.0124156447, 0.0549889542, -0.1409759521, 0.0572042875, 0.0560172647, -0.1654106975, 0.0715295970, -0.0638136864, 0.4664201140, -0.0163270794, -0.0067825131, -0.2710787654, -0.0403541923, -0.1752502918, 0.0791205540, 0.0070935818, 0.0854095891, -0.0025408219, -0.2268470824, -0.1832830459, -0.0986639261, 0.5533387065, 0.1974324435, -0.5482268929, -0.0748821497, 0.0855712444, 0.1203779206, -0.1699265391, 0.1649346352, -0.0643899664, -0.0064620278, 0.1342234015, -0.0271862410, -0.2231083363, -0.0622605644, 0.0940226242, -0.0177790169, -0.1710200906, 0.2077396065, -0.2531572282, 0.0340122469, -0.3400590122, -0.1435506046, 0.2202858031, 0.0262649637, 0.2494039536, 0.0721809864, -0.1819050908, -0.1498837620, 0.0673835352, -0.0940508470, 0.4104687870, -0.0660637841, 0.0341501050, -0.3872636855, 0.3001895547, -0.2640160322, 0.1943346560, 0.1625181586, -0.0299806129, 0.1350806653, -0.0490118451, -0.0483336709, -0.0090353582, -0.0718834475, 0.1609624922, -0.3677527905, 0.1131526679, -0.0220918749, -0.2885082662, 0.3000987470, -0.0170141514, 0.1423880756, -0.0681426898, 0.2623673975, 0.0176466070, -0.0294908956, -0.0756921992, 0.1031221226, -0.0132595822, -0.3866432011, -0.0110497763, 0.0101962695, -0.0900502130, -0.0070548281, 0.1669487357, 0.3042134941, -0.3140028417, 0.2118810117, -0.0142862331, -0.0343115106, 0.0802897289, 0.5458564162, 0.1125280708, -0.3669823408, 0.1713914275, -0.2729991078, 0.1365390718, -0.1023889035, 0.2224802971, 0.0144080371, 0.0721540153, 0.1132341772, -0.3807444274, -0.0178943835, -0.2480805963, -0.3122173548, -0.0310448539, -0.0457532480, 0.4450137615, -0.0256462917, -0.4227448404, -0.3625819683, 0.1581593752, -0.1564359516, 0.2881014049, -0.0264857989, 0.0227301493, 0.0639361218, 0.3326353729, -0.0289184451, 0.0990620106, -0.1580289900, 0.0933018103, -0.1352066398, -0.0155779142, -0.2204429805, -0.0470120981, -0.0573275089, 0.2281470895, 0.0645695850, 0.0773862451, -0.0217313934, 0.0308960993, 0.0678444430, -0.6168032289, -0.0953144357, 0.0201580338, 0.2919067144, -0.5105797052, 0.0108572105, -0.3557477593, -0.0638613105, 0.2804886997, 0.2777759135, -0.0719667301, 0.2653547227, 0.2537015676, -0.5944640636, 0.2719797194, 0.1160611287, 0.4205360711, -0.0962100327, -0.2192464024, 0.0214518923, 0.0574153997, 0.3187403977, -0.3891915083, -0.4131512642, 0.0069972859, 0.1582824439, -0.0663916618, -1.2047816515, -0.0751428008, -0.5292656422, 0.0421724208, -0.1182921231, 0.1088034883, 0.1951904595, -0.1994259655, 0.2645219862, -0.3576639593, -0.0785072744, 0.2945224047, 0.1878004968, 0.0906485766, -0.0260434616, -0.1330504268, -0.0433259979, 0.1021722183, -0.0217718240, -0.0898813084, -0.2110091597, -0.1790242642, 0.2315011621, 0.1586413085, 0.0830074996, -0.1747913361, -0.4036145508, 0.0339785367, -0.2151403874, 0.1128948182, -0.5647569299, 0.3790918887, -0.1984787285, 0.1079205200, -0.0729699507, -0.2859778702, -0.0242705960, -0.0856097713, 0.2481531501, -0.0479470044, 0.2127730101, -0.1485698223, -0.0243356936, -0.0639705434, -0.0740554854, 0.2174440622, 0.2217101008, -0.1282014102, -0.0811355114, 0.0090715559, -0.3615083992, 0.2310445458, 0.3312259912, -0.2912380099, -0.0569074340, 0.1834691316, 0.0475682728, -0.1300364137, 0.1569956094, 0.0640556440, -0.2496423125, 0.0998821482, 0.0202653557, 0.1447141618, -0.1375390142, 0.0631851703, 0.1260614246, 0.0894060954, -0.0271117892, -0.4531330764, 0.0203744620, -0.2344668359, -0.1272761822, 0.2707377374, 0.0427055061, 0.2429462075, 0.1448730081, -0.1431733072, -0.1840396821, 0.0850656629, -0.1245309785, 0.2610461712, -0.0745852739, 0.0368156172, -0.0302608889, 0.0481004901, 0.0288894605, 0.2508465648, -0.1534296125, -0.0516060926, -0.2530176640, -0.0969546512, -0.1437759250, -0.0586819910, -0.0911480561, 0.1629301310, 0.1248334646, 0.0166027863, 0.0453868769, 0.0333453752, -0.0682337731, 0.0001446787, 0.0925540626, -0.0152361589, -0.1425627470, -0.1931926459, -0.0276602414, -0.1028204560, 0.0533937253, 0.0408672206, -0.0717574656, -0.0831886902, -0.0564989448, -0.1270765811, -0.0004739383, -0.0406667069, -0.0217921250, -0.1012690067, -0.1752950549, 0.0337858424, -0.0151248844, 0.0494239107, -0.1664474607, 0.0441642664, 0.0417897068, 0.0227895807, -0.0361265279, -0.0346698835, -0.1231593639, 0.1574019939, -0.0371685699, 0.0737690255, -0.0521045513, 0.0007848780, -0.0505838916, 0.1085548848, -0.0094757229, -0.1618330628, -0.0431549847, -0.1206071302, 0.0010493437, -0.0289524775, 0.0029023571, 0.0094933724, 0.0114165200, 0.0298893955, -0.0229707323, -0.0607077256, -0.1751791537, 0.0117223198, 0.0858582482, 0.1042868868, -0.0494615659, -0.0423798934, -0.1449128985, 0.0140621252, -0.1009455472, -0.0073303310, 0.1370930821, 0.1157573238, 0.0774944276, 0.0009777483, -0.0474505350, -0.1555222124, -0.1138219163, 0.2817548215, 0.3421579301, -0.1693387777, -0.0201816261, -0.2084096968, 0.0338220894, 0.0126069821, -0.0398637690, -0.6282271147, 0.0800781325, 0.1174645871, 0.0898272172, 0.1124317124, 0.0402165204, -0.0671443343, -0.0148723871, 0.1984711587, 0.1235888824, 0.3529891968, 0.0786182508, 0.0102016358, -0.1670375913, 0.0283863433, 0.1280095428, -0.6428828835, -0.2351425141, 0.1900357306, -0.0537975468, 0.3539166749, -0.0000896855, 0.1142012849, 0.1204037517, 0.0433424227, 0.1022954807, -0.0763859153, -0.0636110082, -0.0827938989, 0.2474133074, -0.3822100461, 0.1962262839, 0.1379606277, -0.5274100304, -0.3573104143, -0.6408998966, 0.1286602765, 0.0120137986, 0.0201298278, 0.0587378591, 0.2546165884, -0.0024780037, -0.0784810632, 0.2565455735, -0.0057958686, 0.2357850224, 0.0291297939, 0.1943860203, 0.0088393055, 0.1329300404, 0.0047218986, -0.4843941331, -0.0557426624, -0.0255025700, -0.3076585829, 0.0314990617, 0.1651994735, 0.0715177357, 0.0089448476, -0.0621990040, 0.0461831577, -0.0754804388, -0.5196086168, -0.0649749637, 0.1259927005, 0.1289237142, 0.0565925427, 0.1350013018, -0.2098782957, -0.4733522534, 0.0430150442, -0.3063008189, 0.0516011491, 0.1261637360, -0.0567746013, -0.0200334229, -0.0902296379, 0.1438954771, -0.0435991585, -0.4195193350, 0.1326061487, -0.0559874773, 0.0332013816, -0.0097989663, 0.2222603559, -0.1874355674, -0.0386462957, -0.4891200066, -0.0707453936, -0.1529632807, -0.0353537127, 0.3611049056, 0.0175941251, -0.2286713272, 0.2287068367, 0.0745330155, -0.0065675853, -0.2562988400, -0.0052369055, 0.0602012873, 0.0243977848, -0.0357052386, -0.0687582865, -0.0305205062, 0.0319134369, -0.1140750721, -0.0381290130, -0.2476612628, -0.2365374416, 0.0609925948, -0.0869997218, -0.3394548595, 0.0241284091, 0.1282814443, -0.2101903707, 0.2963532507, -0.1717078239, -0.0586637519, -0.1264311671, 0.0548486598, -0.0110610239, -0.0305265039, 0.0289199390, -0.0797133967, -0.1138000488, -0.0309577752, 0.0334428996, -0.0795177668, 0.0076888306, -0.0942008570, 0.0497721471, -0.0970928445, -0.0120173106, -0.1182459369, 0.0602217317, -0.0504756756, 0.0425036177, 0.0351910591, 0.0002007853, 0.0218310170, -0.0019654594, -0.0186964832, 0.1396807730, -0.0410402529, 0.0220772848, 0.1153544635, -0.0978779867, 0.0009092349, 0.0009482241, -0.0401779115, 0.0509784929, 0.0129566882, -0.0066273562, 0.0187373403, 0.0489407405, 0.0096632820, -0.0668631941, -0.0305799749, 0.0776949897, 0.0542173348, -0.0727660656, -0.0707507133, 0.0435346738, -0.0476778261, -0.0345946997, 0.0034170048, -0.0623850301, -0.0542378537, 0.0596549474, 0.0244193915, -0.0610324107, 0.0256196782, 0.0149191972, -0.0175079256, 0.0106922463, 0.0609366149, 0.0831446350, 0.1025303751, -0.0127698109, -0.0390769765, -0.0010844057, -0.0585629009, 0.0127642006, 0.1398295015, 0.1841527522, 0.0992915407, -0.2344699055, 0.1430126429, -0.0604892485, -0.0311451461, -0.2931372821, -0.1804914027, -0.3821045160, -0.4074416161, 0.0638698414, -0.1332124174, -0.1673881710, -0.0273659099, 0.1848813891, -0.0181056112, 0.0695477203, -0.1837592721, 0.0382433832, 0.2895171642, -0.1157618538, 0.0901816487, 0.0889100656, 0.0332785770, 0.0022173699, -0.3734266162, 0.3455156982, 0.1775295138, 0.0259235036, 0.1638219357, -0.1531586647, -0.1742614806, 0.0018469754, 0.1458252221, 0.0883540437, 0.1169922426, 0.2061198354, 0.0030583721, -0.3661762178, -0.2143355757, -0.4151000381, 0.1510014981, -0.3030318320, 0.0108721871, 0.1140034646, -0.1064663678, -0.1038607657, 0.0481023155, 0.1204874143, -0.0994654745, -0.2166213989, -0.1463317424, 0.0263063069, -0.1892645359, 0.0311569534, -0.4277096987, -0.0154280988, 0.1005901918, 0.0437495708, -0.0558517762, -0.3788771927, -0.0681158826, -0.0325301625, -0.0107353581, -0.1961013377, 0.1824500412, 0.1560638398, -0.2079689354, -0.1421499252, -0.0773329884, 0.0396720991, -0.0921091586, 0.2623046339, 0.4197019637, -0.1447185278, -0.1765895486, -0.0072621237, -0.3382972777, 0.0732713938, 0.1071630642, 0.0053473902, -0.2767058015, 0.1331594437, 0.1493777335, 0.3275094628, 0.0437429361, -0.0962212011, -0.1473950744, 0.0065112547, 0.4080569446, -0.0522716120, -0.4170297980, -0.1180527732, -0.4941866100, 0.1557709426, -0.0782490373, -0.3017776906, 0.0663147196, 0.0283815786, -0.2465608269, -0.3249946237, -0.3362933993, 0.3330897093, -0.3135966957, -0.0001043896, -0.2297181189, -0.1536151618, 0.1204318702, -0.3061724007, -0.0072706696, -0.1436257064, -0.1718303263, -0.2522347867, -0.0716906562, -0.1419257522, 0.3391510248, -0.4964408576, 0.1507292092, -0.0041493140, -0.1491853744, 0.0254102126, -0.2380824387, -0.0602479391, -0.2043030858, -0.0617473684, -0.0384760909, -0.3009584844, 0.3584986925, -0.0660290569, 0.1848132312, 0.0253521856, -0.0484603308, -0.0766075626, -0.0225737467, -0.0222299621, 0.1834536940, 0.1403265595, 0.1399851888, -0.1925921738, 0.0821793154, -0.0492941290, -0.6413190961, 0.2279698253, 0.3279813826, -0.0799500421, -0.0327147357, -0.0562399477, 0.2903261781, 0.0297891404, 0.2999710143, 0.1234070361, -0.3658359647, -0.0522414185, 0.0870347098, -0.0326267816, -0.0609000288, 0.0547562875, -0.0065824343, 0.1100978404, 0.0172274448, -0.4401322305, 0.0450365581, -0.3238630891, -0.2892419696, 0.1643511206, 0.0805876926, 0.2407071292, 0.1737020761, -0.2425355017, -0.3192083240, 0.0918044746, 0.0697792619, 0.1678476632, 0.0044792108, 0.1653132737, -0.2136927843, 0.0486319549, -0.1640377939, 0.1217575669, -0.1059969291, 0.0910337642, -0.1847262681, -0.0659779012, -0.3361488283, -0.0538071543, -0.0884206966, -0.0367499068, -0.1615765095, 0.0130424714, 0.0409436189, 0.3154115975, -0.0677963793, -0.1563722938, 0.0927964523, -0.1656062901, -0.2468379140, -0.2649168074, 0.0126381107, -0.0190744493, 0.3745056093, 0.1491036117, -0.0923061147, -0.0336407684, -0.0797491372, 0.1037577465, -0.2247371674, 0.0801244676, -0.2452265322, -0.1735212803, -0.0663257241, 0.1274309158, 0.1940826029, 0.0001826001, -0.1559932828, 0.0478929840, -0.1660273224, -0.2270370424, -0.1616785675, -0.1451819539, -0.1927582622, -0.0860849023, 0.2066151649, 0.0579202846, 0.3228246868, 0.1359763145, 0.1776939183, 0.0454733297, -0.0297895595, 0.1289930642, -0.0331426449, 0.1962776780, -0.0398556590, 0.0487863496, 0.3649549484, 0.3425815105, -0.1381350607, -0.1753647625, -0.0253866203, -0.0609535612, 0.0161063429, -0.0164944902, 0.0263193622, 0.3005240560, 0.2598834038, 0.1231710762, 0.0268604290, 0.0200268514, -0.0750857592, -0.0391779095, 0.4132923782, 0.2884159386, -0.1938211471, -0.3380792439, -0.0000300470, -0.2058920413, -0.1388111115, 0.0022416108, -0.1660825163, -0.1762773991, 0.0822453275, 0.0166212898, -0.0095384419, -0.0480985828, -0.0851263702, 0.3412968516, 0.0703353658, -0.1988658905, 0.0862276033, 0.0504609346, -0.1892137229, 0.4340167642, -0.0127541982, -0.0919455364, 0.2176163346, 0.1924894303, 0.2509721220, -0.2998639345, -0.1297162026, 0.1596552283, -0.3361416757, 0.0572749153, 0.1884160042, -0.3284757435, 0.2204366177, -0.0790270939, -0.0127460882, 0.1037606820, 0.1335471570, -0.2243254185, 0.0341800377, -0.1424663365, 0.0358006358, 0.2551150620, -0.1227711439, -0.1622825861, 0.2615107596, 0.2433306575, 0.1960967779, 0.0290755425, -0.1725927442, 0.1473336965, 0.0365499035, -0.1396360844, -0.2910951972, 0.1317587197, -0.0529549271, 0.3165926635, -0.1018061861, -0.1554876119, 0.2162128389, -0.0951498002, 0.0229948983, -0.0377326459, 0.2706914246, -0.0419433452, -0.0261558909, -0.1958094835, 0.0370713770, 0.1112634838, 0.0184438769, -0.2355995327, 0.0645308569, 0.0122657465, 0.0910843685, -0.2239848673, -0.0538129993, 0.1092996746, 0.0176456422, -0.1476403326, 0.0874736309, -0.0099261589, -0.3457284868, -0.1382189393, 0.1570535749, -0.2314693034, -0.0752969757, 0.2063833624, -0.0024390866, -0.1874129176, 0.1022207886, -0.2115522325, -0.0892682150, 0.0540269502, -0.4451748729, -0.0212612953, 0.1352387965, 0.0340776369, -0.0425548740, -0.0008390408, 0.0846585333, -0.0208991822, 0.0119790332, -0.0075289379, -0.0066442895, -0.1956685036, -0.4906576872, -0.2666750550, -0.0223430246, -0.1927116364, 0.0744352788, -0.0405992828, -0.2662033737, -0.0831974596, 0.0635473654, -0.2674230039, -0.0494820885, -0.0072494498, 0.1493480206, 0.1221283451, -0.3308319747, -0.1239050999, 0.1573042870, -0.1144838408, 0.0510655567, -0.0464124195, -0.0960455015, -0.1336151809, -0.1397530735, 0.1235919595, -0.1616929173, -0.1698631346, -0.0273104310, 0.1430918872, 0.0086877383, 0.1766064763, -0.0337408110, 0.0082247322, -0.0058021755, -0.0714902505, -0.0843225643, 0.0843502432, 0.1358922720, -0.0110275578, 0.0172963422, -0.2471018285, -0.1835342646, 0.2557943463, 0.1925300509, 0.6196455359, -0.3862954080, -0.1179590449, -0.2286266685, 0.0773143843, 0.0396799147, 0.1126584262, -0.2042944878, 0.0236493293, -0.3194973171, 0.1156975776, -0.0107563427, -0.2040299475, 0.0670307055, 0.0099673895, -0.0426817350, -0.0402573496, 0.3378161192, 0.0270602405, -0.1347766370, -0.0776519552, -0.2501858771, 0.2224178016, -0.1568400413, 0.4050605595, -0.0450830460, -0.2377509028, 0.3208770156, -0.1484394372, 0.0158053972, -0.2821142077, -0.0820385069, -0.1102725416, -0.2200801969, 0.1356794238, -0.0745877475, -0.0936434343, -0.2661465704, -0.1363625973, -0.5403498411, -0.0792314485, -0.1293631345, -0.2218257636, 0.2804016173, 0.0381957963, -0.1458039135, 0.1795618683, 0.0157036856, -0.0862839967, -0.1625804901, -0.2425179332, -0.2846315503, -0.1043695509, 0.0651303604, -0.1212534234, -0.0119425608, -0.0491440892, 0.1553335041, 0.1819643676, 0.2159467041, -0.2125758082, -0.1967612058, 0.0377829224, 0.0550983250, 0.0766170621, 0.1267584860, 0.0680183023, -0.1675241739, 0.1020418480, 0.0423236750, -0.2805874050, -0.3796640337, -0.0607734956, -0.0497471020, -0.2329572290, -0.0858891755, -0.3376868069, -0.0600200370, -0.1874507219, -0.2937095761, -0.0200265199, -0.1582910866, 0.0893867314, -0.2377084941, 0.0626818091, -0.1695445627, -0.0652518868, 0.0196332783, -0.3251000941, -0.2722879946, -0.3932760060, -0.0415402278, -0.0187267009, 0.0760556683, -0.4328137338, -0.0447511971, -0.0071408781, 0.0812329575, -0.1612570435, -0.2786849439, -0.3595010042, -0.6160317063, -0.0236127172, -0.3811196387, -0.0071958313, -0.0998465493, -0.3938838840, -0.0750298426, -0.1252015978, 0.0059717107, -0.2956818044, 0.0476459637, -0.1416541189, 0.0760070831, -0.0210038926, -0.2026931494, -0.1726693213, 0.0253622252, 0.0515191443, -0.0223733783, -0.1828245670, -0.1089312583, 0.1693056524, -0.3833058476, 0.0738207623, 0.0463639982, -0.3973424435, -0.0798097029, -0.0327828452, 0.0785394758, 0.0688121840, -0.1590712816, -0.0439561009, 0.0205423459, -0.5009940267, -0.0304924287, 0.1359403431, -0.1435387135, -0.1994878352, -0.0719320998, 0.0718331039, 0.0207708888, 0.0271011051, -0.2112428099, -0.1983888596, -0.1531739384, 0.1415459663, 0.0247249249, 0.3555107415, 0.0127069252, 0.1715178490, -0.1315083355, -0.0519484729, -0.1811773628, -0.2613466084, -0.0736456364, -0.3934991658, -0.0570186749, -0.0079951910, -0.0974610224, -0.0233552586, 0.0795291960, -0.0547226332, 0.0773108155, 0.0395742878, -0.2905753851, 0.0946093276, -0.0528326891, -0.0145027395, -0.0218621995, 0.1583555341, 0.0474284962, 0.2294990271, 0.1364096403, -0.1849875301, 0.0562309027, -0.0678456575, -0.0658643842, 0.2407472432, -0.1623618007, -0.1259409189, 0.0932182670, 0.0711805075, -0.0099142473, -0.0974701568, -0.0726194158, 0.0175904427, -0.0725755095, -0.0254154950, 0.0746473521, 0.0828313828, 0.1304092258, 0.0445724279, -0.1836187541, -0.1148352772, -0.0172974784, -0.0080571184, -0.1329059750, 0.0581063330, 0.0748308823, 0.1044672132, -0.0785288587, -0.0589345284, 0.1108999252, 0.1176063791, 0.0007415669, -0.0748764202, 0.0207465477, 0.0248615332, 0.0504128225, -0.0165042710, -0.0238068700, -0.0251004770, -0.0577729419, -0.0843541846, -0.0835771784, -0.0168263018, -0.0606639050, -0.1197970659, 0.0002931988, -0.0801909640, -0.0503686853, -0.0270237960, 0.0299322624, -0.0167646240, 0.0726634115, 0.0186726041, -0.0603554174, 0.0071163727, 0.0385752395, -0.0995172486, -0.0180438831, 0.0101527013, -0.0616580807, 0.0042941328, 0.1342956275, -0.0452245623, 0.0134160379, -0.0407471657, -0.0194626208, -0.3218220174, -0.1746728420, -0.2286655307, 0.0334391929, 0.1228875145, 0.0670670941, 0.0115779387, -0.0697116107, 0.0675574616, 0.0652575791, 0.2365237474, 0.2532115281, -0.1736185104, -0.0423982255, -0.1213320568, -0.0037228919, -0.0693548694, 0.0680189803, -0.0282247625, -0.0615382493, 0.0721056536, 0.0901236460, -0.2239358574, -0.2730548680, -0.3827308416, 0.0140980026, 0.1873510033, 0.0459400527, 0.0430194922, -0.1249725372, -0.1978151500, -0.0871285647, -0.3030154407, 0.0082212193, -0.2592543960, -0.0973902270, -0.0350782834, -0.5025728345, -0.0445210114, -0.0212417413, -0.0825702921, -0.2921105921, 0.0006674230, -0.0055378349, -0.2240267396, -0.1107234582, -0.3641860485, 0.0236132834, 0.0043697604, -0.0034579558, -0.1998516619, -0.0062693786, -0.0216880590, 0.0518294126, 0.1403186172, 0.0932423621, 0.0388337672, 0.1153418869, 0.1221671849, 0.0426036865, -0.0255586971, -0.1228480935, -0.0017629005, 0.0678260922, -0.0746215954, -0.1375519335, 0.1564574987, -0.1749227643, 0.0528996177, 0.1875946522, 0.0826955736, 0.0499364436, -0.3940365016, -0.1784415841, -0.1520906836, -0.2801115513, 0.2023971528, 0.1785977632, -0.0784142017, -0.3045640290, 0.1324079186, 0.1011132374, 0.1500358433, -0.1868271381, 0.1186109036, -0.2573751211, -0.1989341825, -0.1152577400, 0.4798306227, -0.1593495458, -0.0730079785, -0.2282325625, -0.0431558341, -0.1840814948, -0.0324278399, 0.0712856054, 0.1956767738, 0.1475094408, -0.1090762913, -0.0779543072, -0.0436518528, 0.2677241862, 0.2556579113, -0.0383904763, 0.0427422486, -0.1414558142, -0.0612578206, -0.0058725667, -0.0119409841, -0.1426362395, -0.0160189904, 0.0432140119, -0.2395574600, -0.1874172986, -0.1510894597, -0.1223396286, -0.0663387552, 0.1671791822, -0.4144066870, -0.0085989665, 0.0508668497, -0.0529197939, -0.2142328620, 0.1003411636, -0.3003354669, 0.0818563178, -0.2793517113, -0.0586564429, -0.6984838247, -0.4510384798, 0.2850916386, -0.1700158417, 0.1645066738, 0.0223002136, 0.1715038270, 0.0301612783, -0.1397225559, -0.3039698303, 0.0288705844, 0.2183368951, -0.1242385879, -0.0010408458, 0.3368236423, -0.1637916863, 0.3183926642, 0.0147162843, -0.0005977324, -0.0994200632, -0.2358478457, -0.1923234463, 0.0622484013, -0.1788661778, 0.2420248985, -0.0894335508, -0.2620921135, -0.1198281869, 0.0644733161, -0.0561315939, -0.1526489556, 0.0448438898, 0.0267160963, -0.1664103121, -0.0260815434, 0.0121880844, -0.0868377835, -0.1993270218, 0.2105819285, -0.8545015454, -0.2407109141, -0.0864430219, -0.2553373873, -0.1167760789, -0.4987565577, -0.0116056995, -0.3661662340, 0.0582134984, -0.0570363514, 0.0263913050, -0.0381169543, 0.1653289199, 0.2134820670, -0.2526301146, -0.0970431566, -0.2624973655, -0.0484261625, 0.4128793478, -0.0578650087, -0.2972769141, -0.0190546308, -0.1166984960, 0.0070352722, 0.0205854960, -0.3419830501, 0.2941881418, -0.0880972296, 0.1827687323, -0.0238913707, 0.0826107115, 0.0275463928, -0.0241242703, -0.0253512338, 0.1692641675, 0.0356799476, -0.1467637271, -0.2099343538, -0.1070642993, -0.0406149291, -0.1937144995, -0.0494755469, 0.3753461838, -0.0324241407, 0.1208752841, 0.1422476918, -0.0203346740, -0.0204198174, 0.3870793283, 0.0178349372, -0.2083871067, 0.1847074330, -0.1014087424, 0.0729299113, -0.1937066764, -0.0118613914, -0.0487085544, -0.0079561332, -0.1871210337, -0.4843981564, -0.0392219685, -0.0241040215, 0.0709671751, 0.0916772410, -0.1919318140, 0.1331763566, -0.0770530924, -0.1783108115, -0.2933036685, 0.1936565191, 0.1368253231, -0.0097417338, -0.0264508724, 0.0361221954, -0.0413848124, -0.0142205441, -0.1090597212, 0.0837771371, -0.0968988016, 0.2919800580, -0.2231125981, -0.0074372059, -0.1068720445, -0.0287062638, -0.0444465652, 0.1203035340, 0.1292100400, 0.0071515525, -0.0110376151, 0.2746411264, -0.0074743591, -0.2459430248, -0.3947547972, 0.1248598099, 0.0029116396, -0.1181960925, 0.0179204978, -0.4202686250, -0.1600468308, 0.1282938421, -0.1919966787, -0.1773219705, 0.0199948177, -0.0633463487, -0.3973938823, 0.1919908971, -0.1162857562, 0.3456525207, 0.1099450588, 0.2916584611, -0.0663707554, -0.5143018961, -0.6101002693, -0.0202190615, -0.3523849249, -0.3500487208, -0.5204678774, -0.2066615224, 0.0846976861, -0.0611437745, 0.0356014073, -0.2327827215, -0.0953031406, 0.3925076425, -0.2486143559, -0.0486708209, 0.1101916432, 0.0972486213, 0.0542886108, -0.2208365053, -0.2332105339, -0.2951084375, 0.1542034745, -0.3908734918, -0.2671811283, -0.1211377531, -0.0656984076, -0.1831561923, 0.3035872877, -0.4040130675, -0.2280289978, -0.1948849559, -0.2201908380, -0.3771871626, -0.1148535609, -0.0182468463, 0.0162740406, -0.3488665521, 0.0703991354, -0.1491351277, 0.0213428289, -0.7078204155, -0.0997681171, 0.1206650138, -0.0378531180, 0.0543373972, -0.1261408627, -0.1218738705, -0.1462398767, -0.1351111829, -0.0297526699, 0.0804831907, 0.0649000630, 0.3091396987, -0.1113463789, -0.0556167811, 0.1944946349, -0.0213101618, 0.0670132488, -0.3997403085, -0.1495479196, -0.2232705057, 0.0872369409, 0.0484358482, 0.2794786990, 0.1251727939, 0.0099887215, 0.2711066306, -0.2093448490, 0.2940134704, 0.0296861250, -0.1213757694, -0.1591163874, -0.0845175013, 0.0405573063, 0.0759141594, 0.1619781405, -0.0689160600, -0.0770974755, 0.6094701886, 0.1313650459, -0.3414224088, -0.3245787919, -0.0381730162, -0.0194462761, 0.2493615448, 0.2266523838, 0.2269249856, -0.0283337366, -0.1882415712, -0.0569325835, -0.0323243327, -0.0458389558, -0.3102253377, -0.1405314505, 0.3023628891, -0.0805072859, 0.1199523211, 0.2307043076, 0.0122211706, -0.2602325082, -0.0658007339, 0.1031544879, -0.0472897515, -0.0602240451, 0.0309683401, -0.0915654153, -0.0285452306, -0.4805432856, -0.0958763734, -0.1474020183, 0.1051248908, 0.0050295112, -0.1446537077, -0.1553534567, -0.0209118985, -0.3092166781, -0.0070905639, -0.3509024084, -0.1600564718, 0.0482502468, -0.0511314459, 0.1163599789, -0.1749514192, -0.0890347734, -0.1447138488, -0.0985100493, -0.5109930038, 0.0248830132, -0.2961030006, 0.0269502755, 0.0785150900, -0.1568583548, -0.1896118224, -0.0292900559, 0.1652338058, 0.1357234865, -0.0776488185, 0.0134731662, -0.0652991459, -0.0601024181, 0.3834233880, -0.0143566048, 0.2352069467, -0.2442365736, -0.4228079617, -0.0600534678, 0.1875388473, -0.0950003415, -0.2446006685, -0.5094811320, 0.0636373684, 0.1236183196, -0.2994338870, -0.0263600126, 0.0028407499, 0.0483154468, -0.0643227473, -0.0735122561, -0.3352997303, 0.0298717208, -0.0061810724, -0.1166971847, -0.0591784939, -0.3272057474, -0.0201514438, -0.0923168287, 0.0230313875, -0.1179334521, -0.1898047775, 0.0262873620, -0.0608376488, 0.0490410998, 0.0423049442, 0.0283706635, 0.0544492044, 0.0262359623, -0.0160175245, -0.0464970395, -0.0629432797, -0.0001249311, -0.0603942089, -0.0452254750, -0.0361244641, -0.0599275306, -0.0501505025, -0.0474948622, -0.0396295935, 0.0336305201, 0.0551989712, -0.0493189953, -0.0326596573, 0.0144629190, -0.0228469372, -0.0189526454, 0.0318706334, -0.0893636495, -0.0053436640, -0.0628132522, -0.0423503406, 0.0543922819, -0.0211294740, -0.0475215241, 0.0550859831, 0.0811214894, -0.0124112368, -0.0229244642, -0.0202802457, -0.0396311581, -0.0329976268, 0.0193515476, 0.0276198462, 0.0103084985, 0.0339806564, -0.0496636927, -0.0149126537, 0.0301428922, 0.0378406607, 0.0085755344, 0.0362915397, -0.0014200710, -0.0232266001, 0.0055674296, 0.0145185459, -0.0529611558, 0.0034007519, 0.0414914861, -0.0513068400, -0.0110893175, 0.0167058371, 0.0502133109, -0.0017812924, -0.0404613391, 0.0566843227, -0.0798354819, -0.1321039796, 0.1314188093, -0.3765165210, 0.0458907746, -0.0496798679, -0.0715312064, -0.1969730854, 0.0378435142, -0.0224399604, 0.1265031844, -0.2072976083, -0.0216236003, -0.1552764177, -0.3619191945, 0.0548406132, 0.1503958851, 0.1012983397, -0.3825477064, -0.0750313252, -0.0032606914, -0.0339212194, 0.0938244537, -0.0518112518, 0.0294827633, -0.0035525807, -0.2943303883, -0.1907506734, -0.0816728100, -0.1797282249, 0.3111584485, 0.0125334812, -0.0432839729, 0.0258281250, 0.0752766654, -0.2141511887, -0.0479018018, -0.3444675505, -0.7024241090, -0.1937298775, -0.1288630217, -0.2604736984, 0.3592022657, -0.1425515264, -0.1443936676, -0.1733769476, -0.0966643766, -0.3696145415, -0.0034549693, 0.0065577361, 0.3056104183, 0.1599303633, -0.3483110666, -0.0944859162, 0.1092559621, -0.1728491485, 0.0327735431, -0.0356103294, -0.4432248175, -0.1136683077, 0.0924855843, 0.0799116939, -0.1987895817, -0.1767488271, 0.0204183497, -0.0647072345, 0.0611287355, 0.0247268323, -0.1967055947, -0.0011520005, 0.0146767106, 0.0641297996, 0.0045291325, -0.2460927069, -0.0275751073, 0.0265092440, 0.0431978106, 0.2038314641, 0.2453844100, 0.0839755014, 0.0068943189, -0.1511461437, -0.1576992571, 0.0248633530, -0.1620818377, 0.0358989835, 0.0590177439, 0.1063197255, -0.0189505834, 0.1333750933, 0.1014997140, 0.1468382925, -0.0013019223, 0.1693948060, -0.0201832969, 0.2324886620, -0.0588495582, 0.0007492789, -0.0566013791, 0.0825759396, -0.0027674083, -0.1443687975, 0.0581791736, -0.0995741263, -0.0054211402, 0.0680208281, -0.1486024708, -0.2960026860, 0.2389070392, 0.2664260864, -0.1174439341, 0.1180297136, -0.0546546429, -0.0752502382, 0.1182612553, -0.0269884337, 0.0045326957, 0.1153608710, -0.1052251086, -0.0552578792, 0.1788517982, -0.0555013791, -0.0947581828, -0.0935195014, 0.0522532016, 0.1036673263, 0.0854476392, 0.0598132834, 0.0132175907, -0.2040238082, -0.5507993102, -0.0704528689, -0.1533435881, 0.0103356205, -0.3891187906, -0.2802448869, 0.0647816211, -0.0456147715, -0.3365634382, -0.3998209536, -0.1313169301, -0.3457944691, 0.0103405705, -0.0354350582, -0.2081284225, -0.1127130464, -0.1632958800, 0.0714092627, 0.0556516126, -0.0622145608, -0.1308874637, -0.4591343105, 0.1178171113, 0.1562227607, -0.3312540054, -0.3413588107, -0.6352100968, -0.2762544751, 0.0730353296, -0.1562033445, -0.1466300488, -0.6035994291, 0.1344028860, -0.1410681158, -0.2389539480, -0.1769274920, 0.1135716364, -0.1555466950, 0.1100316718, -0.1017722636, -0.4518542886, 0.2706206441, 0.3291464448, 0.1609037966, -0.4876337945, 0.0692892671, 0.0400296599, -0.0773254558, -0.2741014957, -0.1144204959, 0.1796347499, 0.1783968508, 0.1137995645, -0.0073620435, -0.2363620400, 0.0744263157, 0.0744134337, -0.4421182871, 0.2211039215, -0.1347961426, -0.2117199600, -0.7303704619, -0.0804881603, 0.0500229746, -0.0601610318, 0.0887608975, -0.0487342030, -0.0589848422, -0.0634359345, -0.0342460647, -0.0449945815, -0.1385291219, -0.1064091250, -0.0618902296, -0.0750496387, 0.0482669324, -0.1186306626, 0.0198252052, -0.0739143863, -0.0422938205, -0.1223818585, -0.1246878877, -0.1164913327, -0.0091239978, 0.0449618027, -0.0041651232, -0.0610795543, -0.0014552400, -0.1233708933, 0.1550004929, -0.0237068161, -0.0923171565, 0.0288306512, -0.0350322314, 0.0543890633, -0.0017206379, -0.1229901612, -0.0451366529, -0.1599948853, 0.0417969786, 0.0618550181, 0.0819397569, -0.0557881184, -0.0603732727, -0.0259488542, 0.0420308039, 0.0885907635, 0.0152554754, 0.0898383036, -0.0340378247, 0.0358720720, -0.1120489538, 0.0326200165, 0.0176215172, -0.0330670588, -0.0102296956, -0.1353229135, -0.0898123533, 0.1179178283, -0.0257831160, 0.0716380626, -0.1039040610, -0.0973995253, -0.0807888061, 0.0831549764, -0.0811469555, -0.0281700194, 0.1446170062, 0.3204688728, -0.2267461121, -0.0145495301, -0.0166768171, 0.0397208147, -0.0754806101, -0.0450940169, -0.3060528934, -0.0072563193, -0.1061403006, -0.2872379124, 0.0200180318, -0.2172771096, -0.2073172927, -0.1336548179, -0.2141665369, -0.0283146501, 0.2601326406, -0.0370448753, 0.0315695703, -0.2315889150, -0.1170872301, -0.3163414896, 0.0759846792, -0.1983790100, -0.3903328776, -0.2728198469, 0.2603720129, 0.0675999224, 0.1089138463, -0.2073111832, 0.1817988902, -0.2641642094, 0.2236520797, 0.0712887049, 0.3838507235, 0.2142811120, 0.0839266330, -0.2468795031, -0.4495109320, -0.1935496330, 0.1027769074, -0.0683477074, -0.2617417872, -0.3031720519, -0.1491453797, 0.0014816106, -0.0545917489, 0.0814488903, -0.2120728344, -0.0201577879, -0.2270413041, -0.2476523519, 0.1009007618, 0.2272941470, 0.0028827619, -0.4274882972, 0.0675319061, -0.0179983582, 0.1969282925, 0.1293813139, -0.4586247206, 0.0560310856, 0.0355430767, -0.0818866268, -0.3254708648, 0.3004248440, -0.0778429210, -0.1025339887, -0.1335010231, -0.0226970483, -0.1542714983, 0.1737096906, 0.0230382457, -0.0588531233, -0.1848476380, 0.2081951350, 0.0561560206, -0.1551128328, -0.0034964201, 0.0061059748, -0.2818333507, -0.0501872562, -0.1076637357, 0.0430320203, -0.0522775277, -0.1938463897, 0.0092720082, 0.0518797748, -0.1696116179, -0.0672559962, 0.0363921188, 0.0803942084, -0.1224708632, -0.0005890002, 0.0554011911, -0.0768417045, 0.0471043289, 0.0194277689, -0.1878651530, -0.0997507423, 0.1307723671, 0.0117288958, -0.0361269824, 0.2135996073, 0.1887166798, -0.1894273609, 0.1847395450, -0.1064227074, 0.0012637990, 0.0345150456, -0.0661134869, 0.0452571325, 0.0199466087, -0.1654829681, 0.2322768420, 0.1394058168, -0.0655154660, 0.1006184667, -0.0470168293, -0.0144764064, 0.0074005038, 0.1249901876, 0.1302528977, -0.0968775079, -0.0286108237, 0.0336402655, -0.2382014245, 0.1218010858, 0.0664623827, 0.0453397334, 0.1344358027, -0.3220253885, -0.3139998913, -0.0554780662, -0.0710480362, 0.0758288652, 0.0039900551, 0.2989888489, -0.0855670497, -0.0660122633, -0.0728363171, 0.1349622458, -0.3308065832, -0.1041973606, -0.1337332726, 0.1018660516, 0.0406744182, 0.2202478498, -0.0754412562, -0.2153243124, 0.1705429405, -0.0872977003, 0.0635253936, 0.0403936431, 0.0161086470, -0.0271380618, -0.0722596198, -0.0324662365, -0.0500193201, -0.1369124949, 0.1646719426, -0.2605138421, 0.0180491116, 0.0905362368, -0.0000712093, 0.0720415860, -0.1251669973, -0.2987675071, 0.1240624711, -0.0108844424, -0.0491628237, -0.2249516845, -0.0264805518, 0.0396029726, -0.0940216333, 0.1027968228, -0.1156908497, 0.0816553459, 0.1722116023, -0.2633057237, -0.2672028244, -0.2736563683, -0.0198246185, 0.0358710364, -0.1078837961, 0.1800577939, 0.1138631999, 0.3427546620, -0.5503640175, 0.1068329811, -0.2694504261, -0.1287766546, -0.3411923945, 0.0837246403, 0.0630218536, -0.0856631324, 0.0891666263, -0.0415439755, -0.0038252319, -0.2220608145, 0.5947265029, 0.4372963309, -0.1160291955, 0.2843820751, -0.1278099269, -0.2871772349, 0.2885611951, -0.3339151740, -0.1135898754, -0.2669540942, 0.0211934857, -0.1745199412, 0.2000689358, 0.3270593286, 0.0939732417, -0.0515291840, 0.0278694816, 0.5598249435, 0.1653501689, 0.0221381504, -0.1012765169, -0.3973160982, -0.1586902887, 0.0829372406, -0.0736071393, -0.0785245076, -0.1599816680, -0.3477999568, -0.0460994355, -0.4030255079, 0.0992787108, -0.2206402123, 0.0137688257, -0.1651403010, 0.1275781691, -0.0886989459, -0.1532170326, -0.0520045683, 0.0093305558, -0.0846791118, -0.0504599065, -0.0941247940, 0.1321995258, 0.2777256072, -0.2084206045, -0.0041164351, 0.0100447172, -0.0713599622, -0.0190854985, -0.0765987784, -0.1540459841, -0.2160202861, -0.2141957134, 0.0636091977, -0.0474153087, -0.2978276610, -0.2179431170, 0.0151831144, -0.1531015337, -0.1628714949, -0.0412578695, -0.0097284783, -0.1480794400, 0.0107226083, -0.0844691917, -0.0263055563, -0.2940542400, 0.4179412127, -0.3170127869, 0.2584551275, -0.2421706319, -0.1228159294, -0.2713465989, 0.2118778676, -0.2134073079, 0.0637874752, 0.1349128038, -0.2283315957, -0.0064925882, -0.2795929909, -0.2930577397, 0.2217906713, 0.0031880348, -0.1034532264, -0.2411309779, -0.0377462879, -0.1651565284, -0.0075597963, 0.0098392311, -0.0906974971, 0.0390865356, 0.0065129651, -0.2392986715, -0.0261582397, 0.4268393815, -0.0956948400, -0.0760265365, -0.0847842023, 0.5051841736, 0.0417030789, 0.0648058355, -0.0292103458, -0.1380646825, -0.0447589643, 0.0755878091, -0.1019018367, 0.2213090658, -0.3723166883, -0.2009356171, -0.0049114786, 0.0459448248, 0.3477940261, 0.1098480225, 0.0208233371, -0.0854923129, -0.3533649445, 0.1456617117, -0.0688472763, -0.3423318267, 0.2034406066, -0.1133370921, 0.0194678158, 0.1419164091, -0.1213418022, -0.1441573948, -0.0631856695, -0.0515114628, 0.0508947708, 0.1832968146, -0.0469074138, -0.3209842741, 0.0692110807, -0.1620126665, 0.0661792830, 0.0791310593, 0.0533858687, -0.1216508821, 0.0052541848, 0.1767112911, 0.0856732205, -0.4396457970, -0.4268909991, -0.1249251068, -0.0111353826, 0.0443655215, -0.2768885493, 0.0240506623, -0.4730893970, -0.5209988356, -0.0346430428, -0.1320881546, -0.0229532458, -0.1295293570, -0.1422402710, 0.0028152301, 0.1240328252, 0.0266399607, 0.2677201033, -0.3772723973, -0.0028505062, 0.1158501655, 0.3368470371, -0.0798487738, -0.3971783221, 0.1339581162, -0.0487626903, -0.0608062446, -0.5053871870, -0.0431676917, -0.0291356798, 0.0884694755, 0.0733281299, -0.0673703477, 0.0278117582, -0.0604502745, -0.0351756811, -0.0826483071, 0.1654291898, -0.0210785791, 0.3249253035, -0.1961067617, 0.0426706225, -0.0417602137, -0.1179566160, 0.1834383607, 0.1135534421, -0.1047108918, -0.0806576982, -0.0026397845, -0.0176790189, -0.0233815834, 0.0303454269, 0.2686119974, 0.0682951659, 0.0627178177, -0.2260600328, -0.0159521084, 0.0901381597, 0.0195578095, 0.2208841443, 0.1864214838, -0.0171974842, -0.0129176043, 0.0080818059, 0.2423952818, 0.0346706584, -0.0075279605, 0.0961191505, -0.1160823554, 0.0758844316, -0.0348556489, 0.0729346648, 0.0388141051, -0.0140374983, -0.0866922587, -0.0892257914, 0.0077858139, -0.0051102345, 0.0272420626, -0.0438346229, 0.3674026430, -0.0786383003, 0.0356364585, -0.1661363244, 0.1174118221, -0.1874210984, -0.0700064227, -0.0449717343, -0.0546338782, 0.0080149686, 0.1643051952, 0.0076246308, -0.0036621918, -0.0620509461, 0.1426747888, 0.0950625092, 0.0373580903, 0.0170235839, -0.0487176925, -0.0320295468, 0.0424395092, 0.1463229656, -0.0319634229, -0.1619676054, 0.0814248249, -0.0546821281, -0.0593150072, -0.1599927843, -0.0111054918, 0.1281652600, -0.1019793749, -0.1679977179, 0.0835088864, -0.0191050041, -0.0500126593, 0.1210419461, 0.0954074413, -0.0887641609, 0.0419689752, -0.0037379360, -0.0424070135, -0.0573376045, -0.2222076505, 0.1467403471, 0.0482426099, -0.0503729507, -0.0572879873, 0.1728160977, -0.0984747037, -0.1455958337, -0.0250848494, -0.0535813384, 0.0540328249, 0.1177404225, 0.0457766429, 0.0086573819, 0.1235345080, 0.0021653804, 0.0073878439, 0.0807754993, 0.1071887314, -0.0573801920, -0.0331056267, 0.0331509151, 0.0149194980, -0.0490197688, -0.0724234208, -0.0501455776, -0.0989873484, 0.1240852252, 0.1654783189, -0.0677168071, 0.0411203057, 0.0259797219, -0.1624539793, 0.0449095666, -0.0500105731, -0.1093294024, -0.2471985072, 0.0096791033, -0.2149552256, -0.2406646907, 0.0208170731, -0.0244463235, -0.0871877596, 0.1285711527, -0.0666964352, 0.1088453382, -0.0139835626, 0.0105858836, 0.0267216060, 0.1334102303, 0.1317526400, 0.2895094752, 0.0473439470, 0.1454646438, -0.1891135722, 0.0272519849, -0.0383484066, 0.3138787448, 0.0616314970, 0.0313665830, 0.2136499882, 0.1885587871, -0.0643341169, 0.0431338586, 0.0149992006, 0.1750319004, 0.2059050351, -0.0245102737, 0.0364415534, 0.1925224215, -0.0903942063, 0.0867152959, 0.3056571186, -0.0284733120, -0.0639765337, -0.0688376725, 0.4008069336, -0.0990637615, 0.2483280003, -0.0147722475, -0.0946195647, -0.0377359837, -0.1554270238, 0.1997780800, -0.0720582083, -0.0111051835, -0.0267092958, -0.1220120788, -0.0365363285, 0.0589009635, -0.0653944016, -0.0293211825, 0.2217007577, -0.1611980200, 0.0605012663, -0.0493271500, -0.0061904294, 0.0521094650, 0.1923633516, 0.0877379626, -0.0186577495, -0.0506071113, -0.0724483058, -0.0057797628, 0.0039043936, -0.0890378729, 0.0956195518, 0.1804850101, -0.2177355886, -0.0187008660, -0.0658392683, 0.0061465357, 0.0179755576, 0.0662903488, 0.0184385050, 0.0070043639, -0.0329505987, 0.1218669042, -0.3835591972, -0.0367516354, 0.3412110806, 0.0379141122, -0.1337711215, 0.1675912291, 0.0391212516, -0.0479328670, -0.0451037511, -0.0940342918, -0.1546764672, -0.0375429727, -0.0900904909, -0.0002712857, 0.3806215227, 0.0688004792, 0.2015880644, -0.1271743029, -0.1233900785, 0.2023482174, -0.0028915661, -0.2330953777, -0.1568920314, -0.0606162511, 0.1234114096, -0.3125414252, 0.2256015539, 0.1662898213, 0.0651542619, 0.0332891643, -0.0791248456, -0.5225626826, 0.0434710011, 0.1050927937, -0.1987684667, 0.0594761185, 0.1656287462, -0.1130966991, -0.2250463068, 0.0218682587, 0.2135067880, -0.0409440845, 0.1421687901, 0.0354587473, -0.1635931879, 0.1404284835, -0.0176851340, -0.1712542027, 0.1933453977, 0.1289920211, -0.0533461124, 0.1390649080, 0.0622947253, 0.2853715420, -0.0310952812, -0.1802166104, 0.1794231385, 0.0467429198, -0.1525891721, -0.0245293174, -0.0274906009, 0.0768779442, 0.0757878721, 0.0255404823, -0.2242145836, -0.0388840102, 0.2564589977, -0.1063296422, 0.7275933623, 0.4578960240, 0.0166098122, 0.2479153425, -0.0896783844, -0.0375467204, -0.1137854159, -0.3367837071, -0.0302598793, 0.0200803727, -0.0843889043, -0.0156316869, -0.1333443522, 0.0349899866, 0.0364315808, -0.0620943718, 0.0513658747, 0.8509542942, -0.2093716711, -0.2658663392, -0.0495692194, -0.2349555045, -0.1270650625, 0.1394609809, -0.1257253438, -0.1525378078, -0.0430372357, -0.3580608070, -0.1931985319, -0.1284073740, 0.1382673681, -0.2894418538, 0.1113001853, 0.1346846819, 0.1799941808, 0.0770903900, -0.1950520128, -0.0721905828, 0.0981180817, -0.0559740551, -0.4283178747, 0.1415463835, 0.1509077251, 0.1860893220, 0.2114835382, -0.1336963922, -0.0852272809, 0.0938788727, -0.0432672165, -0.1341483891, -0.3104526997, 0.1683963686, -0.0740357637, 0.0499849617, -0.0361549184, -0.0197463781, -0.0141756916, -0.0308956243, -0.0687648281, -0.0883419141, -0.0722684264, 0.0236451384, 0.0574682951, 0.0094046127, 0.0796449780, -0.0452345163, -0.0109525742, -0.0636121333, -0.0815148205, -0.0238488615, -0.0658230558, 0.0372081585, 0.0143063664, -0.0877357647, -0.0297385659, 0.0923919231, 0.0581485480, 0.0311837867, -0.0263829958, -0.0480618477, -0.1106186584, -0.0391845070, 0.0717709064, 0.0302006509, 0.0581738949, -0.0883958265, -0.1194988117, 0.0570590682, 0.0410849750, 0.0992156044, 0.1037952527, 0.0153042590, -0.1104757637, 0.0602024123, -0.0059188874, -0.0405856147, 0.0328013487, -0.0233731680, 0.0191197433, -0.0189361945, 0.0159747265, 0.0047021923, -0.0158033427, 0.0082029495, 0.0923637077, -0.1046152338, 0.0517875291, -0.0314229280, 0.0497841649, -0.0640199482, -0.0573145188, -0.0343515500, -0.1013895497, 0.0031519365, -0.0614647567, 0.0328889005, -0.0300219450, -0.0845638141, -0.0050029773, 0.0984899700, 0.0995744616, -0.0229647402, 0.1289756745, -0.3116549850, 0.1895524263, -0.1041153967, -0.1266620755, -0.0616574399, 0.2543683052, 0.1604495496, -0.0445780791, 0.1778575778, -0.0091865342, 0.0258537661, 0.1007288769, -0.1980476528, -0.3604246676, -0.0776024535, -0.0315498896, -0.2334154546, -0.1689856499, 0.0923317373, 0.2610662580, -0.3474779725, 0.0046503674, 0.1052159816, 0.0897014886, -0.0619048588, -0.1875277460, 0.1243924499, 0.0791793466, 0.0120493220, 0.2403867096, 0.0139334351, 0.2958762348, 0.1375399083, -0.1000616625, -0.0404365920, 0.1554580927, 0.1456636637, -0.1598716527, -0.1283790469, 0.3463812172, -0.1239768490, 0.0195672307, -0.0164703112, -0.0027612150, -0.0887404457, -0.0316025019, -0.0834009722, -0.0354755893, -0.2074742466, -0.2387631685, -0.2951993942, -0.0595820062, -0.0489451811, -0.0653407052, -0.0186707471, 0.0404600874, 0.2124408931, 0.0000605367, -0.0036345525, 0.0633407980, 0.1686282605, -0.1402916163, 0.0232313573, 0.0463572964, -0.0567490645, -0.1570626795, -0.0498041771, -0.0493445694, 0.1006080285, 0.1466020942, 0.0569924004, 0.0611182600, 0.0764328241, -0.2962211668, -0.3950349689, 0.1087391675, -0.0975931659, 0.2496184558, -0.0926870778, 0.2296057343, -0.0423532762, -0.1653409153, 0.2879232764, -0.1409089267, -0.1372444332, 0.1384915709, 0.2317605466, -0.1108794212, -0.0213427693, -0.1289063990, -0.0923072919, -0.2575620711, -0.1075119004, -0.2581096888, -0.0243488103, 0.0044017858, -0.1552046686, 0.0181744806, -0.1685603112, -0.0725238100, -0.0775015429, 0.0106257424, -0.4677368701, -0.0497052036, -0.1150621250, -0.2060341388, -0.0778066441, 0.0059812199, 0.0823708177, -0.2648469508, -0.1590379328, 0.0356378332, -0.2646648884, 0.0222084075, -0.0729739368, -0.0132877007, -0.0858774260, 0.1501079500, 0.2286524624, 0.1285338700, 0.4075546265, 0.0346884392, 0.0004170788, 0.4290619195, -0.2771379352, 0.6521307230, -0.1574589312, -0.1226919219, 0.1986682862, -0.1941264570, -0.0159621872, -0.1297799200, 0.1259187609, 0.0731344670, -0.2428953648, -0.0624287464, -0.1055096909, -0.0529074371, -0.1503360569, 0.4308495820, -0.6254389882, 0.0276590660, -0.1186562628, 0.1612682194, 0.0566028431, -0.1715785712, 0.0555735752, 0.0776251107, -0.2449605018, 0.0359898023, 0.0295499880, 0.0739989728, -0.1234333217, -0.4827008545, 0.1720059067, -0.2745449841, 0.3431278765, 0.2091688216, 0.2431810498, 0.4114090204, -0.0494826660, -0.0757253245, -0.1892149448, -0.2327129692, -0.3188490868, -0.1194739491, 0.5069802403, 0.1633048654, -0.0745409802, -0.0972371027, -0.0565779060, 0.1832833141, 0.1820529848, 0.0754659846, 0.1686495990, 0.2766619921, 0.1921377033, 0.0942355841, -0.3478369713, 0.0219688006, -0.0683752224, 0.0533574857, 0.2810688615, -0.4040611088, 0.2479951382, -0.0010048365, -0.0991469845, -0.3384670615, -0.0841189995, -0.0816697925, 0.0597062334, 0.0266618654, 0.0634877980, -0.2585272491, 0.0656676441, 0.0286376346, 0.0787574425, 0.0959065482, -0.2215112150, -0.0611814186, -0.3065890372, -0.3203418255, 0.1076106429, 0.0214765090, -0.2758974731, 0.1073767617, 0.0190581586, -0.0623160377, 0.1138173714, -0.0672180131, -0.0360581204, 0.1358232945, -0.3214677870, -0.0744635165, 0.0197727140, 0.1441754997, -0.5059283972, -0.1228456944, 0.0870929062, 0.0333898105, 0.2191105783, -0.1796946377, -0.1454335600, -0.3773826659, -0.5845296383, -0.3021265268, 0.0916732997, -0.0708728060, -0.0777350888, -0.0392633453, -0.2217891663, -0.2493153960, -0.0153242368, -0.0201333538, -0.0166862570, 0.1011184081, 0.0884865075, 0.0598257296, -0.2793407142, 0.0501301326, 0.1036153063, -0.1957058609, -0.1817734540, -0.0169893913, -0.2328347415, 0.1333319396, -0.1826207638, -0.1076372638, -0.0115084881, -0.0326422900, 0.0357229710, 0.0001791225, -0.0690358505, 0.3222752213, 0.1416832209, 0.1656004190, -0.2238528430, 0.0720093921, -0.0119168852, -0.0669282153, 0.1718553901, -0.1410683990, -0.1709231734, 0.0273703616, 0.0981573462, -0.3386573792, -0.0955059975, -0.0662102774, -0.2286354899, -0.0099091195, -0.3399643600, 0.4574722946, -0.1314051449, -0.0800930932, -0.1211139187, 0.0592743494, 0.1870836169, -0.2737589180, -0.2070833892, 0.1135396361, 0.0274998173, -0.1316310912, -0.2072421908, 0.0073691173, 0.2757298052, -0.0947837830, -0.0227962900, 0.0264204312, 0.3440038562, -0.0162614696, 0.0171686728, -0.0463452153, -0.1679989100, 0.0043840543, -0.0701492950, 0.1592525840, -0.4011363685, 0.0287099015, -0.0241307691, -0.1111454219, -0.2619001567, 0.2800497711, -0.0181145109, -0.0210279133, -0.2292097658, 0.1169707328, -0.2523085773, -0.0748732463, 0.1154787466, 0.0000323136, 0.1687345654, -0.4230232239, -0.4223463237, -0.1185043901, -0.1004423946, -0.1227596402, 0.1588907391, -0.2564287186, 0.0147033483, 0.1911116838, 0.0866170153, -0.2770047486, 0.0274640564, 0.0014391356, -0.0572991967, 0.1792279482, -0.1417116374, 0.0148510253, 0.0294559561, -0.1153293848, -0.1574789584, -0.1289481521, 0.0958082303, 0.0066599739, 0.1330863386, -0.0434393100, -0.0445457622, -0.1139516309, -0.2379596233, -0.4332476854, -0.2853717208, 0.0697186515, -0.0480922945, -0.1331371516, 0.1442823857, 0.2295732200, 0.0384617038, -0.2165920436, 0.0740138292, -0.0961504281, 0.0324045271, -0.0931998938, 0.0760743469, -0.0838352442, -0.0613464154, -0.1844868958, -0.1708377451, 0.0438040681, -0.0748059154, -0.0604292080, -0.1373170316, 0.1105564907, -0.0557700917, 0.1009041071, -0.2113825381, -0.2921056449, 0.1028712690, 0.0454729609, -0.1991667449, -0.3707107306, -0.0725813061, -0.0019038686, 0.0289448574, 0.1140479967, 0.0770458430, -0.3758931756, 0.5140720010, -0.4091997743, -0.0718743280, 0.0460928790, -0.0794191211, -0.0110489558, 0.0204377603, 0.0017851616, -0.0705196783, -0.0788365230, -0.0015456021, 0.0951332748, -0.0748750567, 0.0230059903, 0.0099314908, -0.1053711399, 0.0180189386, 0.0409092344, 0.0494572185, 0.0001984258, 0.0439152829, 0.0848802328, -0.0929504037, -0.0481046066, -0.0228115730, -0.0648107603, -0.0189503320, 0.0037827101, 0.0005782205, -0.0299358368, -0.0686840117, -0.0355217047, 0.0342834592, 0.0392521210, -0.0533475913, 0.0191548020, -0.0097417152, -0.0638406202, -0.0652770102, -0.0335000120, 0.0439212397, -0.0313731842, -0.0111122252, -0.0049285837, -0.0025939103, -0.1014809832, 0.0038590296, 0.0136186657, -0.0577001087, -0.0399826728, 0.0276375972, -0.0112676388, -0.0239573605, -0.0445178188, 0.0241777375, -0.0302767213, 0.0089516891, 0.0501383096, 0.0735109895, -0.0532043800, -0.0033861622, -0.0666939542, -0.1210530102, -0.0231844094, -0.1179073527, -0.0634612665, -0.0480627269, -0.1293177605, -0.0777934566, -0.1286992133, 0.0185613111, -0.0771943405, 0.0208740942, -0.2246679664, -0.0696105361, 0.0347247310, -0.0422143936, 0.0162775759, 0.0325378515, -0.0620650239, -0.0994347632, -0.1681956202, -0.2053629607, -0.1911266148, 0.1489303261, 0.0185877793, 0.3045733273, -0.1694914103, 0.0752394572, 0.2384714484, -0.1168756783, -0.2994226515, -0.1164919958, -0.0965332761, 0.1733589768, -0.0806969702, 0.0129895303, 0.2689155936, -0.2636922896, -0.1070294082, -0.2064242363, -0.2712000310, 0.1143536791, -0.0394731611, 0.1160043254, -0.2018644214, -0.2257978767, -0.0964855552, -0.1554732919, 0.3271666765, -0.2200472057, 0.1116823405, 0.0955461040, 0.1758942157, -0.0339337550, -0.0137588540, -0.1823413223, 0.0734174624, -0.0391017757, -0.0824202895, -0.0320496447, -0.1437334269, 0.2262047827, -0.0145993009, -0.0491359793, 0.2138099521, -0.0269818157, -0.0033176579, 0.2908090055, -0.1878260225, -0.1250115335, -0.2814059854, 0.1620087922, -0.0325442664, 0.1590059549, 0.0539905764, -0.2749579847, -0.1571779400, 0.0216981024, -0.1424960792, 0.1335587054, 0.4028275013, 0.3521582186, -0.0606663823, 0.3236090243, -0.1137090325, -0.3931763172, -0.6234405041, -0.0019335365, -0.3377766013, 0.3677191138, 0.0186946690, 0.0959861502, 0.1135868505, -0.1050823331, -0.1499382704, 0.0208375026, 0.0331954174, 0.2792957425, -0.3316874802, -0.1738949269, -0.0906917825, 0.1985942125, 0.0643616915, -0.2089133710, -0.2042978257, 0.0812846646, -0.1205890924, 0.1205151677, -0.3973489702, 0.1179484129, -0.1599900573, -0.2697689533, 0.0261290874, 0.2145020664, -0.0000500432, 0.1179848835, 0.0070758164, -0.0067332936, 0.0677207261, 0.0861464590, -0.1068338230, 0.1520399004, -0.1356176883, -0.0617099702, -0.0079283146, 0.0643370748, -0.0503737889, 0.0040852791, 0.0207011718, 0.0143113751, -0.1760880351, 0.4526995718, -0.4180600941, -0.0228782427, -0.1367028654, -0.2015503049, -0.0670791939, 0.1566234380, 0.3150908053, 0.2355044335, 0.4247381687, -0.0747515634, 0.2876784801, -0.2200264782, 0.3490845561, -0.1691664904, -0.2130490243, 0.0690455958, -0.1372833103, 0.2053961903, -0.2234900445, -0.2964070737, -0.5064821839, 0.0336668789, -0.1435956508, 0.0397034250, -0.2317282856, 0.3741608560, 0.3076477647, -0.2071257532, 0.0870196894, -0.0485002622, 0.1447380930, 0.0408172160, 0.0437711142, 0.1004431173, 0.1149686128, 0.0243415572, 0.1166948527, -0.0911542103, 0.2286189795, -0.3822779655, -0.2031056434, -0.1717774570, 0.2490240633, 0.0257318076, 0.0139830848, -0.3211635351, 0.1870416254, -0.0637069941, -0.2742413282, -0.0008944927, 0.0982042775, 0.1068530157, 0.3040477037, 0.0124130705, -0.4518721700, -0.1423576027, -0.1834954619, -0.1029657945, -0.0784664750, 0.1133729070, 0.0345975123, -0.2099631578, -0.0470119417, 0.2118901461, 0.1541611701, 0.0387101062, -0.1051562354, -0.1785988808, 0.5225093365, -0.2238250822, 0.1144389585, 0.0559332743, -0.1051693186, -0.0734799951, -0.1525381655, -0.0015151338, 0.2790347636, 0.5433226824, -0.0647084713, -0.0288490225, -0.0308203604, -0.0070677428, 0.1678519100, -0.2567419410, -0.0501566380, -0.1931379288, -0.0264903028, -0.0751243383, -0.1512944251, -0.0657265559, -0.0781465173, 0.0069073499, -0.0237443540, 0.4050234556, -0.1325713545, -0.2338238955, 0.0038799476, 0.1083461568, -0.3529552817, 0.0968509093, 0.0504211783, -0.0368903838, 0.3431333899, -0.4331887662, -0.0277752858, -0.5119367838, -0.0657744929, -0.0522007905, 0.0780359581, 0.0645331740, 0.1219723895, -0.1685653180, -0.4487665594, 0.0492782295, 0.0736365020, 0.1283636540, -0.0240454320, -0.1195994094, 0.2697661221, -0.0670012757, -0.1727918833, -0.0177500285, 0.0232993849, 0.0079761464, 0.1888336986, -0.1113766134, -0.1779323518, 0.0842499137, -0.2812266648, -0.0343349241, -0.0135575598, -0.0105335778, 0.0453231223, 0.0576364510, -0.0677715093, 0.0514286608, 0.0848800167, -0.0630494878, -0.0303101074, -0.0713964477, 0.0179465953, 0.1740147471, 0.1002823710, 0.0620389022, -0.0174544174, -0.0196431987, -0.0230084248, 0.1229693592, 0.1297565699, 0.0096962918, 0.0019438331, 0.0668008104, -0.0265905727, 0.0821766108, 0.0799915791, 0.0122755403, -0.0651704967, 0.0154249426, -0.0113440631, -0.0402000882, 0.0690946057, 0.0546141602, -0.0638587400, 0.0342779383, 0.0117931189, 0.0693190768, 0.0295127202, 0.0220785588, -0.0243612844, 0.0212874748, -0.0271848124, 0.0379551835, 0.0026761231, 0.0716755390, -0.0165366288, -0.0707177743, 0.0132510038, -0.0065393811, 0.0991472229, 0.0036843217, 0.0498660505, 0.0491892397, 0.0373460203, 0.0495959185, 0.0954243317, -0.0520551614, -0.0568546616, 0.0801043436, 0.0055477251, -0.0344522558, 0.0458464399, -0.0152313691, -0.0389397517, -0.0587195940, -0.2477800995, 0.0848464295, 0.1120964661, 0.0686595440, -0.2365929186, 0.2607698143, 0.0571732335, -0.0699440464, -0.1731762290, -0.0032842865, 0.0012280314, -0.0315784588, -0.0541107170, 0.0968313143, -0.1064978018, 0.0386604369, 0.2084504962, -0.2568703294, -0.0645299032, 0.0657398254, -0.0372969843, -0.0291639194, -0.0140740667, 0.3585157692, 0.1507779062, 0.0021597533, 0.1713139266, 0.1009590402, -0.0261642486, -0.0449133739, 0.1013294607, -0.1953109205, -0.0214195736, 0.0456084944, -0.1080492064, -0.0836663917, 0.0993013382, -0.0146042714, -0.0437460802, -0.0189421289, 0.1210803837, -0.0450824276, -0.1924794018, 0.0257816520, 0.1534508467, 0.0719645247, -0.3722733855, 0.0404606126, 0.1557999104, 0.1106196865, 0.0998696461, -0.0865796432, 0.1060461327, -0.0593921319, -0.0905288681, -0.0835760832, -0.1855026484, 0.0320195779, -0.1864514053, 0.1099676713, -0.0427107364, 0.3720389307, -0.0256719161, -0.0335802361, -0.2131707817, -0.1576832533, -0.2864989638, 0.0501513779, -0.1934317797, -0.0699860752, -0.3179278076, -0.0437020771, -0.0755041316, -0.0258715972, 0.1592534482, -0.3216809332, 0.0916660354, 0.1728238612, -0.0021612372, -0.1865146756, -0.2449756861, 0.2408978641, 0.0953362882, 0.3072187603, -0.0481387526, -0.0278943740, 0.0114375036, -0.3826774061, 0.1149729863, -0.1997215152, -0.1153405160, 0.1818555444, -0.0947420970, 0.2677788734, 0.1157868132, -0.0119885262, -0.0551031753, 0.1741040349, -0.1697964072, 0.2944244146, -0.2093969434, 0.0816472545, -0.2147028148, -0.2449826300, -0.1249749959, -0.0692901686, 0.2226614803, -0.1261705011, 0.0904142261, -0.0476466864, 0.2509105504, -0.0601398982, 0.0767081529, -0.0919277817, -0.0346215740, -0.0087824296, 0.1142847016, 0.0686778054, -0.1877717674, 0.1111061722, -0.0018733586, -0.0301209874, 0.1150003150, -0.0264967568, -0.0355341882, 0.2006570101, -0.3419832885, 0.2016263306, -0.0406254269, 0.1012064219, -0.0332527645, 0.0064293682, 0.0355385020, 0.0769398063, -0.0195524357, -0.0584667511, -0.1958298534, -0.1044817641, -0.0722096786, -0.0636827871, 0.2436073273, -0.1874342114, -0.4180241525, -0.4795189798, -0.1447390169, -0.0431434624, 0.2444458157, 0.0578066073, -0.0625741631, -0.0624505579, -0.2682617307, -0.1931010783, 0.0158267058, -0.1477766633, -0.0325038135, -0.0366310291, 0.3379783034, -0.1127315983, 0.1758142412, -0.4817089736, -0.0680812001, -0.6215215921, -0.1545614153, -0.1491599083, -0.1805531532, 0.1149102226, 0.0459661186, -0.4137540758, 0.1006499454, -0.2087607235, -0.2934627831, -0.0566839874, -0.1902021170, -0.1058722287, -0.1735795438, 0.0256993920, -0.3164905012, -0.1018283218, -0.2724150419, -0.1847906262, -0.4539009333, -0.2740405798, -0.0311494842, 0.2965680659, -0.0691120923, -0.3795120716, -0.1392760128, 0.1482935101, -0.2996937335, 0.1698814780, -0.3912633955, 0.0345734023, -0.3201116920, 0.0442478731, 0.1434508711, 0.1235830635, -0.2401287556, 0.2478257120, 0.2052091062, -0.0017324737, 0.0290697347, 0.3718867898, 0.1005178392, 0.1790173501, -0.1215078384, 0.1717212349, 0.0094060199, -0.0266195200, -0.0433142409, 0.2489210814, -0.0833908841, -0.1764569432, 0.2225801647, 0.0393780917, -0.0279386807, 0.0866786093, -0.0293854158, -0.3292907476, -0.0957814753, -0.1212034002, 0.1445662379, -0.0835097507, 0.0607368276, -0.1042667404, -0.2698440552, 0.3207859695, 0.0975382999, 0.0563209690, 0.1985719651, 0.1165555790, 0.1037805155, 0.0843968317, 0.4665922225, 0.0372947566, -0.0002991295, -0.1439696401, 0.3917857409, 0.0163948480, -0.1036880985, -0.0572145805, 0.0734334290, 0.1049323082, -0.1790194511, -0.1917664856, 0.3327459991, -0.0488253012, 0.1210282072, 0.0696751103, -0.0073650707, 0.1526313871, -0.1448713690, -0.0895087644, -0.1744616628, -0.0903848857, 0.2522981167, 0.0335143134, 0.0293715913, 0.1582455486, -0.3532566726, -0.0518452525, 0.3730528653, -0.0884375721, 0.0433449410, -0.0079961671, 0.2177454382, 0.3391509950, 0.7573286891, 0.1837645769, -0.0998507515, 0.4116354287, -0.0413202606, 0.0402340703, 0.1754765511, -0.3012451530, -0.0611683205, 0.1406723708, -0.0776616707, 0.1007326245, 0.0772053301, 0.1268532574, -0.0249503125, -0.1565332115, 0.1638639271, 0.6562883258, -0.2630383372, -0.1041788533, 0.0473823249, -0.2871932685, -0.2778189778, -0.2432080507, -0.2963147163, -0.1282846779, -0.0102175055, 0.1796887070, 0.0307580903, -0.4047791362, 0.2611997426, -0.0151335169, -0.1233736575, 0.1948769689, 0.2350624949, -0.2473117709, -0.2877729237, 0.0008031480, 0.1243697032, -0.2599281371, -0.3257604539, 0.0894474164, 0.0071183732, 0.1072933152, -0.0509532876, -0.1626713872, -0.0224971697, -0.0489975736, -0.0216181688, -0.1800729483, -0.3314353526, 0.1665731221, 0.0324064232, 0.0144201219, -0.3076409698, -0.5265476108, 0.1931964755, -0.0224724021, 0.0639769584, -0.0600906685, 0.0063002193, -0.0231634602, -0.1592693776, 0.0329628140, 0.2627126276, 0.1004597098, 0.1401145905, -0.4608568251, -0.3340011537, -0.0493632108, -0.2508350313, -0.0642115474, 0.2327977717, 0.2491212040, -0.1963433325, -0.0257969294, -0.1767627895, -0.0294376016, 0.2287604213, -0.1177290455, -0.2403378040, -0.0462147966, 0.3363771439, -0.0781565905, 0.0883734971, -0.3591209650, 0.0114198299, 0.1035363972, 0.2568590343, 0.1305067390, 0.1117637753, -0.0480586514, 0.2811545134, -0.0112856245, -0.0111870300, -0.4160318077, 0.3569364250, -0.2537582815, 0.0248433538, -0.1177354455, 0.0703092888, 0.0241400730, -0.1026085019, -0.0597362816, -0.2200462371, -0.0481815338, -0.0974328816, -0.2270759493, -0.2031127065, -0.0885661617, 0.0182417613, -0.0344357975, -0.1504974514, -0.1502296925, 0.1233835444, -0.2911680043, 0.0971871093, 0.0365627892, 0.1295825094, -0.0076869307, -0.0421610437, -0.1073141173, 0.0477738641, -0.0293160956, 0.0901024342, -0.0441179760, -0.0801823586, -0.1115568653, 0.0763920099, 0.0064419718, 0.0995334238, 0.1605317891, 0.0719351768, 0.1668756306, 0.0650812313, 0.0055793095, 0.2057938427, -0.1510349512, -0.0473949723, 0.0339843780, -0.1328927726, -0.1229732409, 0.2082575709, -0.1073863953, -0.0268664602, -0.1359194368, 0.0211791713, 0.0028575775, -0.1488327086, 0.1469842345, 0.0920602903, -0.1456009746, -0.0315040350, -0.1459433585, -0.0609611571, 0.1591127962, -0.1231402680, -0.0501650348, -0.1181398779, -0.0284005255, -0.0004788801, 0.2291923016, 0.3798083663, -0.0698251277, -0.2407665998, -0.0126375295, 0.0673190728, 0.0207391847, 0.0886627883, 0.0899452344, 0.1286441684, 0.0336076729, -0.0789129436, 0.1022023112, -0.0446367562, -0.0033306740, -0.1370446831, -0.0079502733, 0.0790308043, -0.2279818058, -0.0045695505, -0.0029999176, -0.0130052399, -0.0139601417, 0.1193801090, -0.0284962114, -0.1101578996, -0.0547491163, -0.1908265352, 0.0287483651, -0.0168048590, -0.0616788231, -0.0630790517, -0.2124225348, 0.0069628120, -0.0652842894, -0.0209415443, -0.0861308202, -0.2431804836, -0.0410433896, 0.0594345443, -0.2801392674, -0.0180225093, 0.3022517264, 0.0299457479, 0.1089614704, 0.1203387752, -0.4072726071, -0.1130884513, -0.5338996649, 0.2082112432, -0.0215110704, 0.0044089234, -0.0044697844, -0.4881971180, 0.1916949600, 0.1518060863, -0.1006668955, 0.1188675910, -0.2458428144, -0.0644377172, -0.1458729208, 0.0263957139, -0.1747464240, -0.2374003083, 0.2572193742, 0.1264933199, -0.4456821084, 0.1468633115, 0.0315048806, -0.1158137470, 0.2547441125, -0.0295600314, 0.0988108441, -0.1158799529, 0.1360717565, -0.4321074486, 0.2210700065, 0.0448484123, -0.2069778293, 0.0327347033, -0.1877276897, 0.0048304065, 0.4713006616, -0.3136858940, 0.0292910896, 0.0776693895, -0.2501912117, -0.0871470943, -0.0198210105, -0.1646935493, 0.1230690032, 0.0523010902, 0.0242454745, -0.0061139031, 0.0551560111, 0.4267247617, -0.1257885098, -0.1119841188, -0.3405224979, -0.0275101885, -0.1323648393, 0.0232162979, 0.0108840112, -0.2051682621, -0.2230729610, 0.1202385649, -0.1521686465, 0.0678836033, -0.1877905130, -0.0553658344, 0.0548415408, 0.1104684249, 0.0601948202, -0.0244766157, -0.1512337178, 0.0328859426, 0.1286530942, 0.1511207372, -0.4344355762, -0.3821036816, -0.0197056979, -0.0353698917, -0.2658595443, 0.0352540575, 0.2500495315, -0.0925669745, -0.5475284457, -0.3835853338, 0.2133372575, 0.3230166733, 0.1930843741, -0.3855813742, -0.0658678710, -0.0151933273, -0.0194844697, 0.0630640388, -0.1371513158, -0.6137075424, -0.3131424487, -0.4801639020, 0.1851442307, -0.0475883186, -0.2107635885, -0.0959890932, -0.0473802872, -0.4461278021, 0.2159181982, -0.1366008967, -0.0327501968, -0.0475773253, -0.1756127924, -0.1571406126, 0.1928642541, -0.1575949639, 0.0651930422, -0.1250835657, 0.0091230683, -0.1571016461, 0.0203051101, -0.0977256298, 0.2692465484, -0.0083195530, 0.0993949100, -0.0224554818, -0.2594718337, -0.2287213802, -0.2589180768, 0.1579526067, -0.0208402835, -0.0847006068, 0.1831525862, 0.0932589918, -0.2048153430, 0.1679115742, -0.1383347958, 0.2611082792, 0.1666445136, 0.0986584201, -0.0243181940, 0.0068089426, -0.1632453650, 0.0949475393, -0.2202405632, -0.0243577342, 0.0076078414, -0.0686641857, 0.0853206441, -0.0711468384, -0.0723535568, 0.0732482597, -0.0589079037, -0.3241212666, -0.4566856027, -0.1898269355, 0.1018159240, -0.5245240331, 0.0330944657, -0.2752871513, 0.0055405586, -0.0116518429, -0.0057458468, -0.2704915702, -0.0490216874, 0.0581898428, -0.2058512270, -0.0360134952, -0.0561935417, 0.0279251765, -0.2772380412, -0.1002788320, 0.0729794279, 0.1235074028, -0.0326133333, -0.9459701180, 0.1115736738, -0.1749397814, -0.3519020081, -0.2056360543, 0.3742502034, 0.2179394662, -0.0752008483, -0.1454668194, 0.0149349393, 0.2258004397, 0.3095551729, -0.0938993171, 0.0171851125, -0.1366777718, -0.4165176153, 0.1634261161, -0.0377386101, -0.1418675035, -0.4231021106, -0.0583206154, 0.0098419925, 0.2727462351, -0.1587125361, 0.3711577356, -0.1318803728, -0.0125006391, 0.2193556130, -0.0623838417, -0.1878684908, 0.0445145965, 0.1474439055, 0.0563034192, -0.2258357555, -0.2809143662, 0.3246426880, -0.1319623590, 0.0987301916, -0.0142639112, 0.0401830710, 0.1285218745, -0.0883439258, -0.2803466320, -0.1940717101, 0.3749725819, -0.0527471304, -0.2025786340, -0.1235043034, 0.3573124707, -0.1365094185, 0.1131031364, -0.1342541426, 0.1589973420, 0.0275289640, -0.0436936542, 0.0696984380, -0.0239760038, -0.0717928037, 0.1453390419, -0.0840373635, -0.1835591346, -0.0183603317, 0.2911185324, -0.0392237268, -0.1446056664, 0.0865914524, -0.3237494528, -0.1003805622, -0.2270840704, 0.1554511040, 0.1721455008, 0.0158919860, 0.0036940901, -0.3578899503, -0.1108519137, 0.2690650523, -0.3114804626, -0.0181090534, -0.0122793186, 0.0107435649, -0.1660773158, -0.1543890387, -0.0561663546, -0.2321885973, 0.1293035299, -0.2209986448, 0.0560266264, 0.0212255940, -0.0122970194, -0.0773996487, 0.0898284316, 0.0046082535, 0.0053681727, -0.0299999788, -0.0921264887, -0.0250930656, -0.1006322950, 0.0944060460, -0.2496715635, 0.1951081306, -0.0076508373, 0.4015840292, 0.0723441243, -0.1026014462, -0.0032262136, -0.0610090010, -0.2211860418, 0.0677777603, 0.0405036584, -0.1855622679, -0.0110083520, 0.0284831244, -0.1895282120, -0.0352239348, -0.1788157672, -0.0518891215, -0.2244124562, -0.1101423874, 0.1219261587, -0.2465910316, -0.0760430917, -0.0626734197, 0.0338571519, -0.1401064545, -0.3129153848, 0.0245524328, 0.0576288141, 0.0960814953, -0.0433644205, -0.0479949340, -0.1042287499, 0.0301298369, 0.0629955381, -0.1473698765, -0.1415435076, -0.0257097743, -0.1304771900, -0.2094291151, 0.1080787778, -0.2465091050, 0.0062069297, 0.0837772191, -0.4320695400, -0.0077673509, -0.2449209392, -0.1771993935, -0.2047656178, 0.2376877964, -0.0249471385, -0.2132007182, 0.1732634157, -0.2621500492, 0.1079239398, -0.2131392211, 0.1493147612, -0.1759242266, -0.1085447222, 0.1480583400, -0.2260343879, 0.4329331219, -0.0105088633, -0.0690941736, -0.0762431845, -0.0581060201, -0.2021785676, -0.1143063381, -0.1884014606, 0.2582916617, -0.4022581875, 0.0078363996, 0.1525139809, 0.2958477139, 0.1056256145, 0.1548959464, 0.0850403979, -0.0279941764, 0.2687979341, -0.2989470065, -0.5588941574, 0.1085343137, -0.0503154285, -0.0266497638, 0.1378649473, -0.0488780029, -0.0588463806, -0.0915424451, -0.3498695493, -0.1302066147, 0.1928394288, -0.2487874925, 0.0282380264, 0.0025649280, -0.1506819725, -0.0018937656, 0.0338758528, -0.0632703826, 0.0130048515, 0.0800561234, -0.0785046890, 0.0285656601, 0.1803569943, 0.2620215416, 0.4445295036, -0.2023824155, -0.1196779907, 0.2068951577, -0.0371222273, -0.0212365910, -0.0418069102, -0.0348561108, 0.0866584852, -0.0050015035, -0.1768151820, -0.0041608647, -0.0636897832, 0.3139226735, 0.0361363031, -0.1630289257, 0.0330612212, 0.4330884814, -0.2218720168, 0.0112368055, 0.2186928242, -0.0324640684, 0.0727109164, 0.0003099095, -0.2361000180, 0.1221124977, 0.1452040523, 0.1077951789, 0.0777314529, -0.2194268852, -0.0649191812, -0.3423406482, -0.2923758924, 0.1714592725, 0.0528512523, -0.0902240500, -0.3247721493, 0.0592541248, -0.0476722829, -0.0131665608, -0.1755062938, -0.1902386248, -0.0200619809, -0.2262266725, 0.1197451577, 0.0331223346, -0.0401019193, -0.0501661487, -0.0913560912, -0.1512369514, -0.1879046112, -0.0490219183, 0.0868850052, 0.0317018554, -0.1196467802, -0.1197742000, -0.4000749588, -0.0918332413, 0.0845287442, -0.1660370827, -0.3824434578, -0.0185513329, -0.2057906985, -0.1945063919, 0.0944827795, -0.2416625470, -0.0205826443, -0.0263614785, 0.0173952952, 0.1171473712, -0.0598106533, -0.1752756685, -0.2317165285, 0.0011130334, -0.1689554453, -0.2367842495, -0.1809566319, -0.1395306438, 0.1723511219, 0.0143703483, -0.2360408902, -0.1278158724, 0.0580672324, -0.2699661553, -0.2681666315, 0.0205219798, -0.2325840294, -0.1277398914, -0.1774018407, -0.0793339536, 0.2551355660, -0.1238758117, 0.0697809011, -0.2284828722, -0.1936282516, -0.2260836214, 0.1498152465, 0.1465498358, 0.1667969674, -0.0025785328, 0.2224153280, -0.0055889506, 0.0627296790, -0.0095650684, -0.0717728063, -0.0833191276, 0.0494875237, -0.2322313786, -0.1607033461, 0.1875710785, -0.0672114417, 0.2863991857, -0.3367464840, -0.0476947241, 0.0029132846, -0.0561132021, -0.4001784921, -0.0258640386, 0.0725476369, 0.0412939452, -0.0752829015, 0.0251283534, 0.0784514770, 0.0155762704, -0.2877739966, -0.0634298399, 0.0650260672, 0.1666361988, -0.3575445116, 0.2729635537, -0.3331954777, -0.0286355503, 0.1552724987, 0.1632402539, 0.0553991981, -0.2668750882, 0.1735181957, -0.0048949565, 0.0898033753, -0.0850454196, 0.0455071293, 0.0613142550, -0.0080535151, -0.1348210871, 0.2235330045, -0.4703873396, -0.0115654711, -0.0244655050, 0.3312487602, 0.0374913216, 0.1511921883, 0.0288176332, -0.0749711916, -0.1792975962, -0.0248378906, -0.7157542706, 0.0945730135, 0.4805177450, -0.3848162293, 0.0625732541, -0.4737689197, -0.0683175400, -0.2399122864, 0.0293776337, -0.0712966174, -0.0450696498, 0.0730494782, 0.1341134459, 0.1367913336, 0.0030805429, -0.0132051958, -0.2341316342, 0.0110843992, 0.0040311920, -0.0485338978, 0.0172291268, 0.1901976615, -0.0796163231, -0.0534509048, -0.1615068763, 0.0107515212, -0.1034782678, 0.1609508246, 0.0225980077, -0.0717264935, -0.1466914266, -0.0820329562, -0.0215784796, -0.1913527101, -0.0298493337, 0.0165051240, -0.1099343151, -0.1711198390, 0.2178767473, 0.0588698238, -0.2806181610, -0.1573741138, -0.0985196456, -0.0553392693, -0.0425881781, -0.0551285669, -0.2533811629, 0.0489064977, -0.0447526537, -0.2109521925, -0.1693786234, -0.0034646678, -0.0977129862, -0.0016150328, -0.3093207181, -0.2746029496, -0.0923239738, -0.0104276044, 0.0369389020, 0.0604706742, -0.0901005492, -0.1164809391, 0.0367038213, -0.2023211867, -0.0298812333, -0.0718111247, 0.1901293397, -0.3196007609, 0.1343544126, 0.0828518942, -0.0619191341, 0.0327091999, -0.3344708681, -0.0066816327, -0.0794354901, -0.0703495145, -0.0572526790, -0.0264890045, 0.1977439374, 0.0575921796, -0.0068633785, -0.1332675070, -0.1647879034, 0.0594930016, -0.0299140196, 0.0199664962, -0.0482323393, 0.0818894356, 0.0643027425, -0.2280627191, 0.0511503816, -0.1246376485, -0.3078483641, -0.3372026384, 0.0655818433, 0.1623869836, 0.0351225324, -0.0179237872, 0.0365561917, 0.0393282734, 0.4004803896, 0.3353770077, -0.1589705348, -0.4620482624, 0.1277825832, 0.0124523407, -0.0314265490, -0.1931050420, 0.0394451544, -0.0855082199, -0.0136865014, 0.1092200801, 0.0240905434, 0.0405167937, -0.0058291215, 0.1000547484, -0.0836856812, 0.2801459134, 0.1167561635, 0.1858318746, -0.0605169646, 0.2392914593, -0.1703487635, 0.3345862031, -0.0884005502, -0.1177397072, 0.1195786074, 0.0774415508, -0.1171633303, 0.0767170936, -0.0285216887, -0.2222516537, -0.1262426823, -0.2612365782, 0.0332759395, 0.3320650458, 0.1135634631, -0.2486509085, -0.0146545479, -0.3622341454, 0.1741684377, 0.1342463344, -0.2326251864, 0.1265883297, 0.1264946759, -0.3648326695, 0.2108366638, -0.0278630406, 0.3304699659, -0.0885178223, -0.0218675006, -0.2843535542, 0.0010413033, -0.0060936660, 0.0545251071, -0.1176857203, -0.1927161366, -0.2914838195, 0.2060998976, -0.1218186915, -0.1834061146, 0.0185893886, 0.0490514077, 0.2672976255, 0.1231256574, 0.1986918598, -0.0303226262, 0.0174961202, -0.0189439673, -0.4588498175, 0.0255411323, -0.4221754372, -0.2816109359, -0.1326720119, 0.0908369049, -0.2766268253, -0.0484542660, 0.1998618990, -0.0212080833, 0.0741645247, 0.0749054179, -0.1539990753, 0.3228742182, 0.0016573712, -0.2495142817, -0.0111561222, 0.2353200316, 0.1159056053, -0.1387197673, -0.1429436356, -0.0719463304, 0.3442862630, 0.0496779196, 0.1281490475, -0.2138956934, 0.0087426277, -0.0120435115, -0.2219958603, -0.1210235208, 0.0189812575, -0.1288299263, 0.0702809095, -0.1028889939, -0.3255693913, -0.2154158950, -0.0784034505, -0.2302950472, -0.1000285968, -0.1102901548, -0.0269253608, 0.1923511028, -0.0073560467, -0.2500249147, 0.0412127152, -0.2257574946, 0.0882632285, 0.0525513589, 0.3251994848, 0.0289943237, -0.1063596085, 0.0635048300, -0.3405969143, -0.2238867730, -0.2082393616, -0.0239935275, -0.2903327346, -0.1179409996, 0.0497618616, -0.0245089643, 0.0387918577, 0.0458757207, -0.3527477086, -0.1124573648, 0.3104679286, -0.0848955885, -0.1277861148, 0.0314584076, -0.0831501782, -0.1267966777, 0.0506825931, -0.1498958021, 0.0558934323, -0.0481731333, 0.1082811058, -0.1214425489, -0.0964112282, 0.1485860944, 0.1180593893, 0.1650207043, 0.0728237480, 0.2590657175, 0.0577427149, -0.2177477330, -0.2877921164, -0.1429128647, 0.1885212213, -0.0091442671, 0.0373233855, 0.2329504341, -0.0376120768, 0.2261542827, 0.2040347159, 0.1057521626, -0.0102499006, -0.2522192299, -0.1597434282, -0.0475687385, -0.0655037537, -0.2747283578, -0.0334477648, 0.2625797689, 0.0800983682, 0.1783097684, -0.0384784415, 0.2544271946, 0.0126965707, 0.0234456416, 0.1479836851, -0.1505096406, 0.5052238703, 0.0172686912, -0.1059959605, -0.0084875291, 0.1128987372, -0.0118618160, -0.0940847620, 0.0703609288, -0.1286900192, 0.0739429519, 0.0109935282, -0.0197311882, -0.0646304488, 0.1761813015, -0.0126331048, 0.1815259457, 0.0470794402, 0.0183765367, 0.0134387603, -0.0344087705, -0.0295443852, 0.0428919941, 0.2268444598, 0.0621328019, 0.0877606124, 0.0257999133, -0.2143675834, 0.0110800667, 0.1990012527, 0.1225929335, 0.1924457550, -0.0058090808, -0.0177728459, 0.1205232739, 0.1057546064, 0.0241751987, -0.0674171373, 0.0590030104, 0.0942657590, -0.0263339356, -0.0572478659, 0.1260429323, -0.0652925819, 0.0843346491, -0.1153741330, -0.0263504516, -0.0863697529, -0.2104333341, 0.2660562098, 0.0375021957, 0.0305650420, 0.0123896506, -0.0126788747, 0.1349940002, -0.0124154538, 0.0306233447, -0.2202530056, 0.1035790443, 0.0322632678, 0.1437951773, -0.0212973747, -0.0622781105, -0.0039446917, 0.0470566340, -0.2069235742, -0.2740239799, -0.1164137796, -0.0747070163, -0.0177121870, -0.2235060483, 0.2228244543, -0.0793564320, 0.0180891640, -0.2066214532, -0.4094593525, -0.0297655445, -0.1239878163, 0.0559198558, -0.0440905243, -0.8986431360, -0.2444582283, -0.0271694995, -0.6759778857, 0.0867862478, -0.1549523175, -0.3566754758, 0.0392479375, -0.4791668355, 0.2038331628, 0.0286874045, -0.5634020567, -0.0018140705, -0.3929138184, 0.1943301260, 0.1206379160, 0.0009398602, 0.2027256340, -0.1927195787, 0.0940717757, -0.2438979000, 0.2846491933, 0.1517866999, -0.0253639985, 0.1720653921, 0.1179430485, -0.3238315284, -0.1544524729, -0.0380197838, -0.2050002813, -0.1565209180, 0.3384438455, 0.5720711350, -0.0019562007, -0.5775899291, 0.2125406712, -0.0147903087, -0.1898142546, 0.0133407135, -0.5737505555, -0.1095626280, 0.0193382595, 0.1082173809, -0.4601330161, -0.1981400996, -0.0819254592, -0.2337092459, -0.0463840105, -0.0420749150, -0.3677324951, 0.0535566844, -0.2583666146, -0.1598931998, -1.1728757620, -0.5305467248, -0.0709881112, 0.1225927100, -0.1574078947, 0.0193478856, -0.2366321236, -0.0413635783, 0.2102293670, 0.0545503385, -0.6327008605, -0.1812142879, -0.1256263703, -0.0437544435, -0.1237621233, -0.2073810697, 0.0250876993, 0.2647297680, -0.1205262691, 0.0175207146, -0.2869272530, -0.0729615912, -0.0768097192, -0.1455189288, -0.0735251531, 0.1093553975, -0.0828181133, -0.2446327507, 0.0761316940, 0.2126085311, -0.1703519523, 0.0325217061, -0.1066044047, -0.0156526193, -0.6962680817, -0.0257649813, -0.1294354498, -0.1906451285, -0.1019025221, -0.0751382858, 0.0452479571, -0.2429407537, 0.0151297133, 0.0043445737, -0.0991165861, -0.0694018975, 0.0523040853, 0.0122886458, 0.1003174931, -0.2283664346, -0.0903266147, -0.1406903118, -0.0476596355, 0.0426715575, 0.0061419248, 0.0120172370, -0.1050071046, 0.0546214432, -0.0137187876, 0.0800488442, -0.2729700804, -0.0269350614, -0.1793880910, -0.0697073042, -0.1413533241, 0.2533287108, -0.1621106863, 0.2192960829, -0.1133456454, 0.1742519289, 0.0685647801, -0.0512179583, 0.2986699939, 0.2887624204, -0.2024438530, 0.1833342165, 0.0968438014, -0.1630591899, -0.4071461260, 0.1175918728, 0.0465899408, -0.0937102139, 0.0805777311, 0.0369501524, -0.1463993937, 0.1923375279, 0.2849352360, 0.1707458198, -0.3349097371, 0.2034579068, 0.1120350137, 0.1090291813, 0.2690674961, 0.4140439332, 0.1518399715, 0.3335694969, 0.3360587060, 0.0794144794, -0.4118700027, 0.0989106745, 0.2028061301, 0.0492302850, 0.1568595469, 0.1609210521, -0.2880471349, -0.1836303025, -0.1426207572, -0.1992115080, -0.0959460139, -0.0592179894, -0.0628273860, 0.0113813775, -0.2015594840, 0.1778324991, -0.2420839518, -0.2211390585, -0.1873811930, -0.0897248387, -0.2596271634, -0.1374861002, 0.0168270562, 0.3703115284, 0.0653213635, 0.0352124907, -0.1133542657, 0.0521121137, -0.1383142024, -0.0416208282, 0.0034354753, -0.1339864731, 0.0837097391, -0.1313722879, -0.0853963569, -0.2305394560, 0.0951920673, -0.0766898394, -0.1143464819, -0.0035114894, 0.1314970702, -0.2190781534, -0.2068666667, -0.2950184345, -0.8216183186, -0.1865941137, -0.1890995353, -0.3364613354, -0.5148181319, -0.0216415003, -0.3731851876, -0.2752742767, -0.0902670324, -0.3065577447, 0.3628780544, -0.2501128018, 0.2164059877, -0.0302120689, 0.0052942098, -0.3657009304, -0.5385382175, 0.0992835611, -0.0457482673, 0.1447532624, -0.3258834481, 0.0574061610, -0.1440476030, -0.4284557104, 0.0010956031, 0.0349648707, -0.4341171384, -0.1056828648, -0.3259363770, 0.3746584654, -0.0775182843, 0.1423372477, 0.1729863882, 0.0145075135, 0.1899971366, -0.1212335601, -0.1721404195, -0.3238795996, 0.0673007816, -0.0572923273, -0.0595115386, -0.1080253050, -0.0509947315, -0.1420063674, -0.1817693114, 0.0312186070, -0.1335793734, -0.8543284535, -0.2466091514, 0.0627682209, -0.0294406153, -0.1641008854, 0.0068762945, -0.2091022134, 0.0926780626, -0.1163999066, -0.1057629362, -0.0248326752, 0.0909483954, -0.0055311145, 0.0401321985, -0.0083177658, 0.0540889353, 0.1939952821, 0.0255281199, -0.0607222468, 0.0248531830, 0.0517804027, 0.0918501616, 0.0496279299, 0.1324236989, -0.0745760873, -0.0041319313, -0.0270968452, 0.0062810061, 0.0372690596, 0.0574705191, -0.0374979973, -0.1419336200, 0.0219436809, -0.0005031931, -0.1784857213, 0.0240712669, 0.0096467119, -0.0126736183, 0.0718243718, 0.0929623023, -0.0798348114, -0.0548970178, 0.0291529801, -0.0529919751, -0.1889083833, 0.0477686264, 0.2060243189, -0.0032623254, 0.0613255240, 0.0323930271, 0.0478250273, -0.1259343028, 0.0446173027, -0.1300264150, -0.0673136115, 0.2199416757, -0.2153378129, 0.3163117766, -0.0729863346, -0.0044887657, -0.0530351028, -0.1155381724, 0.1783479005, -0.0524917804, 0.0827708170, 0.0339666717, -0.1181997806, -0.0373941772, 0.0837569460, -0.3280613124, -0.1460099965, -0.1093796492, -0.2096256167, 0.0129289422, 0.0015911037, -0.0642081276, 0.0177090988, 0.1813612431, -0.1577895433, 0.0469956733, -0.1556739807, -0.0149394143, -0.0942030177, -0.0340948030, 0.0006329107, -0.1496617347, -0.1958525330, -0.0585075803, -0.1730973274, -0.0776455626, -0.5089788437, 0.0703390986, -0.0086018620, -0.2306744754, -0.2154256850, -0.0010333102, -0.2139459699, -0.0398544520, 0.2814834118, 0.0213266555, -0.0803279281, -0.5498947501, 0.2809831798, -0.0710248649, 0.0642726645, -0.1787825525, -0.1904651523, -0.4886822701, 0.0852761045, 0.0472486056, 0.1520735919, 0.0720063969, -0.1565131694, -0.3290498853, 0.0323391184, -0.1530845016, -0.0662100092, -0.2722713053, 0.1922534704, -0.1094143167, -0.0317873508, -0.1613291502, 0.2051366568, 0.0422335342, -0.0070758723, 0.0163197685, -0.1839297116, 0.0409118384, -0.0362115242, -0.3767324388, -0.0730754137, -0.2016938180, 0.1735294610, 0.1514500678, 0.0136149256, -0.1603365242, -0.0181169529, 0.0093459813, -0.0817931443, 0.0620590746, 0.1042679250, -0.1642530560, -0.0671961680, 0.0733688921, 0.0581561625, -0.0887570009, -0.1900490075, 0.0711172000, 0.0326494947, -0.2951377928, -0.0229629353, -0.0415730812, 0.2051505297, -0.0939078927, -0.5058394074, 0.1146987826, -0.1492633820, 0.0060723154, -0.0842296407, 0.0026488176, -0.3292076290, 0.1153424978, 0.2281154096, -0.2432460636, 0.0537150055, -0.3265703917, 0.1937355697, -0.4598918557, 0.1636195481, -0.0864573047, -0.1690555662, -0.0051826355, 0.1243477613, -0.0005611862, -0.0042864508, 0.0544748604, 0.1368522197, -0.2701293826, -0.0336231291, -0.0703726113, 0.0196800437, 0.0136762876, 0.3751837611, -0.0209131371, 0.2570315599, 0.1451409310, 0.2379502058, -0.0116660660, -0.1007107571, 0.0796566159, -0.0941100195, -0.0178097300, 0.2659937143, 0.0029706829, -0.1156078577, 0.1368368864, 0.0040224432, -0.5798783302, -0.2128715813, 0.0017204166, 0.1150113344, -0.0124551523, -0.0143705634, -0.7878139019, -0.1277172267, 0.0684854612, -0.2533379197, -0.0847343430, 0.1110772416, 0.0148055712, -0.3815698028, -0.0016138518, 0.0291624479, 0.1842222512, -0.0112846028, -0.1837322265, 0.0497078709, -0.1094654128, 0.0439340807, 0.0080127195, -0.0910996050, -0.0660823211, 0.1052060127, 0.0899873525, -1.1760076284, 0.0182973538, -0.7647778988, 0.1289652735, -0.1286614239, 0.0550442860, 0.0285552926, -0.2559547722, -0.1769764870, -0.1868563145, -0.0108680325, 0.0311846808, 0.0517724939, 0.0540040955, 0.0351506360, -0.5051863194, 0.3706893623, -0.0289143827, -0.0489810258, -0.2460047901, -0.0949320197, -0.1939294487, -0.0785133466, 0.1200823411, 0.0766198263, -0.1428892612, -0.2034137547, -0.0318922400, 0.0881438032, -0.0661343634, -0.5174708962, -0.0058849584, -0.0693129301, -0.0423463695, -0.0788046196, -0.2920777798, -0.0307249483, -0.1321933120, -0.2339401096, -0.1103012264, 0.0569757447, -0.1678226590, -0.0110256448, -0.1024638712, 0.1392844468, 0.0218350813, -0.1012455672, -0.1290137917, 0.0440581925, -0.5333157778, -0.3595599234, 0.0369538665, -0.0940390304, -0.0505056418, -0.0858945400, -0.0334063582, 0.0532491058, -0.0088602239, -0.3922046721, 0.2550165951, -0.0239981003, 0.1202421412, -0.0353131816, -0.0512058660, -0.1350879818, 0.0378994830, 0.0875373110, 0.3196762800, 0.0391328372, -0.3308556080, 0.0067541800, -0.3698874116, 0.0965306461, 0.0858623534, 0.1260736138, -0.2620132565, -0.2399359345, -0.0842050835, 0.2153798789, -0.0763240457, -0.0702897161, -0.1418862492, -0.0917826369, -0.0867001414, 0.0021946067, -0.0968364999, -0.1681295037, 0.1400988996, -0.0603071414, 0.1803060770, 0.0997595787, -0.0028203202, -0.0491087250, 0.2387702912, -0.2158252895, 0.0006073179, -0.0760149360, -0.0272296630, -0.0369581096, 0.0245469678, -0.0720247552, -0.0230538156, -0.0386180840, 0.0371422581, 0.0648999214, -0.1037625447, 0.0148387859, -0.1373985857, 0.1474382877, 0.0534619838, 0.0413671546, -0.0651653558, 0.0592349283, -0.1417517662, -0.0659896657, -0.1353359073, -0.0137226852, -0.0176662523, 0.0160983112, 0.0281123705, -0.0200993773, -0.0297769494, -0.1946466565, -0.0484948270, 0.1399188191, 0.1236416698, -0.0119774379, -0.0025045853, -0.0857085735, 0.0919241235, -0.1420921981, 0.1100457534, -0.0737023726, 0.1507416368, 0.0548668467, 0.0776321739, 0.0404406562, -0.0557409748, -0.0412889309, 0.0064440477, -0.0183721315, 0.0784328356, 0.0323703513, -0.0088258451, 0.0167010985, -0.0021886739, -0.0012385732, -0.0636471957, -0.1287873685, -0.0346340761, 0.0422621556, 0.0210816804, 0.1755281687, -0.0871006474, -0.1161027923, -0.0536837094, -0.0294335708, -0.0384187326, 0.1920156330, 0.1326022446, -0.1034023613, 0.0304054003, 0.0730784312, 0.1069400832, -0.0538381599, -0.1534273028, 0.1564073563, 0.1458979994, 0.1087644249, -0.3790799677, 0.0343827866, 0.1481244564, -0.0931219980, -1.0676962137, 0.5012778044, -0.0090086898, -0.0991226882, -0.1144011766, -0.0714569241, -0.0639094040, -0.1660574675, 0.2020050585, 0.1238581240, 0.2454779744, 0.0548488759, 0.0989490151, 0.0154512906, -0.2138435543, 0.2350000590, -0.3218050897, -0.4819834530, -0.1945608556, -0.0637656078, 0.3456669152, 0.1070387587, 0.1284344047, 0.1086896881, 0.0831252709, 0.1470982134, -0.0205282848, -0.2344494015, -0.1449755877, 0.2947077155, -0.2300703824, 0.2224497199, 0.2973233163, -0.5860486031, -0.1524981558, -0.2261681855, 0.0111246845, 0.0053542354, -0.0463439077, 0.0417146944, 0.0940120965, -0.0889059231, 0.0508407578, -0.0596776865, 0.0004832213, -0.1528572142, -0.0260311235, 0.0350817330, -0.1371659935, 0.0124509307, 0.3934018314, -0.4688649774, 0.1821384132, -0.1170325652, -0.1657187045, 0.0976178050, 0.0996630564, 0.0528144911, -0.0571929067, -0.1710286438, -0.0443180166, -0.0090845693, -0.0678438619, -0.0056643928, 0.0290475693, 0.2209343314, -0.1103033200, -0.0864085406, -0.2390248477, -0.4315672815, 0.0056540417, -0.0736449733, 0.1884401888, 0.0204264168, -0.2796829343, -0.0341124609, 0.0600652993, -0.1308362186, 0.0078737270, -0.2293742895, 0.1039263681, 0.1360616237, -0.3045576811, 0.0862810984, -0.0737233907, 0.1313803941, 0.2342128009, -0.4511772394, -0.1480895132, 0.0144825308, -0.0831412077, 0.2833457589, 0.0565145425, 0.0899822637, 0.2703410387, 0.0848462358, -0.1677201092, -0.2444233298, 0.1297896802, -0.0566823557, -0.0377028622, -0.0609605275, -0.0348724425, -0.3810377121, 0.1526338309, -0.3649596274, -0.1291788965, -0.1608325392, 0.1899328828, -0.0835189223, -0.0408036821, -0.4873175621, -0.0700460449, -0.0986314192, 0.1476433575, -0.0512824543, 0.3126027882, -0.0341109224, -0.1201585457, 0.0218715891, -0.0223445743, 0.0755976960, 0.1014200822, 0.0030597881, -0.0213414691, -0.0284803268, -0.0023582596, -0.0099228173, -0.0058275959, 0.0159973521, -0.0005676309, -0.0860037133, -0.0713090152, -0.0671959221, -0.0297404919, -0.0987985879, 0.1033188105, -0.0439964905, -0.0007028158, -0.0292568132, -0.0309342463, -0.0596415363, 0.0430434346, -0.0259490982, 0.0301223025, 0.0165582001, -0.1080802903, 0.0770338327, 0.0780138522, -0.0606296882, 0.0689207613, 0.0640347674, -0.0289142560, 0.0200033262, 0.1124007106, 0.0545339249, -0.0372381397, 0.0492828302, 0.0102295736, 0.0848564357, -0.0126700196, -0.0536287278, -0.0177883171, -0.0446394496, 0.0635089949, 0.0404061452, -0.0330888033, -0.0433844365, 0.0527247004, 0.0334367119, -0.1245412305, -0.0470268615, -0.0165219735, 0.0478426404, 0.0360856615, 0.0417335778, 0.0268251318, 0.1124637201, -0.0826382115, 0.0135533018, -0.0264731850, -0.0373841263, -0.0934608728, 0.0699715391, 0.0404178686, 0.0867185146, -0.0183441546, 0.0064026136, 0.0935470387, -0.0412552208, -0.1996216029, 0.3526227772, -0.2541034222, -0.0648824871, -0.4013495445, -0.0883456245, 0.2040463388, -0.0712426603, -0.2480392158, -0.0795263648, 0.0637341142, -0.1736427248, -0.1373685896, 0.1980586648, -0.0184455458, 0.1297165900, -0.0674573705, 0.1674123406, 0.1182865277, -0.2096505761, -0.0742642209, 0.1235300452, -0.0433360972, 0.1706196815, 0.1762362421, 0.2339971066, -0.0493391939, 0.0475214534, -0.0581691526, -0.1230772808, -0.1690573692, -0.3196623325, -0.0725309104, 0.1727605909, 0.0994517133, 0.1975375861, -0.3172260225, -0.0420852639, -0.0105856508, 0.0765829980, 0.0220495686, 0.3455805480, 0.1010471359, 0.2652703822, -0.0690559968, 0.1428170055, -0.1374531686, 0.3151042163, -0.0660185665, 0.0477687046, 0.3579274118, -0.3149372339, -0.0060657403, 0.1043921486, 0.0715261251, 