//Numpy array shape [100]
//Min -0.000054879332
//Max 0.000064729349
//Number of zeros 0

#ifndef B2_H_
#define B2_H_

#ifndef __SYNTHESIS__
model_default_t b2[100];
#else
model_default_t b2[100] = {-0.6794810891, 0.4015062451, 0.3780095875, 0.1132073179, 0.5989846587, 0.0094106812, -0.8615433574, -0.1430259347, -0.3286328316, -0.2220942378, 0.5131213665, -0.8544169068, -0.4671101868, -0.8157345057, -0.2948992848, -0.0825358182, 0.0088061932, 0.6019684076, -0.7232139707, 0.4684682190, 0.9550492764, -0.0615250617, -0.0918778628, -1.3914746046, -0.3642311096, -0.5693513155, 0.5570337772, -0.4083091319, 0.2497384548, -0.1964474469, 1.0207024813, -0.2399516404, -0.5989726782, 0.3538519740, -0.2610083520, 0.3993809521, 0.2979129255, 0.4739090502, 1.3699159622, 0.8847203851, 0.8472138643, -0.5755981207, 0.1972615421, -0.0795587823, -0.4057473242, -0.1587874889, -0.6217257977, -0.0016511421, -0.6197714806, -0.4450275004, -0.8666024804, 0.1227099672, 0.0185168218, 0.0716597065, -0.6149523258, 0.0674312115, -0.2661713064, -0.2592854798, -0.4294221699, 0.0662426651, -0.6090927720, -0.2347654104, -0.6980690360, 0.1606132686, 0.4904263020, 0.3687936962, 0.4949113131, 0.1996207833, -0.3171430528, -0.6303498149, -0.1710112095, 0.4062021375, 0.6395980716, -0.8549392223, 0.5234752893, 0.4501559436, -0.6942012310, 0.4588397145, -0.2986479104, 0.0175892133, 0.0550690517, -0.6157999039, 0.1178036258, -0.6712451577, -0.0116729178, 0.4273044169, 0.3381594718, -0.0349264182, -0.1293270737, 0.2421770245, -0.0519812629, -0.3442732096, -0.2298228741, 0.2962847948, 0.0171357989, 0.6100342870, 0.0201913845, 0.2067885697, 0.5079888701, -0.1702435315};
#endif

#endif
